,feature_0,feature_1,feature_2,feature_3,feature_4,feature_5,feature_6,feature_7,feature_8,feature_9,feature_10,feature_11,feature_12,feature_13,feature_14,feature_15,feature_16,feature_17,feature_18,feature_19,feature_20,feature_21,feature_22,feature_23,feature_24,feature_25,feature_26,feature_27,feature_28,feature_29,feature_30,feature_31,feature_32,feature_33,feature_34,feature_35,feature_36,feature_37,feature_38,feature_39,feature_40,feature_41,feature_42,feature_43,feature_44,feature_45,feature_46,feature_47,feature_48,feature_49,feature_50,feature_51,feature_52,feature_53,feature_54,feature_55,feature_56,feature_57,feature_58,feature_59,feature_60,feature_61,feature_62,feature_63,feature_64,feature_65,feature_66,feature_67,feature_68,feature_69,feature_70,feature_71,feature_72,feature_73,feature_74,feature_75,feature_76,feature_77,feature_78,feature_79,feature_80,feature_81,feature_82,feature_83,feature_84,feature_85,feature_86,feature_87,feature_88,feature_89,feature_90,feature_91,feature_92,feature_93,feature_94,feature_95,feature_96,feature_97,feature_98,feature_99,feature_100,feature_101,feature_102,feature_103,feature_104,feature_105,feature_106,feature_107,feature_108,feature_109,feature_110,feature_111,feature_112,feature_113,feature_114,feature_115,feature_116,feature_117,feature_118,feature_119,feature_120,feature_121,feature_122,feature_123,feature_124,feature_125,feature_126,feature_127,feature_128,feature_129,feature_130,feature_131,feature_132,feature_133,feature_134,feature_135,feature_136,feature_137,feature_138,feature_139,feature_140,feature_141,feature_142,feature_143,feature_144,feature_145,feature_146,feature_147,feature_148,feature_149,feature_150,feature_151,feature_152,feature_153,feature_154,feature_155,feature_156,feature_157,feature_158,feature_159,feature_160,feature_161,feature_162,feature_163,feature_164,feature_165,feature_166,feature_167,feature_168,feature_169,feature_170,feature_171,feature_172,feature_173,feature_174,feature_175,feature_176,feature_177,feature_178,feature_179,feature_180,feature_181,feature_182,feature_183,feature_184,feature_185,feature_186,feature_187,feature_188,feature_189,feature_190,feature_191,feature_192,feature_193,feature_194,feature_195,feature_196,feature_197,feature_198,feature_199,feature_200,feature_201,feature_202,feature_203,feature_204,feature_205,feature_206,feature_207,feature_208,feature_209,feature_210,feature_211,feature_212,feature_213,feature_214,feature_215,feature_216,feature_217,feature_218,feature_219,feature_220,feature_221,feature_222,feature_223,feature_224,feature_225,feature_226,feature_227,feature_228,feature_229,feature_230,feature_231,feature_232,feature_233,feature_234,feature_235,feature_236,feature_237,feature_238,feature_239,feature_240,feature_241,feature_242,feature_243,feature_244,feature_245,feature_246,feature_247,feature_248,feature_249,feature_250,feature_251,feature_252,feature_253,feature_254,feature_255
xn74r5,0.096475795,-0.038537502,0.03509567,0.030494956,0.048091,0.0132765155,0.01323413,-0.0788952,-0.07629921,0.040314984,-0.011033767,0.052528527,0.077700876,-0.035108905,-0.023229554,-0.05031439,-0.10330045,-0.018959807,0.031932116,-0.089090414,0.050589014,-0.0016344719,-0.06448579,0.06793655,0.12893403,0.0535134,0.114436805,0.017159853,0.10928888,0.008890218,0.048463322,0.005496483,-0.0043365443,0.02618221,0.096570686,-0.00341752,-0.05107913,0.06760772,-0.0006204072,-0.023342015,-0.092266984,0.05812859,-0.10114158,-0.09533769,0.08758042,-0.055262778,-0.06294036,-0.03302931,-0.09932713,0.025942232,-0.012123565,-0.015231917,0.11376282,0.021473145,0.105411336,-0.0079804445,-0.020111123,0.02405056,-0.048748046,-0.031318054,0.012707721,-0.028862115,-0.008244607,0.11130879,0.08477621,0.0033303434,0.012570545,-0.12490452,-0.059256427,-0.03634856,-0.020643352,-0.0030533804,-0.10145941,0.057422914,0.091479965,-0.008437712,-0.03854908,0.06185922,0.004521089,-0.06116731,-0.002614146,-0.050010722,-0.1976073,0.017280307,-0.037022676,0.035959505,-0.08407494,0.07710384,0.07225864,-0.05115945,-0.14684826,0.028714376,0.045282193,-0.0061108866,0.057179015,-0.027860293,0.0077922605,0.017848667,-0.1396171,-0.001382744,-0.017333746,-0.07934092,-0.051504046,0.026631467,0.03775562,0.021191537,0.0025570437,-0.031222114,0.00029913752,0.076631926,-0.089283384,-0.022891076,-0.015910633,0.019951254,-0.063053854,-0.021699414,0.0037744152,0.025417292,0.11152069,-0.09146669,0.058967564,-0.012560375,-0.05203684,-0.18534094,-0.014900472,0.04150014,0.016434174,0.08417402,0.020187339,0.124219775,0.06338519,-0.0267538,-0.073493674,-0.0022988312,-0.020249601,0.036430188,-0.011055911,0.036801733,-0.023143224,0.059546236,0.015457925,-0.032448813,-0.061220437,0.14546448,0.09020297,-0.0026687344,-0.07503803,0.04084756,-0.0064113433,0.029777182,-0.017947476,0.016718186,0.075497806,0.019161625,0.045736026,0.10604044,0.0465659,-0.18018365,0.06749088,-0.03280324,0.018940927,0.00014934028,0.0034366492,-0.048808858,-0.00063040276,0.0065687736,0.01138981,-0.043926604,0.017481942,-0.028862527,-0.01657803,0.08068516,-0.0124336025,0.031213796,0.02251094,0.10123914,0.12763771,-0.00893282,-0.030119477,0.017178822,-0.018863345,-0.062401496,0.0131088,-0.07232407,0.009098707,-0.026473098,-0.10153588,-0.071239285,0.021410309,-0.03893923,0.0017873918,0.17586224,0.024334537,0.03065087,-0.022348408,0.039010186,-0.09554229,-0.02520163,-0.10062483,0.13929915,0.09776179,-0.038252145,-0.01100998,-0.061533257,-0.103951536,0.007371067,-0.057079848,-0.05927476,-0.12105154,0.022185339,-0.043242365,-0.04373486,0.01912273,0.005656445,0.055541743,0.029142084,-0.00915703,0.011656522,0.024462651,-0.14734927,-0.002867679,0.033345085,0.04041716,-0.123278156,0.15814392,-0.015799526,-0.028796835,-0.012805106,-0.03127782,-0.0034546745,0.13800143,0.028318092,-0.037059594,-0.015665699,0.105843164,0.10605779,-0.0032965215,-0.025811935,0.007852728,0.00061087427,-0.11774143,-0.007627576,0.013604853,0.039723746,-0.047321197,-0.025091205,-0.03227194,-0.0022972922,-0.0744117,0.08053045,0.041266266,-0.026377663,0.030452197,0.00904192,0.0206579,-0.020666685
xn74r7,0.10338104,-0.07802138,0.007684307,0.0043419255,0.023709483,-0.0013281755,-0.0049488414,-0.030673126,-0.06590263,0.02610389,-0.029231394,0.058643267,0.072643794,-0.08064052,-0.06557708,-0.05408289,-0.11600121,-0.01389915,0.02296297,-0.06797784,0.04709783,0.031669963,-0.052522942,0.04103017,0.089510754,0.085099675,0.15582402,-0.0051477854,0.08254259,-0.021977464,0.042839088,0.006999618,0.012146544,0.0161652,0.109891765,-0.026442613,-0.05413908,0.017627308,0.005303188,-0.032500993,-0.105277516,0.04142348,-0.0924859,-0.12704192,0.12680094,-0.038683914,-0.011414924,-0.027794013,-0.09429038,0.037484843,-0.02098801,-0.01006274,0.061949443,-0.020494059,0.111809865,0.0005582143,-0.039749794,0.017076144,0.014772279,-0.029044276,-0.022666346,0.021648858,0.02505158,0.072200544,0.08465289,0.015458098,-0.0077822455,-0.1330245,0.01317567,0.015978295,-0.0911076,-0.05967786,-0.107203096,0.03651474,0.13478625,-0.029596241,0.03887529,-0.007872052,-0.011465835,-0.0046704486,0.0052739573,-0.067987815,-0.15461773,0.061165746,-0.08561019,0.043092985,-0.047189347,0.0379206,0.047058657,-0.012607888,-0.12623174,0.06655903,-0.016906753,0.01527371,0.0077334912,-0.018775458,0.023183515,0.026671069,-0.15285093,-0.07428184,-0.045420893,-0.024538018,0.007388322,0.02674681,0.012048547,0.04761042,0.00657807,-0.043204054,-0.044406902,0.07619221,-0.03571512,-0.03181645,0.027355101,0.03003868,-0.00076294993,-0.0651089,0.002049215,0.042262625,0.13204192,-0.06552725,0.0401709,-0.010575538,-0.044127483,-0.1833193,-0.01293691,0.03529887,0.0268426,0.05935368,0.021080367,0.07368109,0.06099222,-0.015260939,-0.07503978,0.034143887,-0.02939551,-0.018772544,-0.08708498,0.023266526,-0.03454764,0.09048907,0.048147064,-0.040391933,0.031829447,0.115208164,0.066304065,-0.004517611,-0.09762795,0.022488147,-0.017134588,-0.0024609596,0.016644599,-0.016843092,0.08601478,0.047570642,0.0490988,0.08524927,0.022168338,-0.17495191,0.03526145,0.009420296,0.093023,0.04070742,-0.06286798,-0.055094063,-0.011755037,-0.043036766,0.038465902,-0.02467016,0.0375364,-0.00553902,-0.015198499,0.09353626,-0.0012626471,0.029555097,0.019611409,0.10364604,0.07974641,-0.0020583812,-0.029041344,0.027428987,-0.029056286,-0.030070001,0.048596043,-0.06740685,-0.06991117,-0.053128574,-0.10191639,-0.05664399,0.08890156,-0.01797321,0.043873448,0.15977761,0.06828638,-0.03106315,-0.028367724,0.057154253,-0.08898342,-0.03921981,-0.07893204,0.14984503,0.0601137,-0.038421944,-0.022302615,-0.065617025,-0.07353532,-0.020365465,-0.05381741,-0.11445512,-0.09633195,0.006490046,-0.05806188,-0.044587612,0.0068584215,-0.010089879,0.005554376,-0.0030159124,-0.058606204,0.03141392,0.021092812,-0.1625714,-0.0071528465,0.056737304,-0.014000719,-0.06849735,0.12557837,-0.047668327,0.003847961,0.025466979,-0.050858565,-0.0317243,0.14757422,0.06731893,0.029491419,0.008476278,0.11948844,0.13935412,-0.010384794,-0.003405926,0.014322507,0.050474938,-0.13239495,0.024932742,0.011069801,0.07625312,-0.025165357,0.0068304716,0.0071016857,-0.058095444,-0.07289977,0.09183365,0.047177844,-0.047169536,0.022548016,-0.004187969,0.04595663,-0.0022855639
xn74r9,0.08734575,-0.04265121,-0.03878785,0.009006454,-0.028497748,0.030313963,0.0010991641,0.05558398,-0.057604533,0.0025961439,-0.026259113,-0.013733609,-0.008021483,-0.064966366,-0.07203918,-0.02637006,-0.09741505,-0.0055026654,-0.02539354,-0.10192485,0.016532294,0.012996813,-0.0049469876,0.01932051,-0.022996487,0.07115352,0.14718106,-0.0963472,0.01340982,-0.051425103,-0.022059422,-0.0063707773,-0.007861774,-0.02592471,0.07067316,-0.024515785,-0.06275963,-0.025312616,0.015442461,-0.010215553,-0.108236976,-0.012480914,-0.04708109,-0.19384685,0.14470127,-0.034038715,0.028083023,-0.003271448,-0.018729743,0.02639991,-0.011313709,-0.025008462,-0.07284171,-0.0700324,0.06976671,-0.038298495,-0.076871455,-0.011552564,0.054325547,-0.0031454016,0.022261765,0.0730672,0.13142858,-0.011244274,0.038225617,0.04224079,0.013818276,-0.083383486,0.030143742,0.109201804,-0.12677296,-0.08431179,-0.054377794,0.052502975,0.1377717,-0.06983068,0.060360353,0.038047206,-0.016035233,0.070875876,0.026346728,-0.05127509,0.021506323,0.0014826518,-0.0034660813,0.11352703,0.00981429,0.04258156,0.04770317,0.0488087,-0.067495,0.075343125,-0.038625896,-0.01652343,-0.025139809,0.03338529,0.09968141,-0.013443553,-0.016667705,-0.18231986,-0.04721504,0.016129293,0.09404918,-0.004510719,-0.029943462,0.06146061,0.06570344,-0.051249504,-0.15809268,0.013238276,0.032291684,-0.058968894,0.0807316,-0.022312973,0.03511323,-0.014986706,0.07101155,0.033655703,0.046808604,-0.031817947,0.0028497037,0.0062840767,0.022602178,-0.021340579,0.0035560615,-0.0024781043,0.030233234,0.031238284,0.0077737896,-0.008490876,0.0044221585,0.016983429,-0.05238657,0.11529141,-0.037744645,-0.04661722,-0.16249652,-0.0075397734,-0.0220128,0.034409814,0.05250019,-0.026825735,0.09895732,0.078050174,0.0028975022,-0.03079646,-0.13518162,0.014728921,-0.09426206,0.012722289,0.08050639,-0.033435863,0.082323894,0.0474948,0.030079134,0.052889932,-0.044094834,-0.0034180325,-0.0040403404,0.048547283,0.11709123,0.07979114,-0.07965803,0.0019596138,-0.00076676207,-0.011494933,0.09701429,-0.06523973,0.071000084,0.049635276,0.061324164,0.070555404,0.008199068,0.0005736641,0.021940816,0.03251083,0.06030298,0.010695976,-0.052080665,0.045953695,-0.020390546,0.048175573,0.02418383,-0.019876987,-0.16272649,-0.14717934,-0.10400271,-0.040018033,0.11129368,-0.049866278,0.012904957,0.07062966,0.07432332,-0.06998556,0.037776813,0.07075043,-0.03526243,-0.009383365,-0.04043266,0.1269435,-0.040442694,-0.0036804026,-0.041087445,-0.093716875,0.007700747,-0.033804715,-0.019831983,-0.1400739,-0.11617087,-0.026417887,-0.016881602,-0.066390656,-0.06963808,-0.080689564,-0.0688158,-0.05820331,-0.05880759,0.041981548,0.030220421,-0.11346814,-0.06357961,0.066239886,-0.046591155,0.0022684636,0.06613662,-0.046137404,0.124577366,0.058043096,-0.029686619,-0.03174075,0.07887442,0.11303728,0.08525023,0.0006535452,0.054939277,0.1222482,-0.040533364,0.11505025,0.00948341,0.08196062,-0.019946218,-0.056205615,-0.015159952,0.018009814,0.003892579,0.02148991,0.06062422,-0.108706854,-0.035406876,0.03100225,0.0148081565,-0.05710959,0.003191893,0.0121251205,0.059220422,0.010184035
xn74rc,0.064082235,-0.07889003,-0.031308148,0.05039047,-0.018423522,0.042466905,0.040397782,0.047942627,-0.02810048,0.008566398,-0.034844566,-0.089298345,-0.025587765,-0.038215075,-0.08811046,-0.01422555,-0.08628972,0.024858696,-0.038893353,-0.09153817,0.01621823,0.014137075,-0.005944479,0.018939478,0.011346568,0.058932766,0.106380634,-0.14777802,0.005502246,-0.04626837,0.010161038,-0.03144881,0.020368205,-0.02236981,0.037693057,-0.02384022,-0.0087981215,-0.026444398,-0.0074650543,0.008821052,-0.116886646,-0.023035256,-0.04030545,-0.19532096,0.14921148,-0.001996717,0.026435304,-0.018233385,-0.00080835744,0.022962814,-0.037850287,-0.0130764125,-0.08301482,-0.065931566,0.11447874,-0.02552466,-0.103347756,0.033701457,0.067708634,-0.037933417,0.0068313866,0.09351837,0.087467924,0.0025454725,0.02665071,0.03990217,0.037572406,-0.07237368,0.05713712,0.123494156,-0.12836596,-0.10143358,-0.09735425,0.102809586,0.10518113,-0.051885657,0.032034535,0.038877945,-0.018213794,0.06789656,0.0088388575,-0.029731376,0.03148706,-0.011861519,-0.01334975,0.07294091,0.022426821,0.013282688,0.03722005,0.044167913,0.0005497885,0.06511806,-0.03981543,-0.010188195,-0.014251413,0.037720658,0.09646353,0.02294598,-0.06563031,-0.18917215,-0.038555108,-0.008100244,0.108275644,0.00047012017,-0.016200831,0.088832796,0.06273626,-0.006865543,-0.155136,0.01741886,0.014375864,-0.03483777,0.10210341,0.012032341,0.017353464,-0.018427568,0.09761142,0.023886064,0.04921544,-0.048286483,0.056613732,0.012735373,0.037396614,-0.049036972,0.006768955,0.03266756,-0.04567828,0.033449415,0.020781316,0.004810102,0.04061753,0.020791858,-0.046609227,0.045798823,-0.012039805,-0.067009374,-0.14692432,-0.00925192,0.01624894,0.006958523,0.051360402,0.017461246,0.072859004,0.07835336,0.043507926,-0.004611725,-0.10579912,-0.013979784,-0.11552437,-0.021081358,0.08652638,-0.042356264,0.0813603,0.014392425,0.04725471,0.08239342,-0.017976923,-0.0060176137,0.009553462,0.010914562,0.087554604,0.040088464,-0.0709412,-0.045419123,0.013811665,-0.011690409,0.08883868,-0.117988996,0.079231486,0.055669915,0.0108719515,0.06992298,0.011560568,0.004051593,0.01613874,0.049772117,0.07160985,0.035461824,-0.11389891,0.037578348,-0.03623482,0.039697956,0.005931688,-0.003675174,-0.13378558,-0.17530972,-0.07182872,-0.042609353,0.0750155,0.012974955,-0.020525154,0.069969736,0.016160604,-0.110706076,0.04224402,0.0805838,-0.027423227,-0.019140746,-0.08825835,0.13675955,-0.016773237,0.0085166115,-0.029507201,-0.08466099,0.008504718,-0.022929784,0.004715511,-0.1267784,-0.117338896,-0.023633512,0.038806416,-0.016931009,-0.09270309,-0.06286771,-0.10822443,-0.060782712,-0.03525237,0.08591732,0.018467069,-0.05901471,-0.058851454,0.05189667,-0.044902246,0.016195115,0.020254321,-0.060355715,0.08468645,0.0565409,-0.020863285,-0.04629745,0.077823706,0.11275084,0.101009116,-0.0033297858,0.0695025,0.117730275,-0.005388649,0.114458375,0.004888451,0.06304089,-0.02572678,-0.036983937,-0.02487404,0.012038608,-0.061050665,0.007841887,0.058322057,-0.1006211,0.0018469895,0.06284836,-0.035537653,-0.10407356,0.026380567,-0.0058784275,0.03507052,0.008183834
xn74rd,0.09209273,-0.079806864,-0.028362287,-0.007137604,-0.012118315,0.0008696113,-0.023453899,0.03112972,-0.04601778,0.010434731,-0.0311248,0.025207493,0.03582904,-0.094568975,-0.08519166,-0.032879245,-0.09995603,0.0006894259,-0.0019955307,-0.05278676,0.027860636,0.044589717,-0.022325233,0.0068665254,0.018658057,0.08850438,0.16146263,-0.066250704,0.021070981,-0.05756468,0.014917888,-0.005212032,0.01774549,-0.009721132,0.092414744,-0.035479885,-0.051844615,-0.028503109,0.013709878,-0.04186011,-0.109785035,-0.00036674025,-0.054809455,-0.16294539,0.14385174,-0.021522895,0.027932942,-0.010777925,-0.049692202,0.033689108,-0.026019348,-0.007553267,-0.03545991,-0.061781384,0.085176624,-0.0070926044,-0.07112884,0.015016948,0.069134004,-0.011741357,-0.025256513,0.0788629,0.0803497,0.0029793058,0.06676904,0.032343153,-0.006207227,-0.10523144,0.067429036,0.08983475,-0.13221307,-0.10337884,-0.085361056,0.02339358,0.15389217,-0.051083107,0.085670024,-0.034561105,-0.020814134,0.059305318,0.020203993,-0.063754536,-0.044960395,0.053936638,-0.07218774,0.06361358,0.0072172335,0.0005077911,0.029519124,0.042126607,-0.06972953,0.08059229,-0.06563392,0.015210895,-0.035638966,-0.0043556406,0.062258184,0.02547974,-0.09234156,-0.15772374,-0.059328664,0.021015707,0.07525849,0.019486293,-0.021253433,0.064933255,0.03185197,-0.035384767,-0.11555056,0.041486334,0.03776598,-0.048831724,0.07598848,0.012375657,0.052461337,-0.063635945,0.02641911,0.02855718,0.092783816,-0.03586209,0.016350577,-0.0050795716,-0.009120705,-0.09021963,0.0012349914,0.023342315,0.019151887,0.029879069,0.024690505,0.011214181,0.024948664,0.013342086,-0.055001903,0.081373446,-0.028471377,-0.074492484,-0.1569689,-0.00546686,-0.01951366,0.0758757,0.058415055,-0.025443187,0.1025064,0.072972536,0.022567257,-0.008065034,-0.119367205,0.0032255338,-0.059238404,-0.025750304,0.06496583,-0.036053296,0.07856745,0.06414084,0.04086816,0.05920406,-0.033639584,-0.07755283,-0.0075475723,0.049735673,0.13390546,0.07538758,-0.091893345,-0.039581217,-0.0043860977,-0.059056412,0.07454334,-0.043192312,0.059738766,0.03781696,0.0060788565,0.07730304,0.007706454,0.023268461,0.015682831,0.073435605,0.038741514,0.018306982,-0.031570103,0.031447284,-0.02611907,0.032730952,0.05637081,-0.047739588,-0.14232858,-0.09806342,-0.08159806,-0.04128317,0.12516366,-0.002490151,0.049090385,0.10001363,0.084493764,-0.07979158,-0.015297574,0.066448696,-0.05948755,-0.030701121,-0.04931011,0.13186438,-0.0013777514,-0.01881569,-0.036877193,-0.08242248,-0.014881003,-0.040075097,-0.028796965,-0.14660956,-0.08319484,-0.022675589,-0.05623912,-0.04509222,-0.029403668,-0.043312415,-0.05151665,-0.050784677,-0.08725157,0.052818812,0.017452678,-0.14297037,-0.03450569,0.064027354,-0.05846447,0.003769587,0.06705809,-0.0725371,0.059600383,0.060638096,-0.041395307,-0.04917873,0.106450275,0.109663375,0.083948374,0.009072367,0.09643136,0.14760548,-0.018881839,0.06500297,0.013808899,0.09700047,-0.08169347,0.018715896,-0.0013926136,0.0694243,-0.0062671313,0.030906495,0.046341985,-0.10277853,-0.0432317,0.06818878,0.028586559,-0.06775934,0.0039037303,-0.0028842478,0.06219315,0.0163726
xn74re,0.09516277,-0.088696934,-0.0017917671,-0.007485132,0.00780038,-0.0025134855,-0.0077826884,0.011783488,-0.055451285,0.022006998,-0.040410146,0.05020566,0.061653268,-0.09953862,-0.08415626,-0.057765123,-0.09629802,-0.014767136,0.028571347,-0.059927363,0.048750587,0.04954218,-0.0322602,0.011690406,0.051414706,0.08564398,0.15680191,-0.02704126,0.049763888,-0.043358054,0.032148488,0.0023382078,0.019032206,0.01588952,0.087344386,-0.034791503,-0.055161305,-0.012328992,0.01566196,-0.033592664,-0.10119997,0.020152872,-0.080559894,-0.13349564,0.13374582,-0.024334881,0.020872146,-0.020410705,-0.08058623,0.049437296,-0.018508527,-0.0082894,0.03242187,-0.03281915,0.09874029,0.007785776,-0.054966427,0.015526438,0.059409536,-0.023711722,-0.036932632,0.051712226,0.03744232,0.041823607,0.08869234,0.021372216,-0.019231353,-0.13142568,0.058931593,0.052175622,-0.12976795,-0.08910645,-0.10778397,0.01680039,0.14299105,-0.02990672,0.07501321,-0.04268681,-0.019861987,0.033515517,0.021052789,-0.0659937,-0.10397629,0.061904885,-0.10613916,0.042894155,-0.016370434,0.011029495,0.03270449,0.015313433,-0.10209758,0.083531946,-0.049933266,0.028876955,-0.021435782,-0.012734023,0.035386443,0.02494935,-0.12900874,-0.10463348,-0.065391615,0.0069794445,0.045527276,0.03487858,0.0065473383,0.052672,0.008411456,-0.03623884,-0.075369135,0.062260665,0.0043547302,-0.02397112,0.0567411,0.037823163,0.024806337,-0.084820665,0.0105501395,0.0500747,0.13268144,-0.045624204,0.027882224,-0.001491147,-0.03469027,-0.14578725,-0.011929332,0.017730905,0.03757482,0.038135003,0.020947583,0.031017432,0.05596869,-0.008603223,-0.07151258,0.058907706,-0.037680574,-0.048054334,-0.12797667,0.017434228,-0.034154583,0.097724855,0.06072959,-0.032848492,0.073890865,0.07361559,0.044098925,0.0023639607,-0.10469599,0.008042542,-0.02347441,-0.030662285,0.03464506,-0.038729656,0.08741219,0.065908134,0.039897315,0.06080976,0.014970771,-0.143332,0.0067679244,0.034578215,0.121339284,0.050467882,-0.09812507,-0.04160481,-0.0066219624,-0.04990732,0.05740261,-0.014378804,0.03960874,0.008787784,-0.011416443,0.078232855,-0.001821009,0.031841815,0.014226259,0.087901875,0.049386315,0.0068440787,-0.017873313,0.03255625,-0.02732482,-0.02372008,0.06827913,-0.07263435,-0.12045162,-0.07094278,-0.08598128,-0.050860092,0.12151782,-0.011787329,0.060273148,0.13513765,0.079411365,-0.06066181,-0.023967674,0.06209287,-0.08492404,-0.036970932,-0.046860017,0.13596681,0.029156478,-0.026225787,-0.03349822,-0.075057715,-0.044201225,-0.034449086,-0.04109954,-0.13008691,-0.068658374,-0.0015329932,-0.052070998,-0.032285344,-0.020867424,-0.012996182,-0.032119587,-0.018523151,-0.08084609,0.03715268,0.015120163,-0.1602054,-0.009614369,0.06063176,-0.05031221,-0.04016647,0.08760917,-0.06844379,0.020970361,0.043766603,-0.05532556,-0.041596774,0.12590985,0.0833158,0.058087513,0.010462119,0.102712974,0.15177238,-0.024083491,0.023334509,0.024336684,0.08053868,-0.11925254,0.037553787,0.0011660708,0.08876459,-0.009721497,0.02402855,0.029600374,-0.08997073,-0.061256424,0.09460047,0.036332764,-0.06970098,0.013880328,-0.012838285,0.056867193,0.01462633
xn74rf,0.05629778,-0.08147974,-0.018984228,0.039956894,-0.035011023,0.036911536,0.03771832,0.047373846,-0.03317468,0.032124802,-0.045990884,-0.05755745,0.0066411933,-0.071479656,-0.09872254,-0.036450725,-0.035842814,0.009662805,-0.025792407,-0.09815648,0.045697693,0.02241572,-0.0009619524,-0.0070325816,0.0073646377,0.052892733,0.10400907,-0.14564344,0.016360069,-0.04836773,0.014541001,-0.0021931115,0.04460887,-0.005211816,0.03816094,-0.030415114,-0.016795602,-0.037711997,-0.006292699,-0.003832013,-0.12279329,-0.03518743,-0.045876056,-0.19919989,0.1482313,-0.002391489,0.045935422,-0.019766822,-0.021519944,0.03155046,-0.0021514539,-0.013225145,-0.047581747,-0.0617929,0.12909395,-0.0130935395,-0.11036207,0.033312444,0.055874996,-0.048030198,-0.02100808,0.08203159,0.07469548,0.004026419,0.058851946,0.052778125,0.016369166,-0.10475751,0.06798441,0.11898481,-0.15113966,-0.10514571,-0.12210884,0.0773164,0.10864005,-0.051274788,0.055551734,0.010835176,-0.03433118,0.078958236,0.012552843,-0.013375467,0.012758405,-0.02222244,-0.049196403,0.043670177,0.023009952,0.020000506,0.045335043,0.061466,0.00021334483,0.07621398,-0.049942162,0.01467158,-0.023066571,-0.00018224758,0.06117441,-0.0034889225,-0.06635119,-0.18881565,-0.042899977,-0.0029114278,0.09854508,0.00012646143,0.00827837,0.086424,0.046485126,0.0008672753,-0.14577954,0.027692094,0.01013504,-0.013424296,0.10258802,0.043057997,0.020867202,-0.025052328,0.07964137,0.010006955,0.078206085,-0.042723324,0.038432617,0.009757241,0.017818796,-0.06437478,0.012289586,0.017995866,-0.03679422,0.027926585,0.013174231,0.003977436,0.06297869,0.0063120327,-0.046512432,0.069707215,-0.016280144,-0.061915696,-0.15680507,-0.023531625,-0.0051344293,0.053215977,0.07024469,0.023125721,0.06253548,0.053010505,0.054136723,0.015375042,-0.08398253,-0.006142919,-0.07864916,-0.044071283,0.07491738,-0.043991424,0.100984864,0.012036715,0.06305408,0.06951741,0.027517727,-0.056978982,0.0007002081,0.010379707,0.11535782,0.033334542,-0.07970056,-0.042610973,0.009500278,-0.022223622,0.0934104,-0.0968108,0.068591945,0.053963818,-0.009301706,0.06161054,0.017735342,0.005150211,0.025801461,0.06701032,0.039872155,0.039395463,-0.086773634,0.03172116,-0.017804118,0.0141953435,0.030701924,-0.009933036,-0.16773257,-0.15248503,-0.06015981,-0.046823625,0.09815569,0.01441115,-0.0067122355,0.075123064,0.037351307,-0.123826645,0.0372352,0.09412056,-0.04364108,-0.013049349,-0.057374787,0.11450252,-0.010004359,0.008556229,-0.043465897,-0.08292463,0.00713862,-0.015839877,0.020695021,-0.12247036,-0.08304848,-0.013428505,0.03230572,0.009720555,-0.1142069,-0.046851125,-0.11871899,-0.059774514,-0.044786647,0.069493175,-0.00012543988,-0.059642516,-0.05619937,0.03709406,-0.05376877,0.007994983,0.012605285,-0.07215016,0.05747705,0.054912154,-0.034988597,-0.05220504,0.070694454,0.12524131,0.07692011,-0.0042781257,0.051083244,0.11889499,-0.006593127,0.10840506,0.01857522,0.06971255,-0.051122777,-0.010606108,-0.023786297,0.02976174,-0.045279033,0.0126526235,0.054803926,-0.12546009,0.013079417,0.08829653,-0.029917955,-0.09613149,0.030017659,-0.022821063,0.035541207,0.01837115
xn74rg,0.085740484,-0.10941238,0.016697723,0.019784497,0.030318351,0.005549616,0.0054946207,0.018149965,-0.02889599,0.036357414,-0.05710351,-0.009651516,0.045892224,-0.080249794,-0.09222922,-0.04098029,-0.10363057,0.013598711,0.031153517,-0.06906865,0.036127653,0.0426818,-0.03510935,0.01811966,0.08570306,0.04953601,0.12581079,-0.045839876,0.05108842,-0.030179098,0.06236255,-0.027057074,0.0073135854,0.026537545,0.04296066,-0.027804231,-0.0139182005,-0.009253516,0.014423257,0.012151632,-0.112423584,0.020638622,-0.087260514,-0.12293036,0.13274415,-0.0012390726,0.0027001149,-0.037972573,-0.081565864,0.058953017,-0.032885715,0.00076543464,0.04761447,-0.006727387,0.12816672,0.021647131,-0.068443954,0.053848725,0.08031926,-0.049517084,-0.042998545,0.058148872,-0.0042376225,0.066223055,0.07271123,0.0041172025,-0.006565391,-0.12632845,0.08303989,0.058222044,-0.13175131,-0.077681184,-0.14418927,0.047711138,0.1194178,-0.015196381,0.037526347,-0.03134578,-0.032664526,0.0008257135,0.009304213,-0.05117208,-0.09285872,0.034467593,-0.11963903,0.024659028,-0.020970734,-0.010291628,0.015700417,0.013010097,-0.054355897,0.062799,-0.035963822,0.040824514,0.008629416,0.0147786,0.043357413,0.057530466,-0.17968577,-0.09628783,-0.06066573,-0.0096122455,0.051269736,0.03994243,0.03333361,0.060021482,-0.016079474,-0.0035807574,-0.041795842,0.064991586,-0.023876417,0.0012706468,0.05940443,0.06395344,0.0009630861,-0.089575686,0.042882048,0.057822574,0.14685334,-0.066618115,0.09036896,0.005656572,-0.035673156,-0.17554633,-0.013984464,0.028094387,-0.03128078,0.04493756,0.03420586,0.0601216,0.08215055,-0.012833225,-0.07772807,-0.0018688644,-0.024908908,-0.058443435,-0.10436593,0.022467393,-0.001932098,0.06529164,0.07616195,0.011477984,0.031063616,0.08159533,0.069080725,0.012969205,-0.0832777,-0.021111432,-0.04133807,-0.06207194,0.033993375,-0.045134433,0.08234063,0.048056193,0.034327284,0.086544774,0.025033789,-0.15180252,0.038364206,0.006192676,0.095148824,-0.015264249,-0.08968232,-0.095188096,0.014788635,-0.033404186,0.05974268,-0.054403104,0.043710463,0.004367038,-0.05111279,0.078708224,-0.004871691,0.042929903,0.0059360215,0.07651145,0.08662116,0.026593655,-0.056772467,0.026482692,-0.043876357,-0.034930076,0.05153085,-0.080529176,-0.07968295,-0.08070832,-0.06024895,-0.058976386,0.08593176,0.028746426,0.037353385,0.13972925,0.021624546,-0.086349495,-0.032533616,0.05372794,-0.08574832,-0.040431086,-0.08319664,0.1348849,0.058134764,-0.00061602896,-0.022919444,-0.076985024,-0.044452097,-0.025804456,-0.036426157,-0.113788724,-0.055775184,0.017703172,0.009154849,0.016298106,-0.033996917,0.015637932,-0.044801146,0.004680578,-0.05337802,0.07385701,0.008503758,-0.10447841,-0.013444554,0.030124849,-0.04532187,-0.04686215,0.053663127,-0.06999446,-0.007151491,0.03189583,-0.05008917,-0.035111103,0.12479168,0.07395186,0.061158754,0.00695194,0.11360923,0.15465383,-0.002131427,0.018572578,0.022843538,0.05498077,-0.124089174,0.04336268,-0.0107733,0.07069996,-0.06666377,0.017462987,0.02290595,-0.07586488,-0.047511633,0.12290167,0.0063545406,-0.11497371,0.024497548,-0.018780869,0.028606994,0.010254983
xn74rh,0.08661931,-0.025756223,0.04604418,0.039686084,0.058565218,0.019449469,0.02540511,-0.08970804,-0.068095885,0.04959083,-0.012862043,0.03549654,0.06587179,-0.012489268,-0.007915574,-0.046163272,-0.088773705,-0.013240929,0.030465074,-0.09256286,0.04597506,-0.017704295,-0.06283933,0.0766202,0.13609159,0.03204108,0.08814171,0.024418842,0.1124666,0.026730498,0.051522758,-0.0011401068,-0.011167017,0.03442887,0.069566295,0.0043404275,-0.04046135,0.08190615,-0.0024982102,0.0023130123,-0.08411833,0.059229363,-0.1006189,-0.076795965,0.06696234,-0.053484816,-0.07670385,-0.038637783,-0.09264399,0.023621624,-0.004798276,-0.01732191,0.12765504,0.043878112,0.09830404,-0.01655089,-0.014162655,0.023872698,-0.06629229,-0.03662429,0.018843565,-0.04669914,-0.02507884,0.12464025,0.070789486,-0.0064721815,0.02424727,-0.113186136,-0.077930965,-0.050319657,0.0026381814,0.022586823,-0.09263133,0.07138286,0.062114615,0.00019250518,-0.066134416,0.08665847,0.008021428,-0.08454151,-0.004785934,-0.03651987,-0.19915445,-0.0027808354,-0.020557955,0.031157114,-0.09557273,0.08041266,0.07747666,-0.059845097,-0.13699394,0.009756824,0.067977495,-0.011349089,0.07647269,-0.016304785,0.0025633376,0.014421913,-0.12744287,0.030177532,-0.0060544754,-0.09264248,-0.06294018,0.022310093,0.055042595,0.0061563393,-0.0055655837,-0.024858553,0.023730226,0.07309198,-0.11405407,-0.01333843,-0.033049032,0.017329814,-0.08874897,-0.0064503835,0.01179058,0.0277108,0.105623655,-0.09474953,0.072856694,-0.006742991,-0.053073432,-0.1827224,-0.015860174,0.035363626,0.0015711241,0.08726153,0.016888002,0.13480209,0.06476388,-0.032929964,-0.06957822,-0.021298604,-0.013410108,0.057023,0.02534307,0.042231444,-0.015558603,0.03820759,0.010568547,-0.02267661,-0.09700225,0.1448763,0.09360081,-0.0018731938,-0.053876612,0.043424144,-0.0071852775,0.036268093,-0.03557726,0.024366107,0.066003345,0.0070134006,0.03385956,0.104747854,0.05815329,-0.16777353,0.08174253,-0.052999068,-0.013525416,-0.026465027,0.02831361,-0.046481606,0.0055545834,0.03069337,0.0017220796,-0.048128415,0.0071534393,-0.03977162,-0.018796789,0.07246911,-0.012039186,0.028035223,0.018335778,0.084492445,0.14389487,-0.010218022,-0.035421643,0.011740947,-0.01724025,-0.07983278,-0.0038180253,-0.06759146,0.039643988,-0.023599898,-0.09210711,-0.07223814,-0.012972687,-0.042626146,-0.018391524,0.16966109,-0.0026184618,0.04449695,-0.016537469,0.025038932,-0.093259424,-0.020188175,-0.10318953,0.1262206,0.108364746,-0.029943442,-0.002671055,-0.055145502,-0.10524913,0.01854806,-0.05382218,-0.030513626,-0.1193906,0.031966537,-0.016220657,-0.030389618,0.0129054915,0.015205075,0.06686323,0.0485826,0.017508877,0.010117274,0.021881914,-0.116744794,-0.0009800356,0.018134283,0.0601069,-0.13637725,0.15374583,0.0038503893,-0.03890421,-0.030771378,-0.022821054,0.010808506,0.12490588,0.007312037,-0.056996483,-0.01963133,0.09092799,0.084736496,-0.00037706,-0.03719141,0.011911298,-0.031677082,-0.1015898,-0.025881017,0.007521494,0.018842133,-0.061613787,-0.037123293,-0.04539155,0.02594412,-0.06884686,0.07215524,0.028100377,-0.020665063,0.03598376,0.013840764,0.006997614,-0.028270375
xn74rs,0.093624055,-0.098467216,0.0142365005,0.0058692694,0.0310512,-0.002830834,-0.008822218,0.0052503925,-0.045522716,0.024409223,-0.044487413,0.032332007,0.06356801,-0.09026574,-0.08211444,-0.04856775,-0.11624577,-0.0034821755,0.04010232,-0.06312633,0.040765885,0.048328172,-0.042760994,0.022916174,0.085853666,0.06418325,0.1417809,-0.0139786815,0.06121141,-0.032661144,0.05467779,-0.012523121,0.00027495265,0.022343108,0.075601056,-0.027145576,-0.033778768,-0.0009605868,0.017512256,-0.0131309265,-0.10011567,0.035565447,-0.090194166,-0.110085845,0.12743983,-0.01579282,-0.0011552714,-0.030596633,-0.0928573,0.053950146,-0.032881852,-0.0010457939,0.064313106,-0.011302209,0.11288142,0.025744565,-0.048003674,0.040616065,0.06528639,-0.03423478,-0.038005505,0.04669561,0.0017682068,0.06791316,0.08340713,0.0039427606,-0.020344976,-0.13001427,0.06500117,0.03487741,-0.11724813,-0.07366432,-0.12672096,0.024694439,0.13234884,-0.01748813,0.045381624,-0.038955193,-0.026286926,-0.00049118,0.0098061925,-0.06603123,-0.118364796,0.057401538,-0.12050999,0.03127685,-0.028812379,0.0035035247,0.017046252,-2.413782e-05,-0.092285655,0.06755909,-0.034286864,0.037368845,0.0027874429,-0.0028479982,0.035419766,0.050073408,-0.17735402,-0.07933019,-0.062750995,-0.008786381,0.028510442,0.042942435,0.020239338,0.05239415,-0.013439818,-0.02152316,-0.035762835,0.06992318,-0.016325597,-0.010441808,0.045237876,0.054382667,0.0084066,-0.09234216,0.015602469,0.057531264,0.14239405,-0.061133314,0.06331962,-0.0023752043,-0.041976247,-0.18083838,-0.01704595,0.027191684,0.0072412817,0.047582757,0.030912409,0.061055683,0.06964546,-0.014374802,-0.080003224,0.010224997,-0.032483913,-0.04787513,-0.102314845,0.025456067,-0.01944767,0.080992475,0.06499244,-0.013149699,0.041060265,0.08698745,0.060739912,0.0039842953,-0.09393023,-0.010373043,-0.02151394,-0.043211933,0.02958268,-0.036688264,0.0803722,0.05622888,0.03671914,0.08145246,0.019556295,-0.16832182,0.032848023,0.019180454,0.10221672,0.0097448835,-0.09141724,-0.07674314,0.002230165,-0.042596642,0.049916286,-0.02954744,0.039365076,-0.005205503,-0.03552429,0.08105871,-0.0098668495,0.04328028,0.008715365,0.08606521,0.07599055,0.0111742625,-0.032790996,0.02805243,-0.039720602,-0.031508237,0.061033774,-0.089719936,-0.071594134,-0.05511088,-0.073805116,-0.056936305,0.09821893,0.009776277,0.055268075,0.1475412,0.048512086,-0.05832342,-0.040325202,0.051414106,-0.09032568,-0.04202722,-0.0733252,0.13571794,0.055596184,-0.017129686,-0.02274113,-0.07053422,-0.05758031,-0.027254554,-0.05048092,-0.11475224,-0.06116444,0.013836614,-0.030019576,-0.012275507,-0.0040491885,0.013666112,-0.017295986,0.0039957752,-0.0653764,0.053817175,0.01711802,-0.13990727,-0.0043489262,0.04155065,-0.04215409,-0.056886874,0.081363626,-0.06714166,-0.0061047147,0.03322006,-0.054089203,-0.03368626,0.13615358,0.06741261,0.049176466,0.010207175,0.11994518,0.15272515,-0.01041755,0.0037063486,0.017819751,0.06400136,-0.1356142,0.050691195,0.002181459,0.08326007,-0.04072819,0.020177754,0.016845914,-0.07409372,-0.067808114,0.114441074,0.03330112,-0.09033344,0.018805582,-0.014569176,0.038517248,0.009170028
xn74ru,0.08024395,-0.09644601,0.03500008,0.023682121,0.040605087,-0.00089663616,-0.0046973242,0.026186278,-0.02927295,0.034777988,-0.04779417,0.010718869,0.0560772,-0.08204225,-0.086145185,-0.030014498,-0.11825634,-0.0027453844,0.051796563,-0.08125744,0.026728252,0.03541934,-0.04922906,0.018645171,0.101202846,0.018057534,0.10797637,-0.0047649117,0.06767766,-0.015079157,0.07586028,-0.023328079,-0.02829574,0.019501463,0.049928628,-0.020301053,-0.0038910944,0.008743713,0.025329165,0.029816372,-0.098704055,0.053797413,-0.09694547,-0.08521853,0.12360764,-0.002433924,-0.013721702,-0.04589122,-0.111748464,0.06698797,-0.02482278,0.009153507,0.098409325,0.020322109,0.12547271,0.04984035,-0.049125053,0.063131444,0.07168929,-0.048393764,-0.042537156,0.036252968,-0.031385094,0.08127071,0.0640923,-0.016952239,-0.022589497,-0.12217263,0.07290608,0.029844698,-0.11106221,-0.04369576,-0.15103585,0.030345868,0.10941533,-0.009001018,-0.002275652,-0.027268952,-0.060819928,-0.038277097,-0.0016414573,-0.051779162,-0.09621269,0.018132439,-0.13490123,0.01771974,-0.03074184,0.012170342,-0.012531546,-0.004695863,-0.05056487,0.037111305,-0.0052528167,0.06177503,0.03321841,0.009380413,0.04433445,0.04950806,-0.20925991,-0.060354896,-0.064135,-0.020518182,0.012776311,0.042561486,0.03558879,0.051690962,-0.03945059,0.0069379807,0.008458635,0.070099,-0.033467267,0.018123481,0.039618175,0.08010376,-0.005030111,-0.09022695,0.031942833,0.06222292,0.14358036,-0.070255496,0.11520462,0.0025638067,-0.048533186,-0.2031007,-0.030503172,0.020704454,-0.040545586,0.057610046,0.027995225,0.0836533,0.08618374,-0.020490358,-0.09011767,-0.040259425,-0.03471495,-0.040401824,-0.075566106,0.019493228,-0.007996114,0.058177475,0.08103741,0.011608707,0.0026410304,0.083338514,0.068885185,0.00030912814,-0.070395686,-0.04158202,-0.014146574,-0.060199484,0.025848232,-0.04486418,0.08047677,0.031833157,0.031127898,0.09959172,0.016866129,-0.17818564,0.070625655,0.0032337988,0.08505185,-0.042811796,-0.085394174,-0.11147356,0.01499915,-0.01784815,0.045231044,-0.04416923,0.048283953,-0.019057887,-0.05582627,0.078343704,-0.026713273,0.04980951,0.0035754996,0.07226415,0.10412881,0.019291777,-0.048994265,0.029515285,-0.054581854,-0.030334473,0.040134914,-0.09254698,-0.026242938,-0.04582646,-0.044675644,-0.0594459,0.062213063,0.018411232,0.044419046,0.13949828,0.0050906264,-0.07090649,-0.045086075,0.036289904,-0.07829542,-0.03243164,-0.08758705,0.10991491,0.06858085,0.014338143,-0.014702307,-0.07442273,-0.05797889,-0.020698823,-0.044307932,-0.0925988,-0.033001825,0.040454876,0.024989456,0.026007693,-0.005781816,0.04108515,-0.00838167,0.023275996,-0.044634577,0.06925273,0.012872231,-0.07497623,-0.020118037,0.0028275417,-0.04833181,-0.06486539,0.055792365,-0.05689887,-0.022628365,0.011266323,-0.049381047,-0.011911923,0.1315563,0.05555393,0.04380578,0.0022993775,0.12663499,0.13628146,0.008050287,0.007316814,0.010448339,0.05130112,-0.13297576,0.0485522,0.0032505603,0.06330603,-0.071708836,0.015597705,0.0080992505,-0.07241542,-0.063551635,0.13935769,0.02507668,-0.11364577,0.020459427,-0.02879126,0.01003892,0.010276776
xn74rx,0.018840643,0.067329116,0.095612586,0.069261044,-0.00628063,0.19445755,-0.04394082,-0.040704884,0.020849852,0.022748668,-0.035488013,-0.096022815,0.027987415,0.06976576,0.043582045,-0.0340049,-0.01086643,0.047800362,-0.051178478,-0.18085213,0.12794575,0.01678392,0.03159183,-0.030778138,0.011424369,-0.12642217,0.019416312,-0.10843494,-0.034543637,-0.05953417,-0.0037976073,-0.03463994,-0.04642951,0.085846454,-0.052674852,0.00201972,-0.06980814,-0.099111184,0.07499981,-0.058939606,-0.009498913,-0.0038411042,-0.011860154,-0.018112293,-0.045188524,0.030584604,-0.16600472,0.07189558,0.08624259,0.026536027,-0.019587617,-0.011126758,-0.07373129,-0.06511859,0.020874664,-0.060130127,-0.013517756,-0.0035835102,-0.06945202,-0.006653834,0.054726887,-0.012412392,0.11308597,0.07460655,0.045843933,-0.036617313,-0.003964764,-0.091203436,0.043398514,0.049489804,0.06646601,-0.069389135,-0.045326825,0.09934945,-0.025358753,-0.039248396,0.0037512009,0.1584413,0.13812838,0.0110943625,0.06274072,0.04672897,-0.040262498,-0.06614937,0.11381592,0.0036044875,-0.050057705,0.0014306344,-0.03921127,0.0031094644,0.035178922,0.08329402,-0.07268368,-0.07444614,0.019361708,0.09503757,-0.06340723,0.17627278,0.02113146,-0.025659664,-0.011885035,-0.07707362,-0.08050584,0.05529736,-0.057739813,0.11113982,0.00654063,-0.04794028,-0.10330343,-0.068509325,-0.05788358,-0.08402751,-0.06313922,-0.107057504,-0.02285456,-0.020656027,0.051231366,0.0008441594,-0.14201756,-0.1081519,0.10080046,0.012444225,-0.037468977,0.06506662,0.040566053,-0.0094821965,-0.0075303805,0.07055222,0.022855366,0.08489667,-0.057354536,-0.055900544,-0.02500938,0.06721378,-0.003954095,0.06588027,-0.034683194,0.06958957,0.01904559,0.03276777,-0.015158231,-0.00071111403,0.0032642076,0.08568378,0.11665687,0.02940957,-0.12913565,0.041172333,0.020449359,-0.012145039,0.0025385767,0.04490969,0.00052267703,-0.052491043,0.014517692,0.021913262,0.04372122,-0.081000336,0.079132766,0.0055846325,-0.014479402,-0.045415,0.114797965,-0.032955233,-0.01614406,0.070135444,0.02073959,-0.14934689,0.12332771,0.01821528,-0.053710364,0.0074748676,0.020259304,-0.0367153,0.052556515,0.0045114723,0.15649699,0.043756347,0.0011682742,-0.030725462,0.04194497,-0.070940994,0.013215863,0.02949444,-0.024791973,0.051112555,-0.08744535,-0.09205413,-0.03424631,-0.02105035,-0.12162725,0.01913678,0.04712789,-0.002579274,-0.012995985,-0.015000729,0.08133663,0.0147112785,0.05074139,0.0011865668,0.09440688,-0.032263145,0.015297816,0.0390495,-0.059057206,0.05348156,-0.13561982,-0.020916421,-0.02180319,-0.09811837,0.025639111,0.015010154,-0.036979973,-0.033417836,-0.04907934,-0.027033314,0.0495018,-0.07946456,-0.03031513,0.0021408866,-0.043717086,0.093573,0.07499545,-0.05991578,0.0897977,-0.016333172,0.015660917,-0.010265937,0.012197554,0.0012992478,-0.042853236,0.013732872,0.08839885,0.009942128,-0.00995512,-0.026087034,0.008017984,-0.024156926,-0.14419508,0.0068196272,0.048976,-0.105003804,-0.015277894,-0.014747006,-0.009995066,0.017887937,0.06632801,-0.035119053,0.051552493,0.043607134,-0.004472556,-0.03071248,0.018616952,0.044007022,0.046628203,0.0036771765
xn74ry,0.0008558453,0.0038025242,-0.108295396,-0.00088346883,0.016521154,0.001207272,-0.038754735,0.047019552,0.029093916,0.022771373,-0.0723659,0.034264304,-0.0344085,-0.07165185,-0.02063937,-0.13641885,-0.03793277,-0.08049444,0.09272643,0.021157704,0.019081209,0.009490068,0.03454935,0.059964184,0.06941901,0.011548973,-0.019182663,0.007815154,0.065313965,0.0257843,0.04206133,0.061547447,0.08246994,0.08161415,-0.026738018,-0.029613692,-0.005243859,0.03186874,0.0678773,0.00062837714,-0.049094703,0.043755777,-0.0104892105,0.05130329,0.102614336,-0.058304217,-0.020640025,-0.03122384,-0.13651071,0.02915696,0.08511785,0.056625023,0.015320847,-0.049907565,0.15878135,0.01945589,0.003754755,0.079162195,0.012450436,-0.06564668,-0.085147545,0.010068312,-0.024224093,0.058103405,0.13022013,0.06993099,-0.07229805,-0.040411033,0.023055203,-0.013580578,-0.12132602,-0.03154976,-0.10416464,-0.06947452,0.03054056,0.049795132,0.08793253,-0.079272404,-0.047559034,0.044328663,-0.017563377,-0.009596114,-0.07888431,0.0163958,-0.055997357,0.07612354,-0.043228608,-0.08316416,0.020059267,-0.05239066,-0.019675836,-0.011722395,0.0036885024,0.0033514285,-0.054884627,0.056051973,-0.050320536,0.051201016,-0.1599305,-0.030605288,0.00792594,-0.053505618,0.13412234,-0.039549425,0.052521903,0.0036278227,-0.0839799,-0.07283212,0.080319695,0.029052481,-0.054457568,0.031881243,0.017484514,-0.025552228,-0.015882846,0.009403079,-0.057991307,-0.08799666,0.056640416,-0.080338754,-0.0013721496,0.038482886,-0.028698187,-0.05853622,0.06442226,-0.06873241,-0.023884077,-0.07055511,0.035801087,0.12592855,0.11094851,-0.005154755,-0.03223347,0.008263314,-0.07890857,-0.016043682,0.01196382,-0.00931035,-0.012645882,0.01145111,-0.009581974,0.12640995,-0.03575857,0.0170175,-0.010903788,0.07048237,-0.010008599,0.006591895,0.010298738,-0.0512001,0.061472863,0.055113968,0.03674173,0.0026657,0.009985512,-0.019365618,0.103852116,-0.20439053,-0.034905463,-0.05054746,0.1369132,-0.0398906,-0.020669864,-0.16542967,-0.048331488,-0.09246019,0.06926172,0.18704815,-0.011770149,0.02020983,-0.07368405,0.03954682,0.034026753,0.059421297,0.11062914,0.06558258,0.035849445,0.06566687,0.10672099,-0.03991636,-0.085095055,0.001186399,0.0067161415,-0.084014624,-0.09945003,0.09330544,-0.09024402,-0.07490368,0.11859834,0.0304721,0.044771384,0.13106354,-0.034944803,-0.059852354,0.018628975,0.0026043856,-0.018270394,-0.04136763,0.026694657,0.009870829,0.03453676,-0.0048490213,0.028024662,0.06439338,-0.04084601,0.04142459,-0.074558206,-0.032443117,0.20555408,0.04593964,-0.0431899,0.05249886,0.008426087,0.082934074,-0.09881703,-0.010829904,-0.06510532,-0.0055873133,-0.05936944,-0.008118819,0.009134695,0.008076477,-0.050318103,-0.110620536,-0.020548135,-0.06293741,-0.018913444,-0.047993645,0.03446286,-0.0053181085,0.07850433,0.042196035,-0.049922034,0.060583662,0.012860052,-0.013769756,-0.0030682958,-0.12019124,-0.022889508,-0.048434872,-0.08751624,0.027372478,-0.06693438,0.045032553,0.0230051,-0.008811835,0.057563137,-0.047469635,-0.02547074,0.1076777,0.035288673,0.0072569083,-0.0072516757,-0.049191266,0.008250095,0.06916421
xn74vb,0.101326905,0.12806153,0.011106706,0.024871666,-0.15334833,-0.042410087,-0.11604744,0.016261261,0.08199225,0.03710752,-0.046581462,-0.023499563,0.044249553,-0.06255713,0.07505877,0.047786668,0.05916467,0.036073897,-0.0714074,-0.16101505,0.13798457,-0.021463495,0.054448884,-0.09425092,0.036171563,-0.06869161,-0.044828843,-0.04465946,-0.0037038145,0.086894184,-0.067622915,0.04096644,-0.043766737,0.12594356,-0.0012938982,-0.036596533,-0.044838782,-0.017908018,0.07219762,0.03612572,-0.039412837,0.0019276139,-0.06453596,0.04410867,0.0028858024,0.03171638,-0.15856308,0.07394147,0.015059837,-0.023657285,0.07203137,-0.019006765,-0.07114114,0.08997681,0.045837197,0.010914161,-0.08220109,-0.005365144,0.01277785,-0.03897273,0.08291628,-0.10307763,-0.023809468,0.05700346,-0.0606618,0.046392437,-0.04461042,-0.058394264,0.037078355,0.025435135,0.104003325,0.06437034,-0.11770366,0.016447889,-0.007145199,-0.09355592,-0.07033336,0.030109292,0.010045962,-0.06151793,0.018292367,0.071615644,-0.042122103,-0.090973176,0.021319134,-0.027356481,-0.058807638,0.029466912,-0.12211926,0.065672345,0.0019426289,0.09430624,-0.025938274,-0.09858123,0.084473945,0.0009021509,-0.06485509,0.09769022,-0.07453064,-0.12683536,0.011255329,0.06262007,-0.10335108,-0.010285795,0.023854958,0.12893358,-0.01141126,0.035476122,0.0552307,0.019754661,-0.0075111203,0.0111524025,-0.074773446,-0.003717613,0.0058625396,0.07465981,-0.032926843,-0.09520764,0.021102361,-0.14561833,0.0012766572,-0.09963308,-0.040522743,0.04007755,-0.020851899,0.1015216,-0.1635803,0.0019663607,0.01752668,0.072267964,-0.053295407,0.010200533,0.03907539,0.014050393,-0.0049201073,-0.0036025322,0.096503146,0.08334593,-0.007860889,-0.0018749589,0.024811264,-0.007642987,-0.0505432,0.080333814,-0.00060420576,0.038549956,0.060434584,-0.084452495,0.07932905,0.012043058,-0.0032746561,-0.013856469,0.02305576,0.010327075,0.0431289,-0.057880133,0.014574032,-0.121519476,0.04839437,0.009151186,0.075299524,-0.059798647,0.086219415,-0.10250329,-0.046668768,0.03924066,-0.011208289,0.061475348,-0.0046385545,0.0060000164,-0.014536337,0.053895958,0.044118613,-0.055896267,-0.022827359,0.061377708,-0.022997744,0.09376527,0.0061743814,-0.047063354,0.11777515,0.012789827,0.020278675,0.020102,-0.03878708,0.15184954,-0.09629165,0.0020190075,0.021816125,-0.009429754,-0.08948713,-0.06534793,-0.035862844,-0.037594046,-0.073667094,-0.018750751,0.11910577,0.03533457,0.023559652,-0.0010414679,0.07791077,-0.027167326,0.0046282485,0.0960502,-0.010126482,0.046335645,-0.026846016,-0.009742375,0.09368293,0.03362734,0.008819071,0.08769567,0.030560588,0.048527583,-0.06585728,-0.0077231014,0.059442546,-0.12726805,0.023270693,0.06749655,0.0052549643,-0.030693743,0.0599033,0.09482889,-0.005891089,0.028915871,-0.13572985,-0.07201973,-0.096948154,-0.011914988,-0.007151355,0.0216795,-0.0051444597,0.04928813,0.017131912,-0.08175169,-0.005596796,-0.037773762,-0.099542245,0.02408027,0.09218709,-0.0888669,0.0005322907,-0.039995812,-0.018038005,-0.062965445,0.05296969,-0.06164007,0.09010338,0.0070746015,0.06293811,-0.015242423,-0.008168995,-0.04438308,0.003246693,0.0072366116
xn74vf,0.08315533,-0.0023089517,-0.06427312,-0.05718187,0.019396076,-0.061558533,-0.061587628,-0.063616104,-0.029256621,-0.03162871,-0.07496811,0.0212264,0.09248753,0.09362261,-0.015555557,0.057585243,-0.107339226,0.08799845,0.06064606,-0.043732017,-0.072847106,0.03718817,0.008167259,-0.15307583,0.029754186,-0.07359675,0.0051713977,-0.052354757,-0.021770876,-0.0050939955,0.034164835,0.0057252883,0.035480596,-0.031003932,0.05819639,-0.08370458,0.026073897,-0.03995972,-0.0075888266,-0.086883195,0.017157547,0.0680803,0.045039747,-0.012329072,0.013004213,0.02165841,-0.011227234,-0.013463437,-0.09332125,0.014470728,0.039210115,0.06274399,-0.0645669,-0.0687121,-0.0625311,0.032050524,0.03143463,-0.0037171284,0.10324626,0.029819122,-0.02006526,-0.03962604,-0.0863108,0.051498305,-0.031078292,-0.0026884999,0.03529662,-0.043099325,0.056580335,0.09579053,0.056681026,-0.05917055,-0.096331306,-0.10197409,0.09914349,0.06630581,-0.00053480675,-0.07844906,0.0069750324,-0.017053751,-0.007810757,0.03138279,-0.07500937,-0.06319738,0.01552438,-0.11397282,0.06950848,-0.143685,-0.08474214,-0.047518574,0.06400557,-0.005683565,-0.038857136,-0.0073575303,-0.02430473,0.018754246,-0.0826233,0.17690724,-0.101427436,0.07479006,-0.015869603,0.03369472,-0.012498756,0.1271074,-0.031616457,-0.002914912,-0.06493537,0.012048971,0.02741843,0.07305029,-0.0040545356,0.05213413,-0.02455436,0.0030593902,0.030436795,-0.10035689,-0.06465492,-0.013301224,0.043124378,0.0068013617,0.04114291,-0.024023442,-0.016903961,0.12918234,-0.121942714,-0.0014007969,-0.10524142,0.03366708,0.020233054,0.096008696,0.009814096,-0.019830655,0.024964053,-0.001089786,0.14443363,-0.120531276,-0.08135019,-0.027429607,0.07411567,0.09730063,0.009761463,0.034851663,0.06741277,0.10981099,-0.0012218377,0.015359266,-0.044858675,-0.10799268,0.0010829652,-0.018810436,-0.028159326,-0.08533775,0.08414491,-0.048321124,-0.025018172,0.0036786103,-0.08160867,0.024909241,0.0074643013,-0.02576439,-0.03208953,0.027021173,-0.062237173,-0.10017121,-0.004605904,-0.012732986,-0.029520107,0.05021209,-0.038452394,0.043702547,-0.06674887,0.14897446,-0.0413155,0.08326806,-0.0030009532,0.05888048,0.037815195,0.10755215,0.02262948,0.0023232093,0.03575543,-0.07701738,0.07203229,-0.08248617,0.023207607,0.123124644,0.07800451,0.005237194,0.051931527,0.05936324,-0.009316479,0.08831586,-0.027662933,0.030436624,-0.1085912,-0.08926338,0.083832525,0.039893616,-0.052799083,0.028707534,0.027961908,-0.07027913,-0.062863834,-0.06222662,0.008899505,0.011404305,0.017422501,-0.018259292,0.119835384,-0.0010638566,-0.19297642,0.034322113,0.12364326,0.029751286,0.083044946,-0.059659522,-0.052772626,-0.076170705,-0.015369827,-0.08331653,0.030123785,-0.008017103,-0.045315053,0.11079576,-0.05997788,-0.003210435,-0.084451176,-0.081433654,-0.0559114,0.023006804,0.030830303,0.06406174,-0.050729573,-0.088720165,0.052375507,0.022215249,0.029074982,-0.051553257,-0.01776828,0.12044576,0.049802784,0.09552987,0.0387592,-0.021650607,-0.012616345,0.070352,0.012845812,-0.025865013,0.014777026,0.08297986,0.028547196,-0.03380655,0.014244725,0.050261103,0.056549143,0.09274078
xn74vg,0.05741467,-0.020090494,0.03570117,0.009314888,0.043056563,-0.12267194,-0.01972038,-0.008425062,-0.045416676,0.06400651,-0.06993836,0.054934397,0.026823694,0.10513351,-0.05026694,0.10608102,-0.11691714,0.09371098,0.028727546,-0.10250516,-0.1044709,0.016073128,-0.010018262,-0.066382214,0.020863023,-0.0931447,0.007847702,-0.045226585,-0.017796747,0.042143703,-0.014334692,-0.062891684,0.020016162,-0.008896207,0.021398704,-0.026473489,0.053053353,0.013496644,0.030527232,-0.08823841,0.01212441,0.039025765,0.0022534735,-0.07625107,0.026008593,0.023880897,0.02888513,-0.035935782,-0.102361076,0.0030429687,0.082836196,0.07149086,-0.05443493,-0.046426594,-0.032525793,0.0536105,0.029325172,-0.005727051,0.042114846,0.044226576,-0.016552402,-0.016791504,-0.14825317,0.09518521,-0.055111207,-0.031255335,0.03328184,-0.03251356,0.019387916,0.05702671,-0.013454551,0.02396702,-0.09133069,-0.08224755,0.15268692,0.027645193,-0.06145086,-0.0144407265,-0.054160528,-0.016353771,0.011579228,0.08435562,-0.0012970486,-0.11664105,0.01748571,-0.07098239,0.05570628,-0.09744411,-0.05822324,-0.059016757,0.10344958,-0.08956635,0.007031766,0.020881778,-0.028988715,-0.007401689,0.037592113,0.02106334,-0.0574079,0.110547714,-0.03498736,-0.013283637,0.015854225,0.12671587,-0.007921686,-0.035596132,-0.07375237,-0.036213957,0.092231005,0.06614671,-0.022997884,0.040333062,-0.02304113,0.07284803,-0.014226204,-0.056983132,-0.039905794,-0.023353502,0.042780135,0.031162828,0.105861306,0.043288298,-0.024059176,0.080182955,-0.1452497,-0.0071162954,-0.08205902,0.036668185,0.01742179,0.09974286,0.031895775,-0.027194908,0.0022567832,-0.052146383,0.2063106,-0.13785358,-0.102174416,-0.06762475,0.08640332,0.017145952,-0.00806797,0.06603666,0.053038664,0.10071392,-0.028007634,-0.05972749,0.00028137042,-0.16651921,-0.029756024,-0.009035688,-0.009773416,-0.07706667,0.10632856,-0.036972124,-0.0509709,0.049208943,-0.08529104,0.09445068,0.052078363,-0.040380176,-0.1060759,0.021825707,-0.058834158,-0.113705404,0.011141943,-0.017709905,-0.014190957,0.02050388,-0.11369646,0.078429796,-0.09063589,0.21979639,-0.06116272,0.084791206,-0.025890553,0.021283299,0.07659135,0.075926684,-0.015506271,0.0071890866,-0.013837387,0.018310813,0.018393124,-0.076798774,0.03679947,0.046442278,0.08346178,0.028040715,0.010129217,0.042020317,0.006433312,0.10803428,-0.034872774,0.00029282714,-0.041873258,-0.07895339,0.054629862,0.07199183,-0.016250603,0.04785248,0.023393488,-0.0551358,-0.030369857,-0.11965938,-0.0007581074,-0.014980416,0.037451595,0.025341837,-0.0009535469,0.037830647,-0.14830267,0.03488744,0.120523214,-0.0012355235,0.07032309,-0.04295133,-0.040883664,-0.021549154,-0.011218165,-0.030213635,-0.016291546,-0.056277864,-0.037990212,0.10371716,-0.05850269,0.026622307,-0.04183219,-0.07614073,-0.010766821,0.018810391,0.0018480242,0.06267319,-0.055047207,-0.09035438,0.0835678,0.0795943,0.0034635824,-0.005519233,-0.05205251,0.072377495,0.03182654,0.039610777,0.081897125,-0.014015516,-0.066728204,0.040701687,0.022217644,-0.015611738,0.004715268,0.025180262,-0.012967052,-0.018673716,0.06341168,0.05066585,0.019865539,0.040379763
xn74vu,-0.004512936,-0.018212631,0.07900299,0.017659614,0.07883955,-0.16118154,-0.02776521,0.036481004,-0.07592763,0.002623108,-0.024566893,0.054051474,-0.02660994,0.07810381,-0.04553687,0.13230671,-0.10929181,0.05870418,-0.033051074,-0.04594287,-0.12619801,0.013326972,0.0028656141,0.0037250277,-0.0073887,-0.08333074,0.022835404,0.05549124,-0.023902431,0.037474778,-0.010997561,-0.06519853,-0.057255413,0.0021635252,0.011158117,0.033745293,0.09655032,0.048572194,0.04863667,-0.04299516,0.06567929,0.005046893,-0.003972,-0.028918838,-0.0074713873,0.017929034,0.061577864,-0.031429753,-0.06633748,0.0069075557,0.052638263,0.07192245,-0.026547724,-0.014780089,-0.08290481,0.039113406,0.046633385,0.0030788297,0.01637068,0.05499996,-0.030815875,-0.0077332887,-0.14984325,0.05627331,-0.10114383,-0.06474435,0.031144774,0.01795493,0.0030969852,0.02983714,-0.029996922,0.08500681,0.01502544,-0.08868243,0.13479535,-0.02756175,-0.07867856,0.013203166,-0.08524639,-0.038995773,0.037585158,0.086796366,0.0599283,-0.07550164,-0.0011460689,-0.029643798,0.049483582,-0.06401122,-0.05563074,-0.0733838,0.09607022,-0.12601234,0.0330016,0.059599783,-0.014698128,-0.01603902,0.13387015,-0.08466574,-0.03309298,0.13888955,-0.029077625,0.01590896,0.037078694,0.07956989,-0.004812458,-0.08367802,-0.097695105,-0.05682498,0.09832749,0.050874438,-0.035712108,0.010273575,-0.050948426,0.04837001,-0.021061985,-0.021175716,-0.041258547,0.013798785,0.035562526,0.08726987,0.1099212,0.021345668,-0.023118488,0.0072730933,-0.12037576,0.016782623,-0.058956563,0.025092002,0.0042388067,0.06683365,0.010554336,-0.017328952,-0.008514325,-0.10248001,0.20454827,-0.09664482,-0.06097693,-0.096595466,0.08928297,-0.048147094,-0.012261876,0.043148357,0.010794855,0.01486931,-0.056008212,-0.08047377,0.06666089,-0.20138939,-0.027239677,-0.015948785,0.0011591697,-0.046597186,0.024735084,0.049135543,-0.08906984,-0.004858306,-0.13679835,0.13141665,0.06569836,0.024758637,-0.081564315,0.032580264,-0.07070321,-0.07976204,0.0025034056,-0.045128036,-0.013235112,0.00943027,-0.14540276,0.06237905,-0.054394923,0.18389156,0.0012132584,0.04108064,-0.055951934,-0.055261027,0.04161404,0.0045635924,-0.04522276,0.021225799,-0.018715229,0.07005412,-0.027558988,-0.032771233,0.07198763,-0.0032746845,0.09245663,0.08347721,-0.06178628,0.0019610603,0.07464003,0.058461487,-0.0063416744,0.0025616935,-0.078941576,-0.04671108,0.0664256,0.07177817,0.015903758,0.0017252108,0.016664455,-0.0787165,0.054461285,-0.0615177,0.014753316,-0.031616323,0.042170737,0.03130892,-0.093852915,0.044490475,-0.083395936,0.009311457,0.11710721,-0.00972219,0.09971847,-0.032572176,-0.041127525,0.022951417,-0.037604596,0.03256609,-0.043868046,-0.056689378,-0.023026027,0.13237451,-0.022545513,0.078605175,-0.012500624,-0.055502858,0.0015952531,0.027098106,-0.027426993,0.06910374,-0.022970298,-0.06566742,0.106888704,0.066199586,0.019183857,-0.004573809,-0.04472081,0.008308142,0.03995679,0.035616238,0.11631719,-0.005571371,-0.082951576,0.048304033,0.015354745,0.020562429,-0.05605568,-0.03706912,-0.012066644,0.038137365,0.03929307,0.034556247,-0.022677565,-0.017954152
xn74vv,-0.032584403,-0.0072539374,0.0680061,0.008428737,0.08698255,-0.15829034,-0.030555371,0.057106018,-0.07048198,-0.038166575,-0.011614573,0.03255771,-0.048245214,0.06888279,-0.039153572,0.14103265,-0.09870689,0.054466125,-0.03828748,-0.025471054,-0.13298368,-0.0013126028,-0.00082623,0.004141071,-0.004837448,-0.07868201,0.01241324,0.085317254,-0.021012736,0.0421465,0.0021739241,-0.05401125,-0.09199546,0.017767396,0.011039468,0.0431885,0.097492225,0.056198355,0.04195836,-0.016533904,0.07636218,0.0066410284,-0.009567729,-0.0036417108,-0.023893697,0.012383876,0.07234949,-0.024873516,-0.03889973,0.014536073,0.034688707,0.066207,-0.009924142,0.011322039,-0.094207615,0.034376692,0.040736392,0.009410459,0.0048987954,0.047098316,-0.045087185,-0.0094383545,-0.15345106,0.033441804,-0.11845586,-0.07771377,0.024841975,0.038292386,0.011291541,0.018824957,-0.009338497,0.09500316,0.045839302,-0.06976355,0.11668147,-0.02371141,-0.08692414,0.013275187,-0.0856822,-0.06200321,0.053021286,0.07931126,0.06038582,-0.044874694,-0.009498308,-0.01909856,0.030279435,-0.061170325,-0.065491535,-0.079907574,0.08041366,-0.13495138,0.048945956,0.067907766,0.0042424384,-0.015650671,0.14283675,-0.08323857,-0.034214508,0.13719667,-0.02805915,0.03810774,0.025483016,0.051335346,0.000419313,-0.09652212,-0.101124935,-0.039738934,0.088109136,0.042590447,-0.03059161,0.006013892,-0.06681253,0.037311196,-0.034700956,-0.010357752,-0.031239077,0.019623999,0.02498559,0.085674845,0.11120827,0.008670582,-0.011780603,-0.011089065,-0.096902385,0.0312561,-0.061316296,0.02832144,0.002053112,0.0695225,0.008797112,0.0034576198,-0.0037997377,-0.117414825,0.1986093,-0.066042565,-0.009756629,-0.08356089,0.070362315,-0.073674925,-0.017457293,0.03363685,-0.0102192545,-0.00070481375,-0.063396774,-0.055344623,0.09059858,-0.2079779,-0.010862557,-0.00929646,-0.008130453,-0.03389436,0.0023080115,0.06410923,-0.09207124,-0.024891948,-0.15836674,0.12513809,0.07129687,0.047371123,-0.05619504,0.026454104,-0.06462697,-0.06888208,-0.005003843,-0.034276176,-0.021265514,0.005106311,-0.14636375,0.041732535,-0.035112247,0.17107567,0.025552107,0.021466339,-0.054481458,-0.06532923,0.030115662,-0.013363522,-0.05480973,0.026026668,-0.036891565,0.06294705,-0.053711858,-0.02425243,0.09557501,-0.012739343,0.08651177,0.09480499,-0.09387826,-0.012853727,0.060982045,0.027429905,-0.011435951,0.007351002,-0.09990931,-0.043643758,0.08401704,0.04975255,0.009158761,-0.0014225877,0.026196875,-0.0822694,0.074697025,-0.018367192,0.017855167,-0.021420518,0.039826293,0.036498543,-0.10574855,0.057803113,-0.041692056,0.018754087,0.11437586,-0.013290133,0.11069925,-0.019222958,-0.026222149,0.03629463,-0.034284472,0.051073495,-0.03647686,-0.06148346,-0.02602384,0.1251348,-0.018543586,0.09852527,-0.016222341,-0.05242248,0.014062506,0.031409435,-0.038179003,0.037553106,-0.0139286695,-0.06215608,0.1234229,0.042629763,0.03911381,-0.03399788,-0.029313533,-0.025029816,0.03797352,0.030556062,0.111666426,-0.012714051,-0.08805817,0.0396731,0.004229939,0.04540841,-0.05755683,-0.050020155,-0.006717184,0.046522178,0.013278778,0.033738986,-0.016065218,-0.040844608
xn74vy,-0.055138744,-0.018662952,0.06873813,0.026451532,0.09780738,-0.1263915,-4.4655666e-05,0.06959362,-0.05256446,-0.055588298,0.008823057,-0.0084319245,-0.06726287,0.07469497,-0.04227184,0.15803836,-0.066422924,0.048529036,-0.045716148,-0.013129602,-0.12298792,-0.030891934,-0.022344764,0.022823332,0.0089372285,-0.067341186,0.00023222515,0.09420186,-0.010978168,0.051153354,0.019695029,-0.06310157,-0.122534156,0.038391367,-0.014533739,0.060172044,0.09604885,0.056731373,0.028680328,0.03416872,0.06609792,-0.0029232984,-0.0033503715,0.012570507,-0.04608397,0.0023318785,0.053321265,-0.0045959605,-0.0014889395,0.04623239,0.008804005,0.03207816,-0.0051312074,0.06467695,-0.07129465,0.0021361788,0.014485345,0.01361726,-0.013122113,0.023619922,-0.025130566,-0.020340456,-0.15222234,0.026524015,-0.12600884,-0.10509141,0.034810636,0.056446627,0.015791971,0.0005983006,-0.0063816374,0.103015326,0.047274176,-0.03276715,0.047554277,-0.010233881,-0.12108571,0.025742348,-0.057689764,-0.09800727,0.060550828,0.07316894,0.040815894,-0.039163794,-0.015864328,-0.002663126,0.0125893755,-0.020987201,-0.06554311,-0.10029034,0.072457865,-0.12062163,0.07445266,0.05076603,0.036307536,-0.0046058847,0.15102918,-0.07306365,-0.034273908,0.09879309,-0.016109534,0.033656277,0.0036433106,0.024236266,0.008493897,-0.08916292,-0.06567124,0.006497039,0.06690351,0.032487836,-0.011298861,0.010602827,-0.07109344,0.018754099,-0.067945644,0.013467245,0.0134155955,0.048576787,0.029625181,0.05944774,0.12236207,0.0034642194,-0.011895248,-0.05784644,-0.060313,0.05649767,-0.10077045,0.018648526,0.0026283937,0.08260976,0.014151446,0.027393565,0.013619655,-0.15083122,0.16470562,-0.018186392,0.058007035,-0.03583605,0.048196375,-0.117463805,-0.0011242669,0.02676458,-0.021418804,-0.006049478,-0.06342847,-0.035742935,0.11541591,-0.19018722,0.014577094,0.0032795612,-0.030661833,-0.017795999,-0.024266176,0.073388495,-0.07575543,-0.04137466,-0.16325319,0.124278255,0.08117992,0.06320747,-0.055998527,-0.020835273,-0.042112805,-0.06102418,-0.0024458705,-0.0017109961,-0.03922682,-0.036329225,-0.13362294,-0.003295821,-0.02889622,0.14628534,0.031838786,-0.00956286,-0.067642115,-0.060309052,0.057750866,-0.02336758,-0.095046245,0.029722907,-0.054665126,0.03210966,-0.09438178,0.008603758,0.11754358,-0.056734454,0.0688579,0.08392689,-0.14398357,-0.049976397,0.03418204,0.0061865,-0.016820008,0.03049948,-0.08615146,-0.05101227,0.11569153,-0.0032722552,-0.0045508756,0.015841367,0.029230174,-0.06699705,0.06810885,0.018821951,0.020366812,-0.0147030465,0.027425742,0.005545845,-0.12773317,0.057546623,0.05512889,0.04894178,0.09029134,0.0061903624,0.10494292,0.0271659,0.0048447805,0.061899696,-0.020087818,0.07531539,-0.02896387,-0.056165412,-0.018265711,0.10352251,0.0076005845,0.09425382,-0.024047406,-0.047443435,0.042426802,0.033798676,-0.030894954,0.017549746,0.0097137615,-0.04763764,0.13782477,0.046054024,0.049167506,-0.049861994,-0.004187294,-0.05127695,0.050664693,0.0024804454,0.07825217,-0.04106618,-0.107788466,0.021978537,-0.015185439,0.077747636,-0.04387572,-0.057471704,-0.028382711,0.02730592,-0.01991089,0.022165872,-0.02676315,-0.09253891
xn74vz,-0.048890244,-0.039804686,0.058085106,0.058718324,0.1014483,-0.06855176,0.1012227,0.0807045,-0.02349645,-0.014137879,0.011027551,-0.0727755,-0.08339748,0.07856789,-0.06945447,0.15410481,-0.03972691,0.076598465,-0.05259867,-0.02431163,-0.07894041,-0.050336313,-0.049321122,0.04578549,0.016371002,-0.037004713,-0.016135085,0.028318807,-0.0019137103,0.046056222,0.024065003,-0.10732189,-0.095718876,0.036016263,-0.053671293,0.05795239,0.06222379,0.06064243,0.008491892,0.06260289,0.023790954,-0.01753699,-0.031961244,-0.028286094,-0.020158432,-0.014281371,0.03510413,0.041577697,0.057588276,0.0662532,-0.017938403,-0.0125507405,-0.034809943,0.1026348,-0.019721802,-0.0311208,-0.035527617,0.0067497334,0.0118108,-0.007098284,0.012547071,-0.009876489,-0.13201055,0.032812145,-0.099309586,-0.106785044,0.049413536,0.03690467,0.042760924,-0.00531088,-0.015487154,0.04747986,0.0064055254,0.05960117,0.009338241,0.0053079864,-0.1334466,0.0674758,-0.014024107,-0.07944971,0.08553886,0.074002825,0.011711599,-0.045648094,0.0011265569,0.036610812,-0.016788794,-0.011910366,-0.044358455,-0.11321715,0.060753066,-0.10601787,0.09035918,0.014081667,0.04194303,0.031091338,0.15627514,-0.046379592,-0.012887445,0.054660503,-0.018546011,0.009411372,0.008245328,0.008770469,0.017122516,-0.042002216,0.0037861383,0.040303886,0.021787556,0.01965455,0.0059281336,0.013282177,-0.020400863,0.0011105534,-0.11018932,0.018957378,0.08467106,0.07375514,0.044708576,0.016970685,0.16882315,0.018610632,-0.005567598,-0.060712893,-0.029868754,0.071440846,-0.11074764,0.018072715,0.0211966,0.0566646,0.025876865,0.03384279,0.011019621,-0.1709775,0.11620209,0.0011391249,0.09356992,0.05634839,0.057237875,-0.17018503,-0.018029088,0.0113471765,-0.013064454,0.018374328,-0.035526477,-0.030529829,0.11354193,-0.14658748,-0.011630069,0.009268991,-0.0229499,-0.026176458,0.0024252988,0.07453498,-0.043750025,-0.013370469,-0.122591704,0.12290438,0.081712246,0.026875056,-0.06797903,-0.07458772,-0.014657066,-0.056812003,0.005296772,0.048337035,-0.062139448,-0.09345881,-0.11092339,-0.023947129,-0.034868333,0.1342141,0.014492033,-0.02104094,-0.057441346,-0.029687682,0.09072048,-0.0047921604,-0.14025894,0.030339066,-0.06911909,-0.024615133,-0.10247045,0.007322658,0.08825537,-0.12347301,0.020592425,0.028600896,-0.14616223,-0.08734137,-0.020152338,0.02205395,-0.03346189,0.025845904,-0.019297116,-0.038012885,0.106318,-0.050764006,-0.037714954,0.07217691,0.035819806,-0.042107623,0.025216712,-0.0057067126,0.03318114,-0.021653866,0.024966715,-0.01650356,-0.1561827,0.06722919,0.12383062,0.04343822,0.022180388,0.0018615719,0.046463072,0.046675347,0.055112913,0.10652563,0.0038766637,0.046621203,-0.010149097,-0.04605055,-0.018038027,0.06355149,0.028093709,0.0464132,-0.0039573642,-0.050791938,0.084600724,0.026777865,-0.022868454,-0.042745788,0.026525551,-0.04808539,0.15889677,0.08586333,0.020855313,-0.02811342,-0.001140228,-0.04325112,0.051512506,-0.06543599,0.034997523,-0.029453006,-0.12944457,-0.011544419,-0.028697114,0.079216,0.0025790534,-0.07286982,-0.071841314,-0.028295243,-0.028541757,0.023847291,-0.0062728096,-0.11449565
xn74w9,0.040804088,-0.0670692,-0.07027766,-0.0071461047,-0.053089738,-0.016183808,-0.17741416,-0.024345124,0.036824416,0.033089265,-0.03870582,-0.051730398,0.033395603,-0.053658687,-0.010875042,-0.013303502,0.04260125,0.0073946007,-0.1069935,0.005884557,0.027445363,0.027181769,-0.013082098,-0.043002117,-0.032609932,-0.0030908105,0.13124028,-0.0517421,-0.013761404,-0.05057585,0.023233792,0.045748785,0.058582928,0.0035208582,0.024170212,-0.058048606,0.040515434,-0.066678025,-0.0018898766,-0.036916472,-0.07010217,-0.054399233,0.07824397,-0.11241882,0.031460065,0.059696496,-0.022996409,-0.026006378,0.065652385,-0.029305816,-0.051284302,0.03173499,-0.024325065,-0.12759574,0.07099196,0.03193261,-0.02630189,0.06275699,-0.07439234,-0.041292794,-0.088568576,0.15678678,0.06507374,-0.01830174,0.041019477,0.038514894,-0.039098285,-0.05232928,0.1107854,0.04119994,-0.09081354,-0.07487093,0.010709806,-0.081017904,0.028129816,-0.038460582,0.15162145,-0.12658891,-0.028950905,0.084968716,-0.10361105,-0.029850697,0.0076616732,0.087590635,-0.068843774,-0.03834134,0.04067226,-0.07204085,0.014404223,0.12507112,0.008323952,0.07786745,-0.11378391,0.010283155,-0.07555127,-0.06271054,-0.041283473,0.11583882,-0.08965517,-0.097027436,0.04415966,0.0007633528,0.03829341,-0.023456676,0.016172377,0.098551385,-0.02206994,-0.061333127,-0.06686147,-0.035457652,0.070340246,-0.09178976,0.03705974,-0.010372578,0.14696345,-0.008835039,0.033509497,-0.10267327,0.037029866,0.029227812,-0.090012245,0.052613996,-0.02976916,-0.0033616596,0.05299318,-0.02719542,-0.101423636,0.0321337,0.028613543,0.056335755,-0.03699045,0.00027594191,0.08606895,0.026213761,0.008302959,-0.10286113,-0.12130687,-0.1274801,-0.019997295,0.054676555,0.095731094,0.041349098,0.04123988,0.039385594,0.027545497,0.0024043324,-0.04645843,-0.037232317,-0.0070198546,-0.090383865,0.044976026,-0.0010686019,-0.010253582,-0.0059663677,0.07582266,0.049344636,0.0842695,-0.022994317,0.04709856,-0.011166137,0.07840253,0.022212634,-0.013465439,-0.100918636,0.0020617323,-0.13519259,0.068904646,-0.08085004,0.07849833,0.0463263,-0.06345529,0.028720489,0.044840723,-0.001793073,-0.03256677,0.058697622,-0.032708168,0.0337175,-0.04174822,-0.051011216,-0.030451635,0.13643774,0.11449595,0.0011063622,-0.04522841,-0.06304784,0.066596895,-0.016624061,0.0917241,0.13751528,0.029603004,-0.077757396,0.075190686,-0.1226457,0.0049517164,0.04177301,-0.043172717,-0.014429966,-0.038279332,0.033965476,-0.06527789,0.065502055,-0.009693159,0.07696504,-0.0017708248,-0.01645157,-0.010411123,-0.07182661,0.05706428,-0.1325152,-0.033635978,0.055803172,-0.020389682,0.0061796387,-0.060118858,-0.029578427,-0.068099305,0.05110559,-0.031335533,0.010840569,-0.040932808,0.006098094,0.035009786,0.030363336,-0.0062915813,-0.12235091,0.008694024,0.12834021,-0.028784405,-0.058004614,0.07847732,0.11506802,0.05375345,0.069445446,0.0138268685,0.03640744,0.09120428,0.053234436,0.00016320648,0.03138588,-0.066480175,0.063041076,0.00529749,0.033715688,-0.03653016,0.0650347,-0.028552057,-0.055306908,0.1092574,0.09369202,-0.0069431113,-0.02278586,0.066141024,-0.0019249113,0.0058134203,0.056964193
xn74wd,0.043773394,-0.065180674,-0.07370757,0.0004061456,-0.05611016,0.0021197656,-0.18636335,-0.029852714,0.039412007,0.023328237,-0.04574589,-0.07195629,0.017962424,-0.040552266,0.0015749267,0.0020397436,0.031358425,0.026559653,-0.1257089,-0.0036211268,0.02471473,0.026322523,-0.007277732,-0.05521671,-0.026069602,-0.018009499,0.12047181,-0.054639485,-0.010010661,-0.038065214,0.0238522,0.065922625,0.039440226,0.008726045,0.017586162,-0.06537986,0.034228276,-0.05922209,-0.0034009987,-0.022544615,-0.069287725,-0.05077872,0.08307795,-0.12111819,0.024653964,0.054885946,-0.03576715,-0.027869036,0.06770637,-0.02979187,-0.05383141,0.03086597,-0.03849814,-0.12997925,0.08084054,0.024305075,-0.03145959,0.06631397,-0.08104864,-0.047641557,-0.074753866,0.15636387,0.06373878,-0.017121451,0.022023631,0.038508933,-0.041331638,-0.05045478,0.09738703,0.041513413,-0.061476532,-0.06846853,0.010542351,-0.06451211,0.016339831,-0.049772575,0.13659036,-0.10095165,-0.01813727,0.06863966,-0.107020065,-0.026280368,0.0036871007,0.0745918,-0.050850634,-0.038775496,0.035714198,-0.07782467,0.014241961,0.1281089,0.0015789513,0.0766605,-0.112469226,-0.0008244371,-0.06316449,-0.04868992,-0.029666489,0.14021446,-0.09314464,-0.101392314,0.054316834,-0.0023955083,0.031636134,-0.030293802,0.018270941,0.11200684,-0.02805885,-0.048445016,-0.07777418,-0.04876286,0.055573605,-0.09550317,0.03234216,-0.022810264,0.14577669,-0.0015989172,0.04773493,-0.107041106,0.015502159,0.01646877,-0.08634133,0.054655544,-0.024995541,-0.0009565117,0.04778119,-0.013836975,-0.11366811,0.039089,0.044347193,0.0733062,-0.04136953,0.00589076,0.089201555,0.024688115,0.019071741,-0.093293145,-0.10579239,-0.12829752,-0.024200225,0.04740441,0.09332107,0.05784819,0.01394258,0.0482486,0.04181559,0.010640715,-0.04151452,-0.045598842,-0.012486379,-0.0915945,0.05620228,-0.00034824898,-0.0007393717,-0.018857768,0.08342678,0.061254926,0.0681895,-0.027192084,0.067019545,-0.018789303,0.08114712,0.0034146907,-0.0007624676,-0.12897553,0.008050175,-0.118988946,0.07561481,-0.10345733,0.085281044,0.046510532,-0.06254818,0.035589457,0.04867037,-0.01530185,-0.02733759,0.059619635,-0.018029572,0.03765527,-0.04405277,-0.049173173,-0.034206815,0.13731965,0.10950198,-0.0075512836,-0.019261498,-0.051588677,0.058841545,-0.021128489,0.08903858,0.1434555,0.010532847,-0.08886899,0.063708015,-0.12509795,0.007494898,0.0442748,-0.02812644,-0.019882314,-0.05216681,0.029945046,-0.048595276,0.060364943,-0.003035776,0.08708819,0.001715995,-0.0011581051,-0.0091265775,-0.068704925,0.06207404,-0.13418256,-0.021728583,0.048347827,-0.020252516,-0.0038607814,-0.04781888,-0.032154188,-0.057819657,0.05197635,-0.035858087,0.021526711,-0.04212018,0.00592913,0.04636682,0.037258264,-0.006431048,-0.115055226,0.007254347,0.1227538,-0.022084488,-0.05972865,0.07252791,0.12064825,0.04994489,0.080556504,0.019455051,0.025509346,0.10112749,0.04940906,-0.015376515,0.018187845,-0.073010445,0.036223892,0.0003845107,0.017694078,-0.05049732,0.06445228,-0.03159239,-0.044916395,0.124786176,0.09978078,0.0031849267,-0.0239379,0.059271198,-0.00087300374,0.0018349147,0.05095394
xn74we,0.0362042,-0.065043435,-0.08128267,0.0030663328,-0.06459976,0.021423042,-0.18195541,-0.042551126,0.03613946,0.012471389,-0.060064565,-0.087123945,-0.0016165699,-0.038308892,0.0034586713,0.009118321,0.026976405,0.047966506,-0.1341645,0.0051805465,0.026882965,0.030251082,0.0053837546,-0.06294929,-0.024830086,-0.02198348,0.09734076,-0.061083708,-0.012214988,-0.024419092,0.027434932,0.08963429,0.035744075,0.017106114,0.018029401,-0.07591725,0.025869654,-0.04792987,-0.008467222,0.0010945818,-0.07394438,-0.056367043,0.090178,-0.13219403,0.021977874,0.04904487,-0.027863095,-0.03703259,0.0672979,-0.027999522,-0.053258553,0.034093875,-0.05232237,-0.12447939,0.086677246,0.011628804,-0.044647295,0.071030706,-0.07116813,-0.05282076,-0.06252697,0.15008906,0.06716453,-0.019601038,0.006054372,0.041100465,-0.040600777,-0.052082725,0.08337782,0.055101603,-0.03092555,-0.065947205,0.0046681277,-0.038834017,0.0082554445,-0.059866544,0.1302046,-0.07519672,-0.008506339,0.05309773,-0.09930857,-0.03086743,0.009440986,0.06330757,-0.03701567,-0.047144126,0.034591068,-0.09468545,0.016150106,0.1308819,-0.00021149438,0.067754745,-0.10482734,-0.009798479,-0.05790058,-0.040843904,-0.017537525,0.15144466,-0.092863835,-0.11236494,0.05306702,0.0046663834,0.031681754,-0.03757252,0.029018855,0.12550645,-0.032052174,-0.026454285,-0.09216368,-0.04952986,0.04161495,-0.08734229,0.039397556,-0.025264742,0.14194344,-0.0014678902,0.05955656,-0.106097445,-6.470448e-05,0.015332399,-0.08352117,0.05738748,-0.013911491,-0.0040621455,0.044278283,0.0054071625,-0.11685871,0.033323087,0.058121957,0.074506976,-0.03871954,0.023055388,0.084031574,0.02481531,0.021549057,-0.087881416,-0.09163018,-0.12761468,-0.021116907,0.042839017,0.091065116,0.07593062,-0.017026957,0.039179675,0.048819825,0.025903817,-0.028169665,-0.051481552,-0.021896485,-0.092052065,0.072619274,0.0021816522,0.0066769687,-0.02091014,0.07883916,0.071261965,0.050770972,-0.028594567,0.07474065,-0.02274946,0.1010698,-0.007251754,0.012043921,-0.15095218,0.01680696,-0.09856893,0.08364297,-0.11934107,0.08411375,0.04093243,-0.05178681,0.03292336,0.05799746,-0.031173237,-0.024204709,0.060471438,-0.026020026,0.0345464,-0.038024537,-0.04621325,-0.040830277,0.13445921,0.100609,-0.01937701,0.0010581275,-0.04197468,0.047680713,-0.017264405,0.0840189,0.15410414,-0.010609138,-0.09782833,0.042552095,-0.13024631,0.014898049,0.049413312,-0.020651719,-0.030728145,-0.054946125,0.023048073,-0.033833645,0.050425507,-0.006476106,0.09071104,0.0029133018,0.017724328,0.0056093996,-0.06276127,0.06742983,-0.1256624,-0.010143799,0.041529942,-0.033863187,-0.0072826003,-0.035726972,-0.031386048,-0.050646935,0.06234215,-0.036954053,0.033868033,-0.03324745,0.009940021,0.04642205,0.05688686,-0.013561886,-0.10886605,-0.0007593625,0.112145595,-0.024049895,-0.059536614,0.05754436,0.121926464,0.046537936,0.0903073,0.013094632,0.0109453,0.10770238,0.049892668,-0.024794351,-0.00787118,-0.07577815,0.011027347,-0.010931908,0.004617131,-0.06562277,0.05543565,-0.02914999,-0.034793828,0.12666176,0.09582068,0.009100778,-0.031489532,0.053698495,-0.0076265833,-0.0033172027,0.04268306
xn74wf,0.040804088,-0.067069195,-0.07027765,-0.007146105,-0.053089738,-0.016183807,-0.17741416,-0.024345124,0.036824416,0.033089265,-0.03870582,-0.051730398,0.0333956,-0.053658687,-0.010875043,-0.013303502,0.04260125,0.0073946007,-0.106993504,0.0058845566,0.027445363,0.02718177,-0.013082098,-0.043002117,-0.032609936,-0.0030908107,0.13124028,-0.051742107,-0.013761404,-0.05057585,0.023233788,0.04574878,0.058582928,0.003520858,0.02417021,-0.058048606,0.040515434,-0.066678025,-0.0018898768,-0.036916472,-0.07010216,-0.054399233,0.07824397,-0.11241882,0.031460065,0.05969651,-0.022996409,-0.026006373,0.065652385,-0.029305816,-0.0512843,0.031734996,-0.024325067,-0.12759574,0.07099196,0.031932607,-0.026301887,0.06275699,-0.07439234,-0.041292794,-0.088568576,0.15678678,0.065073736,-0.01830174,0.04101947,0.038514897,-0.039098285,-0.05232928,0.1107854,0.04119994,-0.09081354,-0.07487093,0.010709806,-0.081017904,0.028129816,-0.038460586,0.15162143,-0.1265889,-0.028950905,0.084968716,-0.10361105,-0.029850697,0.0076616732,0.087590635,-0.068843774,-0.03834134,0.04067226,-0.07204085,0.014404223,0.12507112,0.008323952,0.07786745,-0.11378391,0.010283155,-0.07555127,-0.06271054,-0.041283473,0.115838826,-0.08965517,-0.097027436,0.04415966,0.0007633522,0.03829341,-0.023456676,0.016172377,0.098551385,-0.02206994,-0.061333135,-0.06686147,-0.035457652,0.070340246,-0.09178976,0.037059743,-0.010372578,0.14696345,-0.008835039,0.033509493,-0.10267328,0.037029866,0.02922781,-0.090012245,0.052613996,-0.02976916,-0.00336166,0.05299318,-0.02719542,-0.10142362,0.0321337,0.028613543,0.05633576,-0.03699045,0.00027594157,0.08606895,0.02621376,0.008302959,-0.10286113,-0.12130687,-0.12748009,-0.019997295,0.054676555,0.095731094,0.04134909,0.04123988,0.039385594,0.027545497,0.002404332,-0.046458438,-0.03723232,-0.0070198546,-0.09038387,0.044976026,-0.001068602,-0.010253583,-0.0059663677,0.07582266,0.049344636,0.0842695,-0.022994317,0.04709856,-0.011166136,0.07840253,0.022212634,-0.013465439,-0.10091864,0.0020617323,-0.13519259,0.06890465,-0.08085004,0.07849833,0.0463263,-0.06345529,0.028720489,0.044840723,-0.0017930737,-0.03256677,0.05869762,-0.032708168,0.0337175,-0.04174822,-0.051011216,-0.030451635,0.13643776,0.11449595,0.001106362,-0.04522841,-0.06304784,0.066596895,-0.016624061,0.0917241,0.13751528,0.029603004,-0.0777574,0.07519068,-0.1226457,0.0049517164,0.04177301,-0.043172717,-0.014429966,-0.038279332,0.03396548,-0.06527788,0.065502055,-0.009693159,0.07696504,-0.0017708252,-0.01645157,-0.010411123,-0.07182661,0.057064284,-0.13251522,-0.033635978,0.055803172,-0.020389682,0.006179638,-0.060118858,-0.029578427,-0.068099305,0.05110559,-0.031335533,0.010840569,-0.040932808,0.006098094,0.035009786,0.030363336,-0.0062915813,-0.12235091,0.008694024,0.12834021,-0.028784407,-0.058004618,0.07847732,0.11506802,0.05375345,0.069445446,0.0138268685,0.03640744,0.09120428,0.053234436,0.00016320603,0.03138588,-0.066480175,0.063041076,0.00529749,0.033715688,-0.03653016,0.0650347,-0.028552057,-0.055306908,0.1092574,0.09369202,-0.0069431113,-0.02278586,0.066141024,-0.0019249116,0.0058134203,0.05696419
xn74wr,0.06329175,-0.069279596,-0.027967457,0.027811337,-0.0008852993,-0.08007074,-0.053109337,0.0709986,0.057610683,0.0024956735,-0.015936775,0.015606034,-0.0074461047,-0.080108166,-0.01859188,0.055283066,-0.05953081,0.012824119,0.034011167,0.09668166,0.012612137,0.08383656,-0.010257402,-0.018119166,-0.059418026,0.037856214,-0.007481787,-0.03503765,-0.0076627443,-0.1275383,0.02693957,-0.05837891,-0.021500088,-0.17123617,0.033868097,-0.09134431,-0.007851969,-0.03524595,-0.032871317,-0.018391153,0.028855016,0.009330131,0.028954193,-0.004813494,0.048113443,0.05682648,0.0912076,-0.022240454,-0.06555103,-0.06564615,-0.098056145,0.07024691,-0.006443789,0.020363662,0.028602999,0.15639588,-0.016533488,0.07830193,0.1786473,0.0732468,0.0033185594,0.031218866,0.017953936,-0.049707215,-0.036683783,0.0072199865,-0.018214488,-0.020807946,0.07316913,0.001522782,0.007934613,-0.1275892,-0.05291025,0.028708803,0.11986252,0.0068295556,0.11028529,-0.08965741,-0.06028865,0.06346009,-0.031836953,-0.056695767,0.02027788,0.039166473,-0.073269784,-0.067534015,0.042099,-0.09484927,-0.073688984,0.019937774,0.07185235,-0.006624883,-0.08679659,0.11300042,-0.04174042,-0.053300127,0.06499968,0.05146587,-0.09700194,-0.07265361,-0.08274945,0.045471672,0.04701015,0.020446496,0.033356797,0.07402223,-0.07103983,0.042134505,0.014693691,-0.017980617,0.012243262,0.0067347162,0.05326101,0.071998104,0.1430751,-0.06179641,-0.01826475,0.01908295,0.03505127,0.08238485,0.11295043,-0.06035615,0.011901345,-0.058800764,-0.053379253,0.08255426,-7.3836286e-06,-0.022921963,0.017367927,-0.12294717,0.00510095,0.03074902,-0.06472701,-0.034219854,-0.027366469,-0.087073684,-0.0689618,-0.04560999,0.038931157,0.038763825,0.10747271,-0.02934621,0.1238326,-0.033166178,0.04160175,-0.04408175,-0.02512898,-0.081530645,-0.06150663,-0.12800585,0.06680443,-0.07838065,-0.0020263796,-0.019820213,-0.02921543,0.02728319,-0.051437724,-0.08739567,0.0024124277,-0.0147902975,0.038558654,0.0003470121,-0.099656165,-0.056238204,0.013700189,-0.03599365,0.041759577,-0.02319043,0.025741074,0.04703274,-0.08322846,-0.040009286,-0.052715242,0.05616724,-0.08279627,-0.0040689465,-0.074779116,0.012743953,0.06962535,-0.045616314,0.021927586,0.13111447,0.026714057,-0.056569297,-0.07239929,-0.009347342,0.13652839,0.009858394,0.11068656,0.1391754,0.031749446,-0.004377335,0.032962754,-0.07352044,-0.09573391,-0.005570007,-0.06907759,-0.057481445,0.06270934,-0.031033063,-0.018054726,0.0085354885,-0.0076860026,-0.042067885,0.028849643,-0.05850175,-0.0660071,-0.045520365,-0.0063993786,-0.029825551,-0.041022185,-0.057319734,0.014985031,0.049364865,-0.010013173,-0.05270063,-0.06491738,0.085084155,0.02941804,-0.03759901,0.019094627,0.060067832,-0.042998046,0.13740699,-0.07195324,-0.06756503,-0.012044641,0.039398845,-0.050613526,0.0098916255,0.033316102,0.13333711,0.046214502,0.041625675,0.043061435,0.097804256,0.021764092,0.069393724,-0.050292652,0.16345619,-0.10823411,0.10846451,0.052644182,0.12245775,-0.01902384,0.103274055,0.01871136,-0.0962267,-0.023022328,-0.0046386276,0.052978214,-0.07326962,-0.009158771,-0.007359193,-0.022019261,0.074713394
xn74wv,0.08896396,0.04791989,-0.090728804,-0.0567091,0.06347676,0.008300627,0.025753126,0.0065208864,-0.0031755206,-0.07593401,-0.08988352,-0.17149872,0.04330897,0.12020406,0.105739854,-0.052909516,0.015723279,0.0138684735,0.09044283,-0.152073,-0.018854104,0.0060985396,0.03700541,-0.14083137,3.961586e-05,-0.07763337,-0.00959626,-0.039389625,-0.068507776,-0.12937391,0.063333645,-0.04509506,0.001197402,0.041796766,-0.06619373,-0.12590407,0.0028863093,-0.044025566,-0.020800566,-0.003054512,0.012670947,0.04401936,0.022660034,-0.010228118,0.016064553,0.027873697,-0.08146807,0.011223498,-0.03186966,0.06296491,0.108923145,0.03228223,0.003959946,-0.06915757,-0.13093391,0.00851881,-0.00838127,0.015498906,0.09276936,-0.014586845,0.041816235,-0.047565922,-0.034797918,0.0824034,-0.0053982716,0.06884898,0.03134467,-0.06412375,0.09121127,0.08112615,0.023320543,-0.09070532,-0.033214048,0.019854452,0.0021945098,0.093049206,-0.020591883,0.030183185,0.09503805,0.0024008397,0.038206704,-0.01024087,0.0064738654,-0.09213323,0.048939124,0.067335755,-0.024735691,-0.14579199,-0.038170017,0.052108567,-0.0043101157,0.10330161,-0.0531775,-0.055422593,0.027420562,0.10020407,-0.04649742,0.24684346,0.01021489,0.03487787,-0.05859103,0.07214743,0.008347494,0.07594916,0.013720881,0.045138206,-0.011804574,-0.009134436,-0.02594238,0.006168567,-0.08030558,0.024505328,-0.048135538,-0.082798705,-0.0051340805,-0.074897714,0.060486656,0.004122117,0.035630044,-0.04924139,0.014924432,-0.0027001654,0.047496907,0.14582358,-0.042834107,-0.17374541,-0.07969398,0.03487901,0.0030505192,0.014165116,-0.033925615,-0.07347228,-0.02945121,0.006834015,0.113177106,-0.08120595,-0.075302765,0.03319922,0.07913703,0.031076655,-0.0005720567,0.05465174,-0.019168323,0.0956183,0.10187594,0.0547225,-0.09590858,0.0057050944,-0.024780165,-0.014833283,-0.061944116,-0.05209195,0.10486743,-0.03528705,-0.07434031,-0.023752857,0.04927907,-0.030002896,0.0021457048,-0.031763572,-0.030382432,-0.016999325,-0.06954529,0.0077815508,0.034883488,0.07240569,0.031073563,-0.00873285,0.04966771,0.05184502,-0.02718572,0.03197415,-0.10240949,0.02024996,-0.030706951,0.0007759234,0.070068344,0.064329326,0.054390397,-0.0134347435,0.03760912,-0.12150164,0.036359183,-0.050457224,-0.09614512,0.032435186,0.058497295,-0.05536474,0.12663357,-0.032672204,-0.08604521,0.06512971,-0.041929424,0.020136744,-0.12812562,-0.038192082,0.0067660054,-0.011001902,-0.0318198,0.027551942,0.043715473,0.021154752,-0.00573588,-0.025033921,0.017210538,-0.017228588,-0.042272657,0.040811896,0.16036475,-0.030602312,-0.0070264963,-0.012669516,-0.07031885,0.0019930452,-0.038919676,-0.03143761,-0.033012066,-0.14672591,0.051713187,-0.03319351,-0.010184856,0.096466735,-0.00234626,-0.09039187,-0.04205082,0.029985117,-0.071160145,-0.044859264,0.01198692,0.002964581,0.052243214,0.0874586,-0.09457331,-0.0019769226,-0.07162202,-0.03664578,-0.0055512926,-0.05316794,0.0606224,0.033175148,0.08852311,0.010063801,-0.016735967,0.019859808,0.013299374,0.027025292,0.09026688,-0.045167796,0.0020885584,0.09399595,-0.012862175,-0.021457328,-0.009979812,0.10636896,0.052802056,0.07750039
xn74wy,0.102122694,0.029542474,-0.09515243,-0.07399035,0.0568579,-0.018646711,0.0012788333,0.015100995,0.0007983161,-0.051986884,-0.087081134,-0.1451932,0.029656475,0.11216363,0.08026102,-0.056063924,-0.0023163166,0.06533092,0.09434221,-0.12547,0.006039089,-0.00015628128,0.038316697,-0.090986885,-0.009079374,-0.0052981977,0.05479303,-0.044945516,-0.08332272,-0.1318494,0.034915607,-0.059763454,0.01443574,0.062396668,-0.054895014,-0.12472544,-0.033340577,-0.04518935,-0.0034260731,-0.0155262565,-0.0017573369,0.006878973,0.021677108,-0.030297408,0.02246588,0.018102774,-0.088734396,0.026816877,0.005301987,0.048479937,0.06623861,0.017390387,-0.028016789,-0.063772455,-0.1495566,-0.011671021,-0.004943911,0.0051275524,0.11251837,0.0014817755,0.039591838,-0.028375888,0.0036137106,0.059586722,0.02511856,0.07098173,0.061151873,-0.07640505,0.10247599,0.09423452,-0.0048297923,-0.0983809,-0.0134482095,0.032428455,0.039940566,0.09745333,0.03307272,0.02454165,0.11872091,0.034872446,0.050214805,-0.055028703,-0.011175876,-0.034596037,0.02130071,0.07782487,-0.018985832,-0.15166761,-0.012286225,0.05356119,-0.06847078,0.12839916,-0.075321145,-0.050706908,0.0077619203,0.11681109,-0.021134095,0.22441427,0.008959997,0.023468435,-0.073849715,0.08226384,0.0240179,0.07213026,0.027220635,0.026867881,0.014197388,-0.061261516,-0.033818837,-0.007424506,-0.061305583,-0.00855284,-0.027274335,-0.11647947,-0.011171317,-0.09127837,0.052789737,0.03647913,0.06873502,-0.0228875,0.012426503,0.0063549057,0.014985128,0.1488867,-0.03321676,-0.13960612,-0.020267347,0.013536317,0.02311193,-0.028256016,-0.033884883,-0.05139851,-0.02433831,0.03886665,0.081713334,-0.10533819,-0.0891819,0.08137946,0.08503977,0.038482297,0.0072714114,-0.010577129,0.03181193,0.08960686,0.08321257,0.036906023,-0.113057606,0.04791725,-0.044238243,-0.02113595,-0.06153222,-0.045574475,0.058442563,0.049424984,-0.11495108,-0.0314715,0.058770828,-0.005732669,-0.035546847,-0.019473718,-0.03523567,0.0016940862,-0.0846262,0.032682884,0.037571162,0.044940542,0.04358209,0.008840213,0.007119916,0.032192543,-0.015943578,0.012529285,-0.0725601,0.021667996,-0.029167054,-0.0029990033,0.05864237,0.032272242,0.04918884,-0.012438923,0.041219648,-0.1070924,0.08166418,-0.07621054,-0.1284158,-0.008503245,0.014595107,-0.04117885,0.16674481,-0.042509843,-0.05806332,0.0861323,-0.015481667,0.032758355,-0.1501294,-0.017232202,-0.047236666,-0.03793649,-0.0077196634,0.08703613,0.020675981,0.015203144,-0.020919997,-0.054379363,0.01315309,-0.04247424,-0.07564418,0.005924083,0.109039016,-0.042278457,-0.03783834,-0.06334177,-0.06356957,0.004647127,-0.050713904,-0.035767253,-0.052749563,-0.13796349,0.050216254,-0.10663156,0.0089925965,0.13894026,0.03429703,-0.0959727,-0.004005174,0.003661966,-0.039424587,-0.0020998353,-0.0013943855,-0.0065835887,0.058536883,0.059426527,-0.060183413,0.005620837,-0.0578482,0.024101017,-0.023018925,-0.026322884,0.08366122,0.01773934,0.08592272,-0.0033709002,-0.027878867,0.053006064,0.0438603,0.016050454,0.08244876,-0.045004345,-0.015952712,0.04120328,-0.016420148,-0.028884761,-0.027310042,0.10867639,0.05965086,0.078404665
xn74wz,0.09831415,-0.020024376,-0.060436007,-0.072355956,0.06048849,-0.053803034,0.00948302,0.022200499,0.006852387,-0.017670544,-0.06285555,-0.09430811,0.0014848111,0.09682363,0.038139097,-0.019557524,-0.04396886,0.12490204,0.08126764,-0.06747246,0.02677785,0.00833752,0.03178809,-0.024099048,0.0034859402,0.07130612,0.09960453,-0.035615318,-0.075277306,-0.09266201,0.016312644,-0.093512334,0.021514114,0.084533274,-0.036844745,-0.09252184,-0.053865924,-0.022725146,0.00989206,-0.017425807,0.00031020158,-0.030498523,-0.008691872,-0.019660642,0.022988359,0.0053951894,-0.08274324,0.045704577,0.035490163,0.0326913,-0.006994952,-0.0033952591,-0.05512319,-0.017636327,-0.14093347,-0.032685507,-0.0024018118,0.0021286777,0.14693747,0.008957123,0.037696127,-0.002379412,0.0065646195,0.023085568,0.03723273,0.041543458,0.084633894,-0.07591234,0.10184387,0.076305814,-0.031493444,-0.08655321,-0.006750997,0.057575084,0.06305433,0.08780243,0.06786409,0.019559218,0.121940106,0.038228266,0.06290069,-0.086529516,-0.048548985,0.043984696,-0.032494094,0.064696185,-0.027331527,-0.1337419,0.005320778,0.02134469,-0.122006394,0.1281529,-0.07718584,-0.04261346,-0.00028687774,0.14026995,0.017265078,0.17104273,-0.019688753,0.02033556,-0.0829623,0.07267301,0.03927605,0.07208955,0.042244922,-0.0014959199,0.025304861,-0.083663605,-0.0060965214,0.0013957375,-0.05167121,-0.020779323,-0.00072843285,-0.11267745,-0.040770743,-0.11028426,0.044647764,0.10023302,0.10530081,0.0004599854,0.06604342,0.00020046276,-0.038090885,0.097990744,-0.031583235,-0.050502345,0.03707349,-0.0075006923,0.036696628,-0.06055198,-0.00467453,-0.021983797,-0.028961048,0.018623011,0.04384073,-0.103002585,-0.062873304,0.14892478,0.08721925,0.01618208,0.0036444522,-0.07801474,0.07983362,0.065496795,0.051582627,0.016148428,-0.090024345,0.05843557,-0.05798874,-0.033797868,-0.06512918,-0.034259133,-0.00086101564,0.1361736,-0.13293177,-0.03360699,0.04952119,0.0061890692,-0.06194964,-0.007695874,-0.054861903,-0.00867987,-0.08461234,0.033518586,0.03459335,0.021650074,0.02981285,0.021741465,-0.059765097,-0.0007652899,-0.018063055,0.0018257905,-0.021678023,0.023461925,-0.028722286,-0.008579743,0.045662545,0.0014505615,0.025700608,-0.007581659,0.03778857,-0.11252281,0.11056923,-0.10322571,-0.10543,-0.046740636,-0.03327825,-0.009812821,0.15181428,-0.04546842,-0.018862674,0.111179866,-0.0058823936,0.046516404,-0.16357677,0.005507348,-0.09269875,-0.06587087,-0.010060825,0.14137283,0.022918144,-0.009366446,-0.028504709,-0.07039656,0.010966611,-0.06455321,-0.10624953,-0.030704716,0.017778594,-0.014196889,-0.055772446,-0.09302878,-0.027918063,0.010347222,-0.052175578,-0.0093273735,-0.04997993,-0.08176639,0.033935316,-0.16445886,0.030521698,0.1595444,0.048314087,-0.07777369,0.035112698,-0.011725796,-0.014923898,0.026665233,-0.014085901,-0.01279975,0.05305903,-0.003915158,-0.010866859,-0.00446777,-0.00835457,0.105870806,-0.04849471,-0.01710027,0.081722885,-0.011038103,0.06435564,-0.010225675,-0.029525023,0.07787363,0.039579835,0.0065533393,0.056770384,-0.019532353,-0.037412282,-0.035609797,-0.01221951,-0.057667073,-0.04102594,0.09183671,0.05642189,0.053234007
xn74x0,0.04838661,0.018133366,0.07676578,0.027974864,-0.018623907,0.096048355,-0.017265076,-0.07561515,-0.04370207,0.02886856,-0.0752624,-0.1442985,-0.038573995,0.071465954,-0.023354705,-0.0006611837,-0.110932395,0.057956424,-0.0030444548,-0.136105,0.027917098,-0.015998263,-0.020925745,0.03198895,0.11034122,-0.07173081,0.011388778,-0.067449436,0.039554667,0.06952438,0.0049711093,0.068662144,-0.0979456,0.08758592,0.010694412,-0.06321917,-0.020341996,-0.015971152,0.05112141,0.045306444,-0.06458201,0.023217568,-0.011312887,-0.11851557,-0.025466751,0.03629473,-0.1511607,-0.02568434,0.03558928,0.02449415,-0.038974896,0.036820535,-0.03728979,-0.07939513,0.13555281,-0.015721126,0.005213962,-0.029515425,-0.096415885,-0.056238353,0.13678487,0.03515495,0.04135996,0.14551015,0.0018925966,-0.008403792,-0.0044457265,-0.0680995,-0.073274836,0.04399042,0.0085464725,-0.0033765254,-0.06303362,0.03222926,-0.09378255,-0.022479668,-0.013341092,0.16029276,0.086855106,-0.031546317,-0.03800336,0.0020158403,-0.055680104,-0.06863038,0.03989314,0.020000063,-0.03903343,0.025005985,-0.011209229,-0.024688067,-0.010530641,-0.0017354893,0.015503184,-0.0989812,0.05939318,0.12782466,-0.017907072,0.12824035,-0.13327472,-0.033352293,0.035414156,-0.10479276,-0.10241137,0.01201178,-0.040723834,0.09848232,-0.016885508,-0.05510819,-0.054496344,-0.021374336,-0.051377553,-0.011821926,-0.03877233,-0.05534427,-0.09351854,0.037935518,0.07340124,0.004827235,-0.05077325,-0.06581827,0.010805654,0.057118785,-0.010581716,-0.0048437584,0.020222915,0.04150772,-0.058300834,0.087036036,0.05167116,0.111764245,0.031095028,-0.022957917,-0.03164515,-0.0019589206,-0.024928322,0.060210463,0.005627668,0.06032049,0.06838197,-0.02059183,0.008162575,0.10202128,-0.051189873,0.16478674,0.062181264,-0.0040777302,-0.07894975,0.005036243,0.0054340255,-0.00054778886,0.041501056,0.01872159,0.0336014,-0.10696338,-0.024327347,0.1536476,0.039442886,-0.062558524,0.081353776,-0.06514085,-0.014608192,-0.09192164,0.091034316,-0.11691262,0.0014239064,0.029336829,0.043906625,-0.18679929,0.04016555,0.030355915,-0.035445325,0.12353245,0.024294494,-0.016375935,0.03187159,0.06562916,0.18112314,-0.000119873665,-0.05411429,-0.01636646,-0.05913372,-0.0069255107,-0.02475562,0.033999283,0.041586578,0.0028562476,-0.12465995,-0.057849783,0.017383456,0.04399957,-0.11164807,0.07951868,-0.07137361,0.049042854,0.10866272,0.014568012,0.051034044,0.034237184,-0.10202786,0.07214573,0.06790756,0.0349163,-0.050018795,0.042441923,-0.092174515,0.059080675,-0.061052524,-0.04675311,-0.06026798,-0.058547262,0.021666974,0.030788817,0.013214335,0.018787874,0.023126954,0.02540053,0.024553014,-0.05527012,-0.0068566557,0.013824286,-0.00022639526,0.029201362,0.083245985,-0.08042504,0.090604775,0.0006508734,-0.0021255403,-0.0010969916,-0.011544747,0.02227103,0.058894303,-0.006216219,0.063852906,0.0020393773,0.07276912,-0.025403986,0.04599646,0.025033107,-0.09219107,-0.02681653,-0.0038903425,-0.088898644,-0.0088916365,-0.09216344,-0.07016531,-0.03013306,0.018618476,-0.006621032,0.08303879,0.057894707,-0.023891341,-0.05332506,0.016994707,0.032871265,-0.00953111,-0.047396183
xn74x2,0.042405218,0.03896462,0.09321515,0.04804749,-0.016306069,0.14281733,-0.028394585,-0.06896619,-0.024765268,0.027794229,-0.06728939,-0.13685381,-0.017147014,0.07662906,-0.0031670246,-0.011867317,-0.08456042,0.05811879,-0.020055216,-0.1660706,0.066968895,-0.004077463,-0.0058240383,0.009766131,0.08329178,-0.09914314,0.01588335,-0.08919161,0.016322441,0.028098868,0.00055862736,0.036735676,-0.08966911,0.09190685,-0.010453129,-0.04363802,-0.03913827,-0.048594974,0.06349239,0.008297516,-0.050427068,0.015973104,-0.013005531,-0.09533272,-0.03406154,0.037837293,-0.16756748,0.009870532,0.054999754,0.02783637,-0.03328261,0.022322228,-0.055340752,-0.08148205,0.10971537,-0.031443413,-0.0012268687,-0.024081264,-0.09379072,-0.043564852,0.1202115,0.02050424,0.070791624,0.13240308,0.017782046,-0.019511575,-0.0062080603,-0.08201265,-0.0378663,0.051392376,0.028633166,-0.029824007,-0.06278966,0.05975784,-0.07754238,-0.03038491,-0.0069724172,0.17384061,0.11318556,-0.018573815,-0.0036120978,0.0217527,-0.05630002,-0.07800629,0.07060769,0.014967088,-0.04757789,0.022695135,-0.021889567,-0.01579342,0.008733198,0.028205162,-0.015402835,-0.09905531,0.049014192,0.12573,-0.036110204,0.15405813,-0.08681147,-0.03743673,0.020243937,-0.10412837,-0.105781004,0.029253343,-0.052477702,0.10969914,-0.008928877,-0.053631365,-0.07842269,-0.04006502,-0.05734929,-0.0398886,-0.050367445,-0.07670354,-0.07558596,0.021749005,0.07043301,0.0036340347,-0.09050696,-0.08675557,0.041749064,0.046247594,-0.019978976,0.018043192,0.028754229,0.027889755,-0.04500091,0.089488536,0.044297636,0.11257722,0.0019205955,-0.037464507,-0.033043575,0.024689542,-0.017202573,0.07067985,-0.0078120534,0.066612296,0.054320175,-0.0028432636,0.0034043493,0.0750314,-0.0327949,0.14790672,0.08963958,0.0067767757,-0.104679234,0.018716633,0.014838093,-0.0057073873,0.033137824,0.029312296,0.02839906,-0.09882694,-0.008503267,0.12141283,0.041159257,-0.07607436,0.0867003,-0.044779915,-0.014641335,-0.07969602,0.10732793,-0.09838721,-0.005463501,0.04583914,0.038019557,-0.19277182,0.074257925,0.02806416,-0.045628753,0.093412906,0.022568418,-0.026467899,0.04240476,0.04734644,0.18859388,0.017021036,-0.03822847,-0.021961002,-0.025146361,-0.029134812,-0.013212004,0.03790371,0.018674627,0.019085053,-0.120429106,-0.076018475,-0.0011348777,0.024444232,-0.1249046,0.06527033,-0.030560162,0.034424085,0.07403395,0.0049398188,0.06909678,0.029891072,-0.05389746,0.050660197,0.08389679,0.009979706,-0.03179181,0.042967934,-0.0868523,0.06354104,-0.093863465,-0.04269911,-0.056773756,-0.07890759,0.025732137,0.029557444,-0.0028638905,0.0034403675,-0.00045660746,0.0070779976,0.03608314,-0.06874497,-0.0151153,0.0107795475,-0.01889158,0.052473903,0.08424947,-0.07814493,0.09720989,-0.006008784,0.00502937,-0.005719701,-0.0025803666,0.015835622,0.026536243,0.0017837498,0.07969997,0.0062406785,0.048739962,-0.0264433,0.03663248,0.008685993,-0.12064765,-0.015123182,0.015885042,-0.10210875,-0.012036612,-0.073008515,-0.05649174,-0.012219486,0.037199933,-0.019091295,0.07779098,0.05757647,-0.020372938,-0.04816995,0.017477494,0.04185744,0.012249674,-0.0346691
xn74x3,0.05326583,0.025659766,0.049773518,0.02175241,-0.014745809,0.08037818,-0.03544339,-0.0709383,-0.027372317,-0.0092602,-0.07420666,-0.1628044,-0.041106995,0.07785223,-0.015981918,0.011790338,-0.1166157,0.058933202,-0.015232742,-0.15368192,0.017820697,-0.021368429,-0.011902592,0.0049983277,0.10840768,-0.075621895,0.017533075,-0.053058058,0.029069038,0.06321377,0.014838118,0.065468185,-0.103955,0.0877006,0.016861703,-0.066616386,-0.028290564,-0.029863523,0.048134476,0.03853627,-0.067202695,0.02700312,-0.0073028556,-0.095641516,-0.023437135,0.03381505,-0.16836591,-0.02080896,0.033965196,0.025689822,-0.034128096,0.033759978,-0.061397463,-0.08596694,0.12670225,-0.008852818,0.003928399,-0.033196952,-0.07317945,-0.054518025,0.13970825,0.03761456,0.038573626,0.12898381,-0.0052247457,-0.000712211,-0.008909662,-0.062848285,-0.048860945,0.058370274,0.014894793,-0.008088847,-0.066450216,0.01941614,-0.08921027,-0.029859118,-0.013887864,0.1449957,0.08788884,-0.020629324,-0.059305098,-0.01220452,-0.045986723,-0.07522584,0.02339521,0.033518683,-0.042680945,0.020178515,-0.03441119,-0.010653227,0.010643599,0.029303906,-0.004603966,-0.11481485,0.072060406,0.13396603,-0.022745492,0.1583711,-0.13849084,-0.050887465,0.046574224,-0.084374234,-0.09283492,0.012212305,-0.060170297,0.11428261,-0.025833959,-0.044613946,-0.052704174,-0.043805357,-0.047521356,-0.014531405,-0.038282003,-0.060192354,-0.08116116,0.034546793,0.08573866,-0.015229364,-0.05527095,-0.0792181,-0.002208295,0.04359758,-0.0044415477,0.00984446,0.016004967,0.03165921,-0.080912285,0.09264678,0.05362175,0.11950129,0.023150763,-0.018682078,-0.028905982,-0.0041229045,-0.023898467,0.04565256,0.008617966,0.058844008,0.07237771,-0.011672185,0.018208403,0.09556981,-0.04135935,0.17619398,0.07060814,0.0010176481,-0.086723804,-0.0031398383,0.017395712,-0.010888687,0.040631555,0.015893867,0.019196413,-0.10119294,-0.0074431705,0.139461,0.033854738,-0.06902028,0.07764053,-0.06253472,-0.0066326,-0.08884655,0.074788146,-0.13564259,0.007941763,0.02249421,0.045167822,-0.17014551,0.06534446,0.045813408,-0.035280805,0.11776202,0.021593194,-0.01963166,0.03353102,0.06700797,0.16959737,0.0078064366,-0.04643283,-0.009968778,-0.045218024,-0.0052839587,-0.017039109,0.032385856,0.03415796,0.018706195,-0.12073053,-0.054824643,0.03907607,0.041555285,-0.1173161,0.06870658,-0.07287786,0.044885993,0.09739316,0.0015621394,0.067446925,0.028064286,-0.114137016,0.05886867,0.06323203,0.033075623,-0.04373242,0.05679421,-0.08525408,0.04995104,-0.06948038,-0.056851845,-0.023901999,-0.06346704,0.036523998,0.035380084,0.02917896,0.0059573925,0.007194739,0.024306111,0.026660277,-0.07107897,0.0053921076,0.036979668,-0.0035259223,0.03633463,0.08671916,-0.06550454,0.07712494,0.010350444,0.007265088,0.0027761708,-0.017678823,0.009589654,0.05446186,0.0017316578,0.073138,0.01635428,0.07629044,-0.049489688,0.04838227,0.030598292,-0.086283006,-0.019571615,-0.0022003932,-0.071590394,-0.011024679,-0.09056471,-0.05515328,-0.029008409,0.041800153,-0.008494549,0.079292536,0.06698529,0.0028550378,-0.06014812,0.010682847,0.032244295,-0.019561682,-0.038561296
