,feature_0,feature_1,feature_2,feature_3,feature_4,feature_5,feature_6,feature_7,feature_8,feature_9,feature_10,feature_11,feature_12,feature_13,feature_14,feature_15,feature_16,feature_17,feature_18,feature_19,feature_20,feature_21,feature_22,feature_23,feature_24,feature_25,feature_26,feature_27,feature_28,feature_29,feature_30,feature_31,feature_32,feature_33,feature_34,feature_35,feature_36,feature_37,feature_38,feature_39,feature_40,feature_41,feature_42,feature_43,feature_44,feature_45,feature_46,feature_47,feature_48,feature_49,feature_50,feature_51,feature_52,feature_53,feature_54,feature_55,feature_56,feature_57,feature_58,feature_59,feature_60,feature_61,feature_62,feature_63,feature_64,feature_65,feature_66,feature_67,feature_68,feature_69,feature_70,feature_71,feature_72,feature_73,feature_74,feature_75,feature_76,feature_77,feature_78,feature_79,feature_80,feature_81,feature_82,feature_83,feature_84,feature_85,feature_86,feature_87,feature_88,feature_89,feature_90,feature_91,feature_92,feature_93,feature_94,feature_95,feature_96,feature_97,feature_98,feature_99,feature_100,feature_101,feature_102,feature_103,feature_104,feature_105,feature_106,feature_107,feature_108,feature_109,feature_110,feature_111,feature_112,feature_113,feature_114,feature_115,feature_116,feature_117,feature_118,feature_119,feature_120,feature_121,feature_122,feature_123,feature_124,feature_125,feature_126,feature_127,feature_128,feature_129,feature_130,feature_131,feature_132,feature_133,feature_134,feature_135,feature_136,feature_137,feature_138,feature_139,feature_140,feature_141,feature_142,feature_143,feature_144,feature_145,feature_146,feature_147,feature_148,feature_149,feature_150,feature_151,feature_152,feature_153,feature_154,feature_155,feature_156,feature_157,feature_158,feature_159,feature_160,feature_161,feature_162,feature_163,feature_164,feature_165,feature_166,feature_167,feature_168,feature_169,feature_170,feature_171,feature_172,feature_173,feature_174,feature_175,feature_176,feature_177,feature_178,feature_179,feature_180,feature_181,feature_182,feature_183,feature_184,feature_185,feature_186,feature_187,feature_188,feature_189,feature_190,feature_191,feature_192,feature_193,feature_194,feature_195,feature_196,feature_197,feature_198,feature_199,feature_200,feature_201,feature_202,feature_203,feature_204,feature_205,feature_206,feature_207,feature_208,feature_209,feature_210,feature_211,feature_212,feature_213,feature_214,feature_215,feature_216,feature_217,feature_218,feature_219,feature_220,feature_221,feature_222,feature_223,feature_224,feature_225,feature_226,feature_227,feature_228,feature_229,feature_230,feature_231,feature_232,feature_233,feature_234,feature_235,feature_236,feature_237,feature_238,feature_239,feature_240,feature_241,feature_242,feature_243,feature_244,feature_245,feature_246,feature_247,feature_248,feature_249,feature_250,feature_251,feature_252,feature_253,feature_254,feature_255
dr5nzz,-0.005815914,-0.06194114,-0.0072584087,-0.14940724,0.08725517,0.049591564,-0.026021058,-0.0116374325,-0.07179787,-0.09961542,0.021772252,0.058091223,0.046080515,-0.04555961,0.016983438,-0.08627332,0.011635493,-0.025197698,0.0032398275,-0.048847828,-0.038135123,0.026745787,0.08575927,0.058399674,-0.1385687,0.05374374,-0.11728829,0.04551872,-0.018427305,0.008776003,0.030348396,0.051478848,0.07125651,0.018231481,-0.014336421,0.086478814,0.0010927024,0.009999411,0.041641496,-0.080118865,0.016644107,-0.010466607,0.049694072,0.041019905,-0.024257721,-0.010866049,0.02804484,0.06259936,0.038755983,0.099463806,0.044181384,0.044052254,0.05035392,0.06898166,0.054864448,0.04651095,0.011197436,-0.14611672,-0.05733885,-0.06761608,0.0115421405,-0.037673585,0.08681259,-0.02579235,-0.0404815,-0.13281035,0.015084524,-0.022777883,-0.07667359,-0.10045691,0.12114399,-0.12797154,-0.12837371,-0.027353633,-0.046129476,-0.05391626,0.06328295,-0.006240663,-0.0314712,-0.0069581387,-0.022947041,0.10219663,0.017996995,-0.033815686,-0.06761489,0.113766775,-0.042685088,-0.063947715,0.005570097,-0.03313752,0.02837594,0.0721272,-0.0006794002,0.023746647,0.059112117,-0.09522278,0.09483866,-0.007274187,-0.008576685,0.08313541,0.102263235,-0.012367239,-0.042402394,-0.10988473,0.0970283,-0.016559076,0.10059878,-0.05612888,-0.04102399,0.05198864,0.06903363,0.14924373,-0.008895078,-0.08470386,-0.09430153,-0.017615592,-0.045190256,0.09826324,0.04441233,0.01224159,-0.017936975,-0.014559241,-0.0068081045,0.034051932,0.037219092,-0.090613574,-0.07040222,-0.1216091,0.08686226,-0.058220394,-0.006466654,-0.057868402,-0.03611059,0.06765501,0.043441344,-0.0045318045,-0.10374896,-0.026745759,-0.0042044013,0.028181588,-0.040468007,-0.0062509784,0.08225396,-0.030410357,0.03613094,0.05428089,0.025068594,-0.03308222,-0.014049525,-0.008833743,0.006234552,-0.0004868627,-0.033695396,0.056272883,-0.022988785,0.04052942,0.010903328,-0.09745131,0.07262519,0.117759645,-0.06285853,-0.05589823,-0.11051105,-0.034611177,-0.060006894,0.1011523,0.04041445,-0.017698118,0.07556753,-0.061033573,0.018272633,0.03409359,-0.0016853337,-0.082196586,0.019512769,-0.044519134,-0.06146132,-0.032715864,-0.11009646,0.0014024926,0.038364638,-0.04214445,0.075890295,-0.10601904,-0.060458187,0.061765257,-0.067452684,0.18992396,-0.056845255,-0.032904,0.09691891,0.0075752144,0.013569459,0.06956686,0.0069659567,0.031514343,0.09477659,-0.0023477268,0.026391154,-0.08451874,-0.03783802,0.026456263,0.029832043,0.082317725,-0.05166718,0.029956667,-0.01646918,-0.039477985,0.040486746,-0.13092744,0.050161857,0.09140135,0.0063537178,-0.10965196,-0.052251704,-0.014830152,-0.023882868,-0.0637461,0.054436095,0.086197585,-0.0009830559,0.04891524,0.012683879,-0.0955584,0.024426222,-0.008664989,0.054491147,0.16489764,-0.032623123,-0.00796952,-0.076386794,0.13340323,0.020356819,0.06639019,0.0061873887,0.013345696,-0.043594748,0.05386933,0.03542333,-0.046969593,0.034293063,0.06078295,-0.043873604,-0.024123821,0.02281344,0.056796562,-0.040654447,-0.07820757,-0.0035315822,0.08753666,0.0073282793,-0.096416764,-0.07722777,0.035258934,0.019524679,0.08082069
dr5ppn,0.05761407,0.032389488,-0.0026204635,-0.035604652,0.01810657,-0.015193731,-0.06525705,-0.07712229,-0.15925986,-0.08413248,-0.02010942,-0.02945026,0.03292014,-0.047428135,0.004360777,-0.052980885,-0.032696374,0.09714379,-0.029314883,-0.007328088,-0.03520427,-0.0026556472,0.020930873,-0.034542456,-0.03603764,0.0643814,-0.10687125,0.015846329,0.05471444,0.020906692,-0.012641507,0.034867574,0.12537256,-0.008100342,0.04196188,0.07255248,-0.0058223186,-0.013141955,0.013079545,-0.07997471,-0.04370571,0.03391475,0.14335331,0.023563107,-0.023193065,-0.030379964,0.026108695,0.05173999,-0.018836003,0.050628796,0.0072267866,0.059523307,0.09004215,0.026399273,0.02195159,-0.045208283,0.03203621,-0.12871592,-0.043696858,-0.06013317,0.008653971,-0.028703509,0.044619612,-0.007417607,0.033293992,-0.018145144,0.023528976,-0.0658952,-0.059754398,-0.14547886,0.1728717,-0.04404421,-0.086718485,-0.010162341,-0.14662209,0.011071618,0.07543674,-0.047821965,-0.022668872,-0.033420444,0.06656082,0.07364091,-0.009823811,0.02073993,0.034095924,0.10827176,-0.08422518,0.002454289,0.013865365,-0.023966894,0.05531763,0.071804725,-0.12143351,0.030489137,0.02213424,-0.054405373,0.07059877,-0.013603616,-0.07176764,0.028497681,0.0038407142,-0.036439672,-0.04326933,-0.049001206,0.008532319,-0.024624709,0.094884425,0.06762889,-0.11232408,0.021949798,0.044451706,0.18812223,0.008876746,-0.07803887,-0.018405717,-0.0050747334,0.0299109,0.16083802,0.00046204886,-0.023307422,-0.05702307,0.095674336,-0.115185745,-0.06702958,0.08899373,-0.07140852,-0.05094243,-0.078715175,0.04130173,-0.04897095,-0.018798811,0.040167324,0.091719456,0.094207674,0.06774271,0.04215127,-0.075414576,-0.07418145,0.054342184,0.0005337148,-0.021331696,0.027416993,-0.02125594,-0.031870335,-0.017399905,0.14834993,-0.05334917,-0.06680472,-0.005474439,0.03713035,-0.027390879,-0.10823847,0.025468457,-0.07884273,-0.04018055,-0.06825062,0.015820282,-0.04536759,0.03223976,0.13662234,-0.016011635,0.0006438831,-0.035978317,-0.02449717,-0.16422066,-0.02357941,0.07383482,-0.007649527,-0.0036729828,-0.0154067455,0.0034529208,0.015069583,0.03769964,-0.016101763,0.0780393,0.03842638,-0.0532627,0.0055222847,-0.07301079,0.06667843,0.012736247,-0.033729497,0.16670625,-0.084430724,-0.06796757,0.13165337,-0.13864142,0.11474258,-0.05642666,-0.056013856,2.0503257e-05,0.044022456,-0.013050954,0.019595234,-0.06366277,0.000811404,0.0440263,0.054812685,-0.03942569,-0.025869668,0.007214656,0.046646934,0.057971213,-0.009268307,0.017343115,0.013272216,-0.0035655804,-0.008346131,-0.014871094,-0.10315819,-0.0021753563,0.14536828,-0.033973254,-0.028138163,-0.026266921,0.00015076193,0.021426663,-0.054750733,0.052072894,0.07882683,0.01662195,-0.0036404412,0.016875062,-0.11613307,-0.08389505,-0.02981563,0.017013518,0.08299373,0.08350259,0.035872616,-0.03969636,0.08811531,0.08756922,-0.0047915466,-0.032930046,0.0058369734,-0.03027077,-0.03905629,0.018234873,-0.023863249,0.02653344,0.11809854,0.11561957,0.017770544,-0.06816934,-0.038370304,0.04030954,-0.010800535,-0.027392844,0.008184255,0.10037648,-0.08730458,-0.0974222,0.013745389,-0.02533421,0.08349726
dr5ppt,-0.012948063,-0.03411576,-0.0061103115,0.04287995,0.06060786,0.017095631,-0.0032718594,0.011354162,-0.031993404,0.06294111,-0.058482885,-0.03458048,0.026428167,-0.0757577,-0.09910337,0.059108973,0.014057528,-0.041438516,-0.015990205,-0.0019906452,0.028840128,-0.0660152,-0.102694586,0.025751181,0.1568328,0.030959213,-0.1545539,0.025464071,0.011303681,0.011738522,-0.0731186,-0.0044252863,-0.05594485,-0.027053924,0.17858979,0.06869345,-0.01609841,0.022323241,-0.022916438,0.17233053,-0.07823747,0.043315157,-0.14365707,-0.066633336,-0.01241873,0.15956597,0.07970684,-0.023220396,0.009463328,0.0045855604,0.025049884,-0.16216063,0.035547215,-0.024252824,-0.010610684,-0.00599847,0.017507985,-0.012558304,-0.067581356,-0.01967587,-0.06325246,-0.058768798,0.014821005,0.012138637,-0.00094602956,0.025185166,-0.025777679,-0.02459738,-0.037543524,0.06537661,0.031192664,-0.03559588,-0.020275362,-0.028761683,0.04545584,0.037591472,0.04300126,0.027537063,-0.031215178,0.053466972,0.054298542,-0.039958246,0.04558694,0.037574813,-0.0824821,-0.0061873696,-0.030287052,0.1033716,-0.03852334,-0.007168341,-0.12526831,-0.05129741,-0.12867633,0.0059661344,0.036013797,-0.018372715,0.058378935,0.021581477,-0.16623043,0.07654511,-0.008177695,0.048853662,0.080131635,0.036388088,-0.007269729,0.07073702,0.022134827,0.012084819,-0.048074342,0.03811901,0.0026347598,0.036268093,-0.032623753,-0.0031303272,-0.08298536,-0.21297252,0.10596659,0.07246698,0.04543284,-0.063084304,-0.060541134,0.05362297,0.016347496,-0.03515102,-0.04924398,-0.05053536,0.07257324,0.15025716,-0.0024000928,0.025127009,-0.035623338,-0.06709365,-0.061296992,0.04874613,-0.08131043,0.027043661,0.0122473985,-0.046452954,-0.03675932,0.07115665,0.032712627,-0.022324998,0.00041637916,-0.004177854,-0.022957282,0.07303525,0.076329045,0.0402528,-0.070003375,0.018537618,0.1240632,-0.026017336,-0.033603046,0.06440612,-0.06609804,-0.08049921,-0.028919475,0.08225773,-0.12545305,0.064169325,-0.014714344,-0.051166307,-0.040125523,-0.0021016449,-0.036354005,-0.0041895756,-0.05225065,0.08539838,-0.07394939,0.012399989,0.006013477,-0.02568106,-0.100205965,-0.019402381,0.053950235,0.028750451,0.070263736,0.10773921,-0.061764535,-0.037083037,0.04082003,0.0055829305,-0.05704584,-0.03998297,0.1419055,-0.030316655,-0.03730735,-0.060038615,0.045912754,0.046746913,0.1305796,0.07849063,0.080110505,-0.026340164,0.033059366,-0.08702608,-0.0168482,-0.018583272,-0.07644805,-0.035300076,0.15853375,-0.020871162,0.088135764,0.07578611,0.092369474,-0.013198176,-0.08361356,0.03324347,0.034554612,0.088832505,-0.036628924,-0.041692894,-0.07057121,0.012820863,-0.0021001257,0.015763896,0.0007763922,0.010173583,-0.009683176,-0.012060324,0.01800548,0.040758356,-0.06282923,0.11613648,-0.04542758,0.030246502,-0.11683274,0.009233275,0.088876985,-0.04753169,0.009238302,-0.08592137,0.00415228,-0.09491084,0.00536367,0.01686311,0.06560794,0.020557491,-0.083176464,0.011524344,-0.039715163,-0.0060956697,-0.07651974,0.055236876,0.062194373,0.024327664,-0.025049504,0.010803756,0.011813152,-0.0009307283,0.13545828,0.006722696,-0.10651152,-0.06207608,0.011347124,0.029075729
dr5pqc,0.08432659,-0.06317968,0.03426043,0.11137278,0.031045774,0.033869732,0.0003282547,0.09407765,0.018987942,0.09867072,-0.049464222,0.0020703827,-0.013178466,-0.06829248,-0.00044619807,0.18526672,0.039765157,-0.122481465,0.012604321,-0.0050924295,0.0039876783,-0.08469898,-0.079390645,0.033017773,0.16533956,-0.017918795,-0.117579095,0.015910849,-0.038848326,-0.03690363,-0.013888548,-0.014978934,-0.06379978,-0.019713148,0.09182202,-0.0033796814,-0.06625667,-0.03950395,-0.021545568,0.095836185,-0.028012505,0.083537824,-0.12850404,0.007770048,-0.020832816,0.12684678,0.0047812536,0.067906514,0.063044176,-0.007884916,0.0034094856,-0.039673198,-0.053458706,-0.042998925,-0.014750525,0.0125758415,0.009006352,-0.016136682,-0.05498667,-0.029374069,-0.066283315,-0.07852108,0.025009021,0.01095669,-0.051089063,-0.060403794,-0.018198356,0.02210831,0.015332862,0.019278437,0.051604595,0.048253328,-0.104907855,-0.020854725,0.013541181,0.00516317,0.03095821,-0.029238846,0.011172531,0.023964034,0.027608365,-0.03305676,0.061668906,0.012260295,-0.058524422,-0.01121813,-0.049908828,0.060144983,-0.0020930558,0.049939346,-0.045239106,-0.07823184,-0.17526086,0.008363561,-0.0080033615,-0.10782597,0.044345304,0.03129242,-0.10625126,-0.018759636,0.015782129,0.026536271,0.075595036,0.06461688,-0.009419895,-0.0072138016,0.05998677,-0.011110987,-0.05809849,-0.036545474,-0.011248516,0.021164794,-0.06902569,-0.01721586,0.04913492,-0.16550945,0.034445684,0.030938124,0.06974383,-0.07788207,-0.024755316,0.032185633,0.08505618,0.023742843,0.012520787,-0.027539104,0.028223665,0.13390157,-0.05373322,0.025893617,-0.03379986,-0.05558709,-0.034957718,0.08393145,-0.03372224,0.09941341,0.051854625,-0.02611313,0.020795511,0.0377339,0.061815195,-0.022849867,-0.08672055,0.07046614,-0.030686568,0.15091233,0.09987835,0.05300916,-0.075230345,-0.019791378,0.0748543,-0.07946883,-0.0024890588,0.02782862,-0.0065240683,-0.072050974,-0.018305887,0.045510594,-0.13441987,0.04374671,-0.002082305,0.04510164,-0.037349753,0.0029276712,-0.06476069,-0.016741205,-0.050413135,0.061019555,-0.0499929,0.029888723,0.011372202,0.02801153,-0.111550406,-0.057635523,0.07257568,0.014660946,0.02046551,0.081567794,-0.026810853,0.0012473176,0.06478076,0.0044426424,-0.070042804,-0.020697417,0.11557721,0.007982749,-0.06990699,-0.07354675,0.03164063,0.057987466,0.08731346,0.1021983,0.11926246,0.0013806428,0.06858614,-0.049840894,-0.026168859,-0.015274129,-0.07814556,0.04426511,0.16137613,-0.05220866,0.13842104,0.087973535,0.08683167,0.007972784,-0.05662535,0.018113857,-0.00092158705,0.016573919,-0.032596037,-0.0917993,-0.033210237,0.040339883,-0.02195661,-0.0032123758,0.015997779,0.05341023,-0.03764925,-0.025174266,0.04574363,-0.00044562228,-0.0031660963,0.14637092,-0.15521806,-0.058881294,-0.14270625,0.002126007,0.13356778,-0.027151627,0.0032717735,-0.070871934,0.041342705,-0.11340738,-0.0046775527,-0.027876137,0.039993595,0.014820465,-0.11681739,-0.027235987,-0.06543173,-0.01736213,-0.059152745,0.08479662,-0.00079501537,-0.027340831,-0.070603795,0.00420783,-0.001845498,-0.060310304,0.12227675,-0.0353533,-0.048917424,-0.079667665,-0.02425485,0.039466795
dr5pqe,0.051590085,0.029822586,0.041519236,0.044444304,0.014957456,0.023343315,-0.11637943,0.07651917,0.061449204,-0.027560525,-0.014702825,0.0041879164,0.056990344,0.016020035,0.050265413,0.2022577,0.041835148,-0.046459362,-0.027451802,-0.024842674,0.036148388,0.07754343,-0.030731449,0.0523269,0.084529616,-0.024189206,0.21213149,0.080561556,-0.021564985,-0.019828297,-0.05524005,-0.0017648039,-0.076335736,-0.013749224,-0.092271976,-0.12410064,-0.01011036,0.01451146,-0.046569277,-0.017996851,0.100016385,-0.02335222,-0.07131234,-0.02443898,-0.016235298,-0.07645507,-0.055849496,0.038051333,-0.017140353,0.027679196,0.038285505,0.049473196,-0.15393302,-0.046382282,-0.055908877,-0.04762476,-0.012512294,0.044803847,0.04199538,0.01859652,0.14022318,0.101154864,-0.10247319,-0.03310274,-0.043505527,0.028720098,-0.022842241,0.0020724451,-0.01725197,0.016052963,0.0013845138,0.06219857,0.08936047,-0.0119792195,0.18013029,-0.041272692,-0.01954604,0.044785354,0.0037745212,0.009038424,-0.041402563,-0.018933335,0.06648113,0.029618492,-0.06488052,-0.048586156,0.06467646,-0.11387782,0.021824736,0.0065021724,0.070948996,-0.13015203,0.061176814,-0.06640379,-0.06706491,-0.07390145,-0.14899217,0.05186334,0.14045697,-0.023729693,0.0049647,-0.070840426,-0.081830844,-0.030313777,-0.057325643,0.0029796984,-0.010723157,-0.03616872,-0.063156724,-0.05554915,-0.059112515,-0.07287747,-0.025538422,0.05408517,0.113773905,0.06243573,-0.06878632,-0.08315951,-0.024494272,0.07555157,-0.031837344,-0.098484464,0.058998417,0.014858543,-0.05595618,0.08334797,0.05744115,0.031627525,0.06775646,0.056750033,0.0004882244,0.05885021,0.061610248,0.05087843,0.012600412,0.05375497,0.042687636,-0.051376864,-0.015415155,0.008864879,0.04996747,0.014014515,-0.05882957,0.084671654,0.0480282,-0.05925177,-0.124338895,-0.1011136,0.06792947,-0.03348457,-0.09116199,0.034865435,0.047000248,-0.00029506255,-0.038045548,0.020406175,-0.038306642,0.069683224,0.057259783,-0.011171799,0.1624529,0.07238949,0.020125132,0.049705226,-0.08725827,-0.06097369,0.047275215,-0.02993833,0.018111225,0.091805264,0.0018991962,-0.026733587,0.034007728,-0.012641276,-0.052049864,-0.06381092,0.046671342,-0.0113300765,0.07117,-0.028968712,-0.1062681,0.07390767,-0.15856764,0.07962886,-0.021952333,-0.053951934,0.019095264,-0.12842743,0.031133955,0.065688066,0.03465803,0.008153855,0.0027980707,-0.03027495,0.04418344,0.010499728,0.022686103,-0.009970154,-0.006293036,0.0130374525,-0.025464894,-0.03279082,0.0538808,-0.059740085,-0.06365691,0.02274028,0.12348002,-0.07310627,-0.022182794,-0.030691598,-0.06239951,-0.03348272,0.027661182,0.045177925,0.01587716,-0.13069399,-0.018612228,-0.016885413,0.033761516,-0.014526589,-0.03480005,-0.037482128,0.051043984,-0.027026663,0.015578219,-0.09124941,-0.06693359,-0.0423837,-0.14193512,0.006091678,0.018075546,0.084339365,-0.019746896,0.0077706818,-0.0448709,0.050675742,-0.041997172,0.0835158,0.023199506,0.0015079833,-0.09057161,-0.01757972,0.08014337,0.0025545526,-0.029839143,-0.07810041,-0.05272926,0.104372874,-0.0149835255,-0.0030869916,0.0008722492,0.05707562,0.11069858,0.0039933315,0.020916387,-0.025764227
dr5pr0,-0.02712542,-0.021194264,-0.089236915,-0.055217788,0.05622231,-0.08835812,-0.026797645,0.191741,-0.028328389,-0.030219164,-0.03644547,0.041451953,-0.06238824,-0.044202324,0.05194759,-0.014781719,0.054202247,0.03658805,-0.05860798,0.043800116,-0.06662658,-0.048593093,0.058693744,-0.042030253,0.0746144,0.05323336,-0.034589753,-0.09830624,-0.00286581,0.08703695,0.043839034,0.067557074,-0.014507799,0.06872583,0.03959886,0.031064251,0.02178284,-0.02416436,-0.054404482,-0.015835753,0.026951231,-0.0373977,-0.10455334,0.012663086,0.0683645,-0.04253445,-0.027886553,0.15547101,0.054871064,0.07607761,0.098857634,0.043452036,-0.055166353,0.036724906,0.050708964,0.010814546,-0.041243613,-0.1400033,0.027483433,-0.0791805,-0.063237675,-0.0146010965,-0.00088335783,0.01543612,0.11314776,-0.15311213,0.03901296,0.08556698,-0.026973622,-0.0022493303,0.017683133,-0.034467034,-0.06648058,-0.047513437,-0.0008633552,-0.08249434,-0.03870128,-0.019097056,-0.06252902,-0.07086198,-0.004866797,0.043458816,0.028912272,-0.041000057,-0.040202267,0.024195671,-0.0048007537,0.11533429,-0.013169984,0.06972,0.024861533,0.12003827,0.07175336,-0.03692492,0.066626996,-0.11388257,0.11270449,-0.045066994,0.07865038,0.0610429,0.017985152,0.03952119,-0.030000243,0.028937705,0.0029544788,0.02969442,-0.006787376,0.02287947,-0.007753806,-0.034974154,0.08430783,-0.007099039,0.119298704,0.022280933,0.029677205,-0.08654782,0.0074204192,-0.028025998,-0.024478776,0.016847096,0.0042014755,0.049510475,0.113524646,0.075459644,-0.043009043,-0.057161666,-0.039543,-0.1065639,0.022679225,-0.019028613,0.05891832,-0.15192488,-0.062141985,-0.03893226,0.060201496,-0.058222916,-0.08978542,0.009859401,0.0066842167,-0.019030856,-0.03205821,-0.014004571,0.026710847,0.044352535,0.054411247,-0.0823811,0.072725676,0.061527636,-0.0064033866,-0.06773381,0.10542315,-0.09911371,0.10284983,0.019630238,0.06807591,0.012650155,-0.02943553,-0.009359849,-0.010961699,0.039165486,0.03975961,0.013370784,0.011638923,0.017584836,0.019954063,-0.0062183123,-0.020759745,-0.03365456,-0.012142744,-0.08382428,-0.045674376,0.018416775,-0.032276157,-0.12023256,-0.036457133,0.027611833,-0.17623097,0.02397256,-0.021964733,-0.0372222,0.07392618,0.043031447,0.045415066,0.021011611,0.08588906,0.044420682,-0.024160508,-0.035450872,0.053548258,-0.09642903,0.037264064,-0.111249894,0.034740794,-0.03579072,0.1017365,-0.13469218,0.029890487,0.024626445,0.110851996,-0.005400763,-0.026800206,0.06170685,0.033778764,0.07966834,-0.033992805,0.014448013,0.00064397947,2.2426872e-05,-0.009567323,-0.12413998,-0.02415901,-0.062066812,-0.024743125,-0.08899452,0.040052697,0.0857936,0.10529444,0.040820748,0.08076589,-0.040753294,-0.11764742,-0.053786863,0.0408926,0.010480276,-0.053283747,0.07275291,-0.051654905,0.22600451,-0.0037868964,-0.01848982,0.07933809,0.015683066,0.09471459,-0.05294155,0.01020129,-0.015187013,-0.00725695,-0.05688008,-0.09723369,0.0029331816,-0.082696,-0.031803727,-0.06040373,-0.00407654,-0.07341031,0.050599754,-0.09171673,0.01518851,-0.024524262,0.00052482117,-0.07499388,0.022696907,-0.13969916,0.05319346,0.05413294,0.028794233
dr5pr5,-0.03164751,-0.07401721,-0.03041183,0.05222161,-0.007670228,-0.020574596,-0.005861003,-0.053850174,-0.05984605,0.021505658,-0.04898437,-0.0616094,-0.0073194085,-0.020898921,-0.091487706,0.056145523,0.04061477,-0.020233758,0.013521395,0.014327142,0.03823259,-0.10461629,-0.14954206,0.004811592,0.11457585,-0.09927078,-0.10419621,0.012957497,0.046053227,0.0013827477,0.0022364466,-0.055183217,-0.02204322,-0.014888853,0.1768314,0.07455609,-0.042461123,0.014183765,0.0382435,0.16626725,-0.07710545,0.073801965,0.009412688,-0.048976775,-0.014891052,0.13920772,0.08747895,0.013118517,0.020883137,0.020980481,0.0060082,-0.14089161,0.013090056,-0.021622723,0.008618002,0.04407638,-0.010060579,-0.06497689,-0.041277017,0.0016802618,-0.10767122,-0.058197986,-0.012874192,0.03750398,0.039827548,0.04652445,-0.019999709,-0.011237911,0.008677041,0.0699921,0.06470455,-0.043753378,-0.08377523,0.008246168,-0.041403424,0.082247026,0.06217858,0.11271615,0.00082347216,0.015893681,0.0232667,0.009509452,0.015975779,0.031345822,-0.007000678,0.079458915,-0.13820289,0.055976782,-0.07092885,-0.0413372,-0.04782774,-0.09616886,-0.09242386,-0.00015634546,-0.025225665,-0.016735902,0.05547397,-0.013977009,-0.2178572,0.08111771,-0.02887775,0.0137800425,0.07900374,0.009008068,0.007495005,0.05561835,0.031148713,-0.043576892,-0.034406837,-0.01322363,-0.00618143,0.044489443,-0.01753672,-0.05448598,0.041564304,-0.15988337,0.092108175,0.057003424,0.030086156,-0.08849039,0.028235834,0.0014724734,-0.07631039,-0.019966409,0.08563082,-0.03844992,0.0353475,0.13551894,-0.0036672319,-0.00439208,-0.017636433,-0.08117497,-0.030414974,0.020346317,-0.068175554,0.043126106,0.121918395,-0.06134251,0.0483843,-0.05772389,0.07153398,0.010111366,0.005996372,-0.022608817,-0.054680202,0.09080071,0.0697284,0.025407832,-0.01146713,0.07283236,0.15462424,-0.058013298,-0.038950093,-0.025972525,0.030628359,-0.12768652,-0.022384612,0.06498689,-0.12127497,0.078048185,0.01054014,-0.012425307,-0.047887124,-0.009755019,-0.06813016,0.05688943,-0.014031184,0.10166022,-0.060166482,0.002659703,-0.005844943,-0.017422939,-0.10074317,-0.004050009,0.006757152,0.09007079,0.029846964,0.07114829,-0.09810518,-0.041570276,0.14238589,-0.047860198,0.03617556,-0.0041727945,0.07195484,0.011626398,-0.043314427,0.006238937,-0.015804129,-0.005771241,0.05164162,0.08033101,0.073819235,0.042212322,0.06751367,0.013428617,-0.03298387,-0.0066714385,-0.054786615,-0.01941516,0.17334786,-0.022973258,0.12545417,0.04520268,0.07476993,-0.00634756,-0.06557641,0.06825563,-0.047482308,0.13071282,-0.03531887,-0.030999402,-0.038023487,0.058048587,-0.016246637,-0.040141776,-0.004193154,0.07938705,-0.048833005,0.049790528,0.077391304,0.043400925,-0.03606704,0.046231303,-0.14079516,0.0057771816,-0.117815726,0.054414403,0.06775232,-0.013725961,0.0063229525,-0.07651162,0.014501829,-0.08391786,0.021521773,-0.084576145,-0.0024888306,-0.020386204,-0.046461675,-0.04689947,0.008327845,-0.0018942116,-0.05652789,-0.037457716,-0.05393154,-0.0012362227,-0.04780542,-0.03767393,0.043775883,-0.0058943494,0.067871325,0.0011611598,-0.06440628,0.006087613,-0.047796197,0.058420114
dr5pr6,0.093938544,0.12603556,0.022150332,0.0066673956,0.016342504,0.002341912,-0.10071005,0.049728118,-0.11549385,-0.024065409,0.0044363895,0.0075533353,-0.020184992,-0.056623664,0.059774347,0.046734102,-0.029958345,0.14815654,-0.09852652,0.017577896,0.06554376,0.053084407,0.019959306,-0.035555214,0.052752662,0.09015428,0.076462485,0.019212777,0.0113560315,0.0835621,-0.12573543,0.0478676,-0.021059914,0.006785428,0.027905388,-0.03104226,-0.021749688,-0.059875835,-0.08372633,-0.007919949,0.02165127,-0.067722924,0.009624609,-0.016280541,0.011336873,-0.039344102,-0.058810588,0.009332761,-0.04490346,0.09852423,0.05213674,0.04324167,-0.046441983,0.035343178,-0.0077087204,-0.11595053,0.0035029922,-0.0633497,0.034305315,-0.03452392,0.037293382,-0.023356419,-0.05188299,0.03996381,0.019470444,-0.011025701,0.11160816,-0.0021024675,-0.057274524,-0.028307494,0.04121986,0.030863782,-0.008823693,-0.05101542,0.031700525,-0.11131356,-0.015272438,-0.12086576,-0.02329742,-0.017337881,0.029963797,-0.044307936,0.109686166,0.0420942,0.009442554,0.030985227,-0.032878444,0.025976146,0.009580691,0.033393763,0.20525454,0.045063898,-0.05918183,-0.04164209,0.07495109,0.02403869,0.026056858,0.025698822,0.08612109,0.05658457,0.037858985,-0.08001279,-0.054462787,-0.018611986,-0.08330421,-0.04215772,0.025772171,0.10196996,-0.11458457,0.02179654,0.0013589141,0.049475364,0.0064803977,0.018930629,0.025074549,-0.00559321,-0.013212822,0.061868414,-0.05109858,0.034304954,-0.046118926,-0.027455028,0.032522537,-0.00761822,-0.07349184,0.034983885,-0.0335146,-0.10085536,0.10096108,-0.03414102,-0.017453399,0.059829272,0.054573096,0.07553159,0.028113585,-0.031625308,0.037593815,-0.0700014,-0.0075574354,0.046344526,0.006027677,-0.033076055,-0.015894389,0.02528242,-0.029625257,-0.029728899,-0.03745078,-0.12537253,0.02722033,0.03899293,-0.007918258,-0.073742546,0.08382873,-0.06574835,-0.033592302,-0.045511857,-0.087259576,0.028575854,0.07400597,-0.016834727,0.17582625,-0.020408938,0.056300595,0.0151931085,-0.025057198,-0.18432562,0.09063758,-0.044317335,-0.023280157,0.042298567,0.014938913,0.013042716,0.06265958,0.037067052,2.1992428e-05,0.058086727,-0.04692006,0.046448685,0.031594947,0.044377588,-0.05037661,0.15534127,-0.04093359,-0.0053434884,0.036499433,0.04317075,-0.07248313,-0.03281293,-0.009544589,-0.02758641,-0.049009927,-0.007245853,-0.053691432,-0.05659879,0.010739952,-0.0728393,0.08020425,0.019899597,0.016013522,-0.020541789,-0.018678637,-0.021730855,0.108177386,-0.015473679,-0.0762047,0.010978224,0.19389349,-0.15061276,-0.035695814,-0.1426317,-0.0887839,0.07701319,0.016117584,-0.023658667,-0.0067933854,-0.07322868,0.1757202,-0.10690958,0.11173466,-0.009593477,-0.07646366,-0.06775942,0.05872995,-0.13471787,-0.068697564,0.024315907,-0.024262292,-0.03181627,0.01179416,0.04333643,0.05514038,0.12927161,0.04778421,-0.03902847,-0.056491163,0.11070386,-0.045468442,-0.065193646,-0.08072324,0.07321962,-0.08365395,0.08285286,0.0843957,0.01782726,-0.109125406,-0.06815633,0.009155454,0.031582113,0.00020964305,-0.005200915,0.0052691996,0.00077606353,-0.04285954,-0.013572912,-0.027811635,-0.041046087
dr5prd,0.093938544,0.12603556,0.022150332,0.0066673956,0.016342504,0.002341912,-0.10071005,0.049728118,-0.11549385,-0.024065409,0.0044363895,0.0075533353,-0.020184992,-0.056623664,0.059774347,0.046734102,-0.029958345,0.14815654,-0.09852652,0.017577896,0.06554376,0.053084407,0.019959306,-0.035555214,0.052752662,0.09015428,0.076462485,0.019212777,0.0113560315,0.0835621,-0.12573543,0.0478676,-0.021059914,0.006785428,0.027905388,-0.03104226,-0.021749688,-0.059875835,-0.08372633,-0.007919949,0.02165127,-0.067722924,0.009624609,-0.016280541,0.011336873,-0.039344102,-0.058810588,0.009332761,-0.04490346,0.09852423,0.05213674,0.04324167,-0.046441983,0.035343178,-0.0077087204,-0.11595053,0.0035029922,-0.0633497,0.034305315,-0.03452392,0.037293382,-0.023356419,-0.05188299,0.03996381,0.019470444,-0.011025701,0.11160816,-0.0021024675,-0.057274524,-0.028307494,0.04121986,0.030863782,-0.008823693,-0.05101542,0.031700525,-0.11131356,-0.015272438,-0.12086576,-0.02329742,-0.017337881,0.029963797,-0.044307936,0.109686166,0.0420942,0.009442554,0.030985227,-0.032878444,0.025976146,0.009580691,0.033393763,0.20525454,0.045063898,-0.05918183,-0.04164209,0.07495109,0.02403869,0.026056858,0.025698822,0.08612109,0.05658457,0.037858985,-0.08001279,-0.054462787,-0.018611986,-0.08330421,-0.04215772,0.025772171,0.10196996,-0.11458457,0.02179654,0.0013589141,0.049475364,0.0064803977,0.018930629,0.025074549,-0.00559321,-0.013212822,0.061868414,-0.05109858,0.034304954,-0.046118926,-0.027455028,0.032522537,-0.00761822,-0.07349184,0.034983885,-0.0335146,-0.10085536,0.10096108,-0.03414102,-0.017453399,0.059829272,0.054573096,0.07553159,0.028113585,-0.031625308,0.037593815,-0.0700014,-0.0075574354,0.046344526,0.006027677,-0.033076055,-0.015894389,0.02528242,-0.029625257,-0.029728899,-0.03745078,-0.12537253,0.02722033,0.03899293,-0.007918258,-0.073742546,0.08382873,-0.06574835,-0.033592302,-0.045511857,-0.087259576,0.028575854,0.07400597,-0.016834727,0.17582625,-0.020408938,0.056300595,0.0151931085,-0.025057198,-0.18432562,0.09063758,-0.044317335,-0.023280157,0.042298567,0.014938913,0.013042716,0.06265958,0.037067052,2.1992428e-05,0.058086727,-0.04692006,0.046448685,0.031594947,0.044377588,-0.05037661,0.15534127,-0.04093359,-0.0053434884,0.036499433,0.04317075,-0.07248313,-0.03281293,-0.009544589,-0.02758641,-0.049009927,-0.007245853,-0.053691432,-0.05659879,0.010739952,-0.0728393,0.08020425,0.019899597,0.016013522,-0.020541789,-0.018678637,-0.021730855,0.108177386,-0.015473679,-0.0762047,0.010978224,0.19389349,-0.15061276,-0.035695814,-0.1426317,-0.0887839,0.07701319,0.016117584,-0.023658667,-0.0067933854,-0.07322868,0.1757202,-0.10690958,0.11173466,-0.009593477,-0.07646366,-0.06775942,0.05872995,-0.13471787,-0.068697564,0.024315907,-0.024262292,-0.03181627,0.01179416,0.04333643,0.05514038,0.12927161,0.04778421,-0.03902847,-0.056491163,0.11070386,-0.045468442,-0.065193646,-0.08072324,0.07321962,-0.08365395,0.08285286,0.0843957,0.01782726,-0.109125406,-0.06815633,0.009155454,0.031582113,0.00020964305,-0.005200915,0.0052691996,0.00077606353,-0.04285954,-0.013572912,-0.027811635,-0.041046087
dr5prg,-0.0023242945,-0.0763316,0.018505292,0.014301654,0.057223033,-0.018100701,-0.013572474,0.06420621,-0.003342097,0.026143935,-0.05110045,-0.040956132,0.025904417,-0.047501046,-0.07493705,0.09575938,0.09671446,-0.058814965,0.032133233,-0.0027750256,-0.0021907652,-0.047630914,-0.11246131,0.03450222,0.112636745,-0.012906943,-0.064450815,0.022811012,-0.011028094,0.015447244,-0.01598145,-0.00272439,-0.040683977,-0.030396456,0.102099806,0.023059433,-0.0074341204,0.040865764,-0.02415566,0.14716803,-0.026606338,0.047364883,-0.19865288,-0.090085804,-0.006002993,0.14410274,0.07022269,0.029738003,-0.008721846,-0.016094709,0.08705184,-0.123312175,0.046480693,-0.052263897,-0.02498426,0.0016954357,0.04207852,0.0047252984,-0.039217383,0.009858458,-0.02562369,0.018320711,-0.009327061,-0.008682245,-0.023373026,0.04465372,-0.06372417,0.006705804,-0.030504009,0.027930275,0.05937301,-0.029671006,-0.01403729,-0.024178572,0.06533008,0.08719127,0.00872391,-0.009256243,0.0082328385,0.015782114,0.01843272,-0.024358138,0.04905655,0.0031303603,-0.11191544,0.036595304,0.026299117,0.06434344,-0.08744372,-0.0035951466,-0.10020982,-0.09633315,-0.042982034,-0.008536821,0.013602112,-0.087126486,0.03352341,-0.0128748575,-0.10604159,0.03973839,0.00884649,0.0823013,0.07872079,0.022668138,0.008728796,0.06746714,0.0025887191,-0.0064185895,-0.041611385,-0.0012985056,0.010386094,0.033621922,-0.049495082,0.026010264,-0.014198453,-0.167947,0.094378665,0.026461946,0.026436495,-0.08786496,-0.012324219,0.07122805,0.037707098,-0.011004354,-0.02177591,-0.04873043,0.080562785,0.16772904,-0.0025444997,0.0029345455,-0.07459671,-0.086580105,-0.0982364,0.08332752,-0.03055199,0.057089094,0.01578387,0.0055086473,-0.009373538,0.09196678,-0.002695035,-0.06187556,0.01961039,0.036651663,-0.00029776813,0.042368285,0.055659927,0.05898177,-0.09512235,-0.050380364,0.10706107,-0.08022484,-0.016497454,0.064902425,-0.07828554,-0.1474517,-0.030037832,0.062121827,-0.14241529,0.09047617,-0.031346753,-0.020722553,-0.04869432,0.0036527808,-0.019846993,0.03552257,-0.010318346,0.05030106,-0.052907906,0.06026182,-0.027448043,-0.02801106,-0.050812144,-0.06360931,0.022865906,0.019818438,0.09061026,0.05840973,-0.04549051,-0.08913086,0.037332065,-0.047629938,-0.054252397,0.016945474,0.14170867,-0.03451665,-0.002457233,-0.06681798,0.116929404,0.026810132,0.14022322,0.026065817,0.097207025,-0.0034016096,0.041642386,-0.104935884,0.01892813,-0.013129154,-0.049220517,-0.049278297,0.12585604,0.015483168,0.048163243,0.09359169,0.08344337,-0.0106862495,-0.14749299,0.012609942,0.003301798,0.09904005,-0.05548849,-0.08892792,-0.06651124,0.0034214023,0.005215405,0.002610376,-0.07985327,0.026951768,-0.008710592,-0.00014487971,-0.029400427,0.06548511,-0.05755832,0.17329392,0.019552372,0.000439118,-0.14796051,0.04724463,0.069063745,-0.09497437,0.0069972845,-0.055193007,-0.0048198234,-0.10047043,-0.0032113786,-0.019192372,0.027384879,0.02999607,-0.05187354,0.021462688,-0.058594752,-0.072494954,-0.100726224,0.009728258,0.07834967,0.014822355,-0.08330608,0.022372609,0.053680852,-0.016885566,0.13901107,0.021136224,-0.073073104,-0.08253259,0.048564713,0.08624061
dr5prm,-0.07141831,-0.098599434,-0.049308516,-0.15014464,0.051352993,-0.0316303,0.03360869,0.0675696,-0.046914663,-0.0830771,0.012688155,-0.008565466,-0.060693193,0.001388929,0.081354365,-0.041069724,0.031299755,0.042360432,0.010750192,-0.009793078,-0.07038619,-0.05879505,0.03732096,0.07386071,-0.016758615,-0.054390207,0.0338961,-0.037222095,0.049711686,0.015692055,0.10516313,0.049627095,0.060382087,0.01137175,0.030732887,-0.022387175,-0.0062959935,0.034798697,-0.07359822,-0.036925543,0.057463977,-0.040082503,-0.031253386,-0.01578154,0.04613522,0.022718964,0.034517054,0.06511805,0.073935814,-0.005804089,0.07878363,0.025069851,-0.0265315,0.045617077,0.0088549135,0.09562229,-0.069296464,-0.12672348,-0.09682117,-0.06860145,0.0011258904,0.0681328,0.050249334,0.0058552413,0.010001362,-0.05207419,-0.01746279,0.05154427,-0.0037663162,-0.008931244,0.0044502085,-0.050589412,-0.07082807,-0.105851665,0.043868918,-0.004011141,-0.06604744,-0.0014056531,-0.06118855,-0.011304305,0.01701169,0.057307214,0.07209984,-0.043440428,-0.08853731,0.15963697,0.013316853,0.07829701,-0.00065981725,0.030681131,0.05893293,-0.027184434,0.18724398,-0.06406206,0.11672043,-0.08008092,0.0538414,0.010227477,0.07484368,0.073003106,0.118638426,0.033383556,-0.038110834,-0.050927278,-0.023642233,0.048847165,-0.05063247,-0.106525384,0.04712861,-0.10728748,0.121486515,-0.017665146,0.06367262,0.085831724,-0.019516109,-0.04572321,-0.07047152,-0.032159742,-0.07599397,-0.008799476,0.0732168,-0.014549682,0.08092759,0.037492566,0.054074083,-0.12577702,-0.073109046,-0.10143234,0.0038815886,0.01573416,0.016746856,-0.16429842,-0.108343765,0.00067557563,0.061412536,-0.051662013,-0.033391897,0.075545706,-0.019254908,0.037731197,0.005213754,0.04007723,0.08910973,0.05001427,0.036456157,0.013913177,-0.041904114,0.0036039369,-0.049582805,-0.06646882,0.0067513296,0.005651442,0.10259127,0.09564189,0.06723311,0.027452445,0.05176032,0.051484235,-0.039931223,0.0094532,-0.014624876,0.042204082,-0.029222189,-0.08507002,0.0010202917,0.10306544,-0.01870596,-0.06371995,-0.022274187,-0.114877716,0.0030247685,-0.011723772,0.019896602,-0.09324683,-0.04001781,-0.009142914,-0.032454137,-0.014626398,-0.024139326,-0.073365234,0.09549009,0.0033489508,0.011737838,0.03537389,0.015299384,0.031051753,-0.0047440175,0.05660417,0.06621032,-0.07267576,0.051001385,-0.091948144,0.060397964,-0.023613723,0.012520922,-0.08385645,0.046630025,0.067479245,0.13758035,-0.035490412,-0.026325213,0.06940578,-0.028262215,0.10778195,-0.045538645,0.019201336,-0.0026794062,0.01781474,0.04550635,-0.055093218,0.024332635,-0.09228711,-0.017804924,-0.048233964,-0.015421174,0.0027878808,-0.03914701,0.09521591,0.059883248,-0.020353518,-0.08060931,-0.006865998,0.018314276,-0.07625314,0.078594476,0.009910751,-0.019255545,0.20987107,-0.0184016,-0.020707153,0.046151683,-0.037610658,0.017667456,-0.014015401,0.16343169,-0.13847463,-0.011448249,-0.03203711,-0.015493487,-0.00024996785,-0.026382716,-0.070411295,-0.0793061,-0.06112283,-0.047722362,0.08740656,-0.14935426,-0.029451976,-0.0048307553,-0.004293569,-0.1576197,0.0063714357,-0.044550538,0.08048925,0.0074164723,0.060906686
dr5pru,-0.0023242945,-0.0763316,0.018505292,0.014301654,0.057223033,-0.018100701,-0.013572474,0.06420621,-0.003342097,0.026143935,-0.05110045,-0.040956132,0.025904417,-0.047501046,-0.07493705,0.09575938,0.09671446,-0.058814965,0.032133233,-0.0027750256,-0.0021907652,-0.047630914,-0.11246131,0.03450222,0.112636745,-0.012906943,-0.064450815,0.022811012,-0.011028094,0.015447244,-0.01598145,-0.00272439,-0.040683977,-0.030396456,0.102099806,0.023059433,-0.0074341204,0.040865764,-0.02415566,0.14716803,-0.026606338,0.047364883,-0.19865288,-0.090085804,-0.006002993,0.14410274,0.07022269,0.029738003,-0.008721846,-0.016094709,0.08705184,-0.123312175,0.046480693,-0.052263897,-0.02498426,0.0016954357,0.04207852,0.0047252984,-0.039217383,0.009858458,-0.02562369,0.018320711,-0.009327061,-0.008682245,-0.023373026,0.04465372,-0.06372417,0.006705804,-0.030504009,0.027930275,0.05937301,-0.029671006,-0.01403729,-0.024178572,0.06533008,0.08719127,0.00872391,-0.009256243,0.0082328385,0.015782114,0.01843272,-0.024358138,0.04905655,0.0031303603,-0.11191544,0.036595304,0.026299117,0.06434344,-0.08744372,-0.0035951466,-0.10020982,-0.09633315,-0.042982034,-0.008536821,0.013602112,-0.087126486,0.03352341,-0.0128748575,-0.10604159,0.03973839,0.00884649,0.0823013,0.07872079,0.022668138,0.008728796,0.06746714,0.0025887191,-0.0064185895,-0.041611385,-0.0012985056,0.010386094,0.033621922,-0.049495082,0.026010264,-0.014198453,-0.167947,0.094378665,0.026461946,0.026436495,-0.08786496,-0.012324219,0.07122805,0.037707098,-0.011004354,-0.02177591,-0.04873043,0.080562785,0.16772904,-0.0025444997,0.0029345455,-0.07459671,-0.086580105,-0.0982364,0.08332752,-0.03055199,0.057089094,0.01578387,0.0055086473,-0.009373538,0.09196678,-0.002695035,-0.06187556,0.01961039,0.036651663,-0.00029776813,0.042368285,0.055659927,0.05898177,-0.09512235,-0.050380364,0.10706107,-0.08022484,-0.016497454,0.064902425,-0.07828554,-0.1474517,-0.030037832,0.062121827,-0.14241529,0.09047617,-0.031346753,-0.020722553,-0.04869432,0.0036527808,-0.019846993,0.03552257,-0.010318346,0.05030106,-0.052907906,0.06026182,-0.027448043,-0.02801106,-0.050812144,-0.06360931,0.022865906,0.019818438,0.09061026,0.05840973,-0.04549051,-0.08913086,0.037332065,-0.047629938,-0.054252397,0.016945474,0.14170867,-0.03451665,-0.002457233,-0.06681798,0.116929404,0.026810132,0.14022322,0.026065817,0.097207025,-0.0034016096,0.041642386,-0.104935884,0.01892813,-0.013129154,-0.049220517,-0.049278297,0.12585604,0.015483168,0.048163243,0.09359169,0.08344337,-0.0106862495,-0.14749299,0.012609942,0.003301798,0.09904005,-0.05548849,-0.08892792,-0.06651124,0.0034214023,0.005215405,0.002610376,-0.07985327,0.026951768,-0.008710592,-0.00014487971,-0.029400427,0.06548511,-0.05755832,0.17329392,0.019552372,0.000439118,-0.14796051,0.04724463,0.069063745,-0.09497437,0.0069972845,-0.055193007,-0.0048198234,-0.10047043,-0.0032113786,-0.019192372,0.027384879,0.02999607,-0.05187354,0.021462688,-0.058594752,-0.072494954,-0.100726224,0.009728258,0.07834967,0.014822355,-0.08330608,0.022372609,0.053680852,-0.016885566,0.13901107,0.021136224,-0.073073104,-0.08253259,0.048564713,0.08624061
dr5pry,-0.020893907,-0.04675128,-0.004352106,0.04815494,0.07978669,0.007726644,0.016465455,0.019289726,-0.03946769,0.06027669,-0.053561177,-0.039783273,0.034650058,-0.08159863,-0.08109459,0.06790426,0.019231882,-0.010302859,-0.026756676,0.009523952,0.022045085,-0.08194462,-0.11008141,0.02280994,0.1480825,0.04255536,-0.17904699,0.01710291,0.019302038,0.011460635,-0.06848328,-0.02044233,-0.040836852,-0.022460582,0.15783447,0.0667832,-0.002173158,0.027143594,-0.013993172,0.15509555,-0.0685682,0.0479824,-0.14832778,-0.0618629,0.0016867559,0.1358051,0.066837035,-0.016439538,-0.011534658,0.018324811,0.047296662,-0.15412624,0.045303546,0.0009912706,-0.012075149,-0.016363714,-0.0051950165,0.004771416,-0.072647125,-0.008641854,-0.05271544,-0.040363867,0.01604046,0.025653994,0.00028333915,0.0060056294,-0.046322215,-0.0035466822,-0.033023246,0.05678324,-0.004819547,-0.04641754,-0.0057036583,-0.029569061,0.055010162,0.035164516,0.031102853,0.038109254,-0.026760705,0.07551805,0.045868333,-0.051891863,0.025495108,0.029175598,-0.05166177,-0.024699276,-0.029394194,0.12843966,-0.051414713,-0.013455293,-0.10547968,-0.032654043,-0.12912853,0.005960635,0.02894141,-0.0083984,0.05476046,-0.00095888856,-0.1569814,0.06489212,-0.003569909,0.046704,0.07982599,0.0478039,-0.005824765,0.08804352,0.0045082066,0.012651289,-0.048749745,0.04337571,-0.019925361,0.030348198,-0.033827573,-0.017670184,-0.062834375,-0.17948553,0.09329951,0.07518517,0.036563955,-0.073587924,-0.060950883,0.06620186,-0.009205005,-0.029853724,-0.058966547,-0.05021729,0.059878062,0.17175867,0.0030244775,0.031514663,-0.033337828,-0.086101666,-0.07591245,0.047901507,-0.07659098,0.028120562,0.0026000426,-0.042594973,-0.028106466,0.056855954,0.03600732,-0.018959539,0.021914726,0.0121711455,-0.021660682,0.031313594,0.09183473,0.07302444,-0.074992836,0.0018813659,0.13992499,-0.056282587,-0.030548815,0.052410007,-0.043692745,-0.05861575,-0.018798077,0.077976614,-0.13694707,0.046787616,-0.01722727,-0.042688582,-0.033480916,0.006195394,6.418238e-05,0.0015075763,-0.038439628,0.094229884,-0.0746582,0.03033873,-0.0055489787,-0.035928726,-0.1070382,-0.024246851,0.0761162,0.047394365,0.06856529,0.09219348,-0.054801665,-0.03951285,0.03847499,0.008118514,-0.058209505,-0.025648775,0.1621704,-0.036591057,-0.028994925,-0.087387934,0.056107566,0.053602774,0.1272953,0.06432522,0.0718482,-0.031115506,0.035419196,-0.10128142,-0.0086389035,-0.026961932,-0.07325823,-0.02442838,0.15621383,-0.024011409,0.047899794,0.07008478,0.091419235,-0.013853006,-0.09673971,0.033433706,0.031754926,0.098237485,-0.04163728,-0.036189456,-0.05930577,0.015914187,0.030916177,0.0053576585,-0.010677938,0.022070894,-0.011030258,-0.031943813,-0.013423202,0.045761872,-0.07169579,0.13063774,-0.058083326,0.042465907,-0.11940461,0.013063631,0.079818785,-0.062652394,0.0073220413,-0.07743876,0.00198582,-0.099828534,-0.013758883,0.021062456,0.07264751,0.027852384,-0.081018396,0.021462899,-0.056699682,-0.043624416,-0.071479924,0.05641465,0.079000056,0.020019276,-0.026302198,0.028325578,0.021270638,-0.038404275,0.10206836,-0.0098541435,-0.11794048,-0.08730498,0.036466118,0.048284344
dr5ptu,0.08628721,0.052488353,-0.08853153,-0.08718765,0.04092314,-0.06467917,0.0040773656,0.010371068,0.00086970447,-0.04577371,0.038734756,0.0055683823,-0.02146697,-0.046392582,0.0065175695,0.02224728,0.012150068,0.054110046,-0.038485657,-0.074929126,0.005337306,-0.10337322,-0.118571855,0.019255161,0.0321273,-0.13907403,0.08645396,-0.054505605,0.04033386,-0.08898091,-0.04439151,0.093117684,0.019140564,0.038018104,0.023654731,-0.09157152,0.007907689,-0.077983305,-0.099720836,0.000564611,0.05247997,-0.040541876,-0.008982423,-0.045544107,0.15958242,-0.0015306099,0.023097262,0.021870341,-0.051964674,-0.065384634,-0.037119757,-0.07142422,0.011632907,0.01780537,-0.11030504,-9.789688e-05,-0.00836494,0.034415178,-0.047857884,-0.0131187225,0.052733015,-0.009308556,-0.036138088,-0.03380472,-0.034986496,0.05351023,0.014409456,-0.07415448,-0.019933533,-0.017233443,0.1236267,0.0082667805,-0.001968411,-0.08543684,0.024591394,0.014562997,-0.029418712,0.0026469487,-0.036914952,0.034349952,0.038371217,-0.07895241,0.1358661,-0.014446727,-0.010582648,0.08506316,0.011788814,-0.14654225,-0.011499564,-0.07841283,0.042192668,-0.17139344,0.08640255,0.03014305,0.018401135,0.03829125,-0.0012003595,0.017714975,0.06763751,0.09156525,-0.0045462144,-0.012447162,0.00827647,0.008921142,0.045576755,-0.00837436,0.021489222,-0.07375297,-0.050436202,-0.04731143,0.11441958,0.032846075,0.043827996,0.06695723,-0.011129107,-0.17456812,-0.025987312,-0.06384054,0.012969255,0.042369273,0.07638825,0.13379587,-0.00878163,-0.105728105,0.09196351,0.0062181945,0.0138599025,0.058234744,0.10234862,-0.046398837,-0.0136115905,0.14829469,-0.0058318204,0.053675365,0.0035278837,0.054165553,0.001641674,-0.0998824,0.042731494,0.066548824,0.011835824,0.022932323,0.04912783,0.018105429,0.09218421,0.007388381,-0.16589938,-0.037910398,0.018717634,0.015209433,-0.023350164,-0.03251739,0.096728936,0.045270782,0.054286525,-0.06425172,-0.060923014,0.02067761,0.00015073498,0.07197768,0.05699222,0.06173214,0.14969432,-0.045408584,-0.00536888,0.014962519,-0.018709185,-0.019327974,0.0292865,-0.022135744,-0.16132854,0.021193385,0.026153775,-0.08034762,-0.10891677,0.089780904,0.14288639,-0.059669595,-0.027325971,0.019524708,-0.0526493,0.05872792,0.0037040783,0.14980772,-0.0016019744,0.0056905816,-0.10095492,-0.058294535,-0.067668624,0.058872003,-0.06778566,-0.04285711,-0.01994726,-0.06966186,-0.016568037,-0.08018209,-0.005508944,-3.7403195e-05,0.112988636,-0.062357087,-0.058194015,0.005091394,0.023137057,-0.011668403,0.029792096,-0.049554322,0.13087362,-0.0050200988,-0.05636936,-0.013351461,-0.023799913,-0.013974263,-0.005211268,0.013295985,0.021126537,0.013484198,-0.009260384,-0.15888888,-0.028808232,0.06777989,-0.02781426,0.015606418,0.02628883,0.014082697,-0.07992166,0.06994307,0.024269992,-0.03333306,0.154483,-0.006502133,0.074952975,0.115142606,-0.098192535,-0.028001035,0.04398376,0.023252973,-0.0740263,-0.07673276,0.0019297102,0.021472597,-0.027778592,0.057701416,-0.02621534,0.017448198,0.0072391313,-0.014491099,-0.016032124,-0.028075412,0.024212517,0.023934435,0.058919378,-0.048919898,0.04152148,0.09317973,-0.011922039,0.12727052
dr5pvb,0.024096211,0.07143783,0.06414098,0.059911583,0.00068840646,0.049169973,-0.15583876,0.025992507,0.02444,0.042293753,-0.025887318,-0.010660364,0.021406528,-0.008040569,-0.070174746,0.073011726,-0.009143468,-0.054267656,0.001668208,-0.02476896,0.11553639,0.07252208,-0.015583863,0.0929411,0.13164274,-0.027171774,0.15675485,0.10155117,0.014757023,0.011930218,-0.05818406,-0.06477655,-0.11917259,-0.02143869,0.073804274,-0.03260385,-0.062719375,0.050712608,-0.05352994,0.0838879,0.004846126,-8.8314e-05,-0.033835165,-0.07380506,-0.09446332,0.040401433,0.01979921,-0.09093806,-0.016262755,0.06411472,-0.031330533,-0.072167635,-0.1231848,-0.071620524,-0.05088803,-0.028407238,0.03685635,-0.01998018,-0.018843345,0.037937302,0.021279646,0.017112846,-0.14520602,-0.049758304,-0.02837715,0.112976015,-0.02236707,-0.026413344,-0.04921816,0.13558711,0.025214387,0.05414438,0.088783,-0.02554472,0.15942807,-0.036811307,-0.0543143,0.05081736,-0.0044352612,-0.062489424,0.025723206,0.022262167,0.13457543,0.033080902,-0.096336946,0.00095313415,-0.013685846,-0.07083105,0.014111559,-0.014831445,-0.020380948,-0.13631478,0.004904858,-0.09950246,-0.034769226,-0.018091673,-0.08062666,0.09463206,0.039760955,0.082349055,-0.08635994,-0.042671863,0.0033352422,-0.024915941,-0.06633498,0.010382017,0.019148527,-0.027493061,-0.047850065,-0.018658483,-0.06312722,-0.086447135,-0.039498888,0.04765673,-0.023966074,-0.04435521,-0.002617468,0.011722876,0.053187173,0.026719984,-0.039631963,-0.16340263,0.03032147,-0.023913262,-0.040372223,0.06262861,0.08929434,0.02498183,0.023936918,0.006692071,-0.018578574,0.030594835,0.06926536,-0.004649313,-0.069642775,-0.00783164,0.13876978,-0.061691154,-0.05913479,-0.015070579,0.10115936,-0.022834174,-0.08783038,-0.02306032,-0.026697375,0.035644904,-0.05150162,-0.14539354,0.044992648,0.06753156,-0.044192575,0.117977396,0.014476789,0.012816843,-0.14475636,-0.027931325,-0.07552429,0.11909537,0.042409677,-0.0048174188,0.16122481,-0.022855038,0.025979225,0.03881433,-0.123429075,-0.039850593,-0.028198974,0.027899548,-0.017404811,0.04820065,0.06032839,-0.0063241534,0.05165495,0.036596805,-0.038117737,-0.02383882,0.069017656,0.086339176,0.01952509,-0.04671425,-0.06460049,0.092751,-0.1268048,-0.015417605,-0.01370207,-0.068825714,0.014471531,-0.057600416,0.0034462074,0.08162315,0.070371196,0.054674968,-0.0063102553,0.0074185696,0.032357026,0.06477796,-0.01401364,-0.0012682694,-0.029140806,0.0012224601,0.06710053,-0.055382747,0.17961913,0.018210808,-0.0333757,0.008047904,0.075897045,-0.081155054,0.022014879,-0.023529636,-0.08971739,0.030172989,0.0035560953,0.044914182,-0.054697316,-0.055466384,0.030569999,-0.0041295295,0.043396086,0.0052972133,0.06422121,0.00034334318,0.0112008015,-0.013538818,0.03785931,-0.05412188,-0.07682207,-0.087275006,-0.05866725,0.051784918,0.011852039,-0.006249655,-0.02084538,-0.0016304022,-0.038211703,0.06830585,0.0425351,0.02711893,-0.017125387,-0.001278111,-0.068645254,0.005560875,0.08398239,0.037819654,-0.076676756,-0.098979466,-0.03775456,0.074854195,0.00013812256,0.07390464,0.058980677,0.09735096,0.086459816,0.015228214,-0.073378175,-0.09126609
dr5pwb,-0.074794576,-0.026564727,-0.011371575,0.033238422,-0.05543425,-0.02035343,0.020638764,-0.00051404844,0.06338822,0.05114094,0.07427575,-0.027578259,-0.08256378,-0.034921605,0.08995039,0.17584825,0.047911823,0.0004843787,-0.023538338,-0.0075577907,-0.06355514,-0.056741122,-0.021881469,0.0041084522,0.0020592404,-0.046660487,-0.01976345,0.06391928,0.03245769,0.0020592783,-0.0072690803,-0.07224281,0.05306245,0.021003006,0.03354827,-0.07444665,0.020913491,-0.025297705,-0.07368911,-0.043947794,0.08267886,0.05796321,0.017033743,0.06107716,-0.04961693,0.0027160242,0.0030436656,0.12088258,0.047022972,-0.030625302,-0.07626151,0.052353416,-0.10177866,-0.08442318,-0.025256606,-0.011682358,-0.09936555,0.06330561,0.00984141,0.029464424,0.00025305693,-0.12073891,0.065304466,-0.092876956,-0.08763984,-0.013749277,0.08933574,0.046505902,-0.028014332,3.0972537e-06,0.02327893,0.030101871,-0.017593369,-0.026155304,0.041694563,0.057409216,-0.042748865,-0.04289872,0.015014998,0.022698788,-0.0074301697,-0.026236827,-0.016014643,-0.025324075,0.023350615,0.02750728,-0.1393105,0.051854394,0.12572108,0.13429609,0.025711292,-0.055059053,0.104379594,-0.010748658,-0.031875618,0.06384084,-0.004916631,0.026452752,0.086414896,0.059511207,-0.047272746,0.020766402,-0.072655424,0.059214868,0.059913546,-0.0017229195,-0.038571034,-0.08734613,0.026750553,-0.10374659,-0.03208828,-0.097927995,0.015642595,-0.046882868,0.13871607,-0.015043243,-0.015089458,0.009093528,0.103503585,-0.14596018,0.003704675,0.06469694,-0.063617386,0.049203146,0.010977388,-0.036248047,-0.10158119,0.011271797,-0.028148985,-0.0686711,-0.04305481,-0.1618958,-0.05315385,0.001463246,0.057657883,-0.1302233,0.104394406,0.019341448,0.06635392,-0.014857935,-0.0038458449,-0.11785407,-0.013957677,0.07195819,0.091551445,-0.04946582,-0.036584888,-0.032513004,0.06003948,0.020230979,0.01136601,0.005089921,0.046711594,0.04503542,0.12374601,-0.045313995,-0.032386083,0.0090034455,0.0668257,0.005042254,0.07257805,0.052974388,0.042237923,-0.04737976,0.085509874,0.10231351,0.057330616,0.1331327,-0.001985223,-0.028686997,0.050897,-0.01991953,-0.1369373,-0.03698315,-0.0060528303,-0.070244156,-0.046045642,-0.047943655,-0.0022395581,-0.07969126,0.100193754,-0.041647665,-0.077420555,0.08698372,0.05713356,0.10833779,-0.026898056,0.072232135,0.03530923,0.04029853,0.005235198,-0.08115173,-0.0015855925,0.0020959235,0.025422685,0.041546647,-0.030842448,-0.02179695,0.026954653,0.0863676,0.06314554,0.02781996,0.14321588,0.022548521,-0.007860391,-0.009243013,0.13292314,-0.039622333,0.06381301,0.024779981,-0.013647619,-0.079189226,8.707515e-05,0.07257009,0.028970515,-0.013063078,-0.09432651,-0.043836333,-0.0085194195,0.009378055,-0.041197103,-0.06315124,0.008271443,0.085126065,-0.20181699,0.035036936,-0.13509484,-0.030756485,0.03582141,-0.0035624562,0.039202865,0.14513125,0.034791604,-0.04282778,-0.06508038,-0.11009058,-0.07145766,-0.03651425,-0.04695808,0.01138502,0.016539644,-0.13042405,-0.0021070666,0.02158362,-0.034066238,-0.0817329,-0.055135217,0.057446703,0.054944415,-0.019153282,0.03291039,-0.013554999,-0.038500447,-0.06379267,-0.034104556,0.031482257
dr5pwr,0.119639196,-0.011119981,0.034004197,-0.07686582,0.07731466,0.026636671,-0.09416425,0.14415911,0.019244706,-0.051009297,0.010169911,0.055221014,-0.0077296346,-0.008055849,0.031162892,0.047788355,0.01884187,-0.13625388,-0.017831765,-0.05215505,0.014791869,0.008466527,-0.02795735,0.07525776,0.030022012,-0.01790192,0.12390318,0.055434372,0.012949649,-0.05792966,-0.03746031,0.04430099,-0.13095379,0.041057482,-0.035268195,-0.07666328,-0.024103848,0.06284774,-0.010887567,0.056023583,0.018354071,-0.0061364565,-0.12517814,0.010761622,-0.049933407,0.05018308,-0.02704333,0.100499906,0.019494623,0.038058363,0.009875636,0.047621068,-0.14980716,0.00025693545,-0.081907645,0.030117624,0.014069462,-0.030444788,-0.01679129,-0.08905774,-0.038694806,-0.033496805,-0.03910557,-0.0092152385,-0.03851477,-0.058747917,-0.02484665,0.05061951,0.023648087,-0.044143245,0.08773395,-0.056189753,-0.07300795,-0.04047044,0.07961366,-0.09238251,-0.056281887,0.016882405,-0.05050708,-0.024825877,-0.05887744,0.025403036,0.16767387,-0.08036098,-0.123747215,0.09657585,0.084734544,-0.09192117,-0.007143019,-0.011284913,0.11530087,-0.1395617,-0.035208423,0.024701415,-0.017946472,-0.17107859,0.01982964,0.0432457,0.089305475,0.08954348,0.05968651,-0.051979274,0.0039164233,-0.031645976,-0.022309596,-0.0050198124,0.015512577,-0.07182961,-0.08894875,-0.07945954,-0.021407994,0.016700547,-0.011553057,-0.007019258,-0.06819493,-0.06435733,-0.10208883,-0.05020366,0.037477452,0.094865926,0.04387434,-0.11632804,0.19797614,0.04154252,0.16017544,0.013861297,0.0077278297,-0.06929721,0.042693257,-0.05100585,-0.006490495,0.009108374,-0.044181798,0.028342374,0.017160343,0.05198753,0.069373414,0.03172356,0.003578998,0.088806316,0.09223199,0.010096889,-0.034275375,0.08086512,0.07093936,0.015501866,-0.013090646,-0.022217453,0.010595734,0.018519318,0.019979188,0.03099169,0.02052462,0.08718056,-0.05489507,0.012340585,0.018273985,0.041452,0.019478636,0.02524428,0.062309418,0.084490694,-0.093530096,-0.023041606,-0.14505778,0.0682877,-0.012803541,-0.042965133,0.091923594,-0.011015149,-0.034961037,0.01564058,0.064391084,-0.080405526,-0.064768374,-0.046703264,0.062180072,-0.034311835,-0.008544733,-0.02852672,0.09033127,0.0009016156,-0.046059977,0.016163507,-0.03443496,-0.04417142,-0.07506267,-0.0018629147,0.016138649,-0.019514663,0.07212129,0.03253519,-0.011640123,-0.034959286,0.08951132,0.04913008,0.011261762,0.004378137,0.09780889,-0.0056273662,0.07040753,0.0075452626,0.1519755,0.03233333,-0.05774924,-0.018419603,0.12906425,-0.12545086,0.020601545,-0.17167877,-0.013618868,-0.026339764,0.004672914,-0.025713298,-0.08859848,-0.047809802,0.03225193,0.06468121,0.046599817,0.038732547,0.013521804,0.019104747,0.07946002,-0.0732636,0.05535656,-0.094860464,-0.0102759525,0.04371219,-0.004027703,0.012427406,0.013563172,0.039498866,-0.026570033,-0.037991095,0.02892063,-0.009513544,-0.12393947,0.06981302,-0.06246936,-0.038326066,-0.041728526,-0.048298325,-0.009017577,-0.05668957,0.0048163054,0.012476811,-0.096293814,0.006597946,0.009428617,0.005999936,0.025003102,-0.031231878,0.03928771,0.10643177,-0.021024983,0.0956374
dr5pwu,0.17687163,-0.020970725,0.050539307,-0.00990717,0.03676192,0.047121093,-0.10233223,0.061546817,0.019864468,0.0027121617,0.015095307,0.03158849,0.014530206,-0.00077316473,-0.07029982,-0.024095785,-0.010848332,-0.19488174,0.019160146,-0.06912634,0.0778782,0.028511062,-0.03940168,0.12077711,0.10262217,0.018186865,0.10165936,0.07893585,-0.011385492,-0.056516856,0.016225897,0.061399024,-0.1309722,0.027894624,0.031899974,0.02252954,-0.073373295,0.10139707,-0.015060934,0.121643044,-0.035550375,-0.022282572,-0.13236356,-0.020347,-0.048827607,0.07302377,-0.013205797,0.107694626,0.012339864,0.07691347,-0.06200595,-0.014158456,-0.07797967,0.040689576,-0.0762186,0.034425236,0.05052212,-0.012774712,0.009699733,-0.031721942,-0.09679621,-0.13398394,-0.07230121,-0.04054533,-0.028398182,-0.029333372,-0.049011774,0.009627167,0.006161859,0.06989225,0.044498388,0.053417478,-0.04288681,-0.015844997,-0.021518992,-0.08859681,-0.047240127,0.070225105,-0.04884196,-0.077228755,0.003047973,0.05780296,0.14316085,-0.03080768,-0.15925647,0.10270727,0.062166452,-0.03722258,-0.014249569,-0.003953372,0.057559233,-0.12720354,-0.06641463,-0.02489304,-0.0044041183,-0.15494382,0.037148897,0.07148321,-0.025380315,0.14173643,0.06716609,-0.0506811,0.078608975,0.019058898,-0.06811773,-0.029700309,0.06971816,-0.048582636,-0.07552434,-0.032796606,-0.03320053,0.032344617,-0.009397274,-0.0144083975,-0.12249324,-0.13201709,-0.06435662,0.033695042,0.019832583,0.09808568,-0.040783968,-0.13065355,0.13857475,0.024853375,0.108544014,0.01207067,0.029955724,-0.098566726,0.056302965,-0.07408451,0.015044333,-0.025476754,-0.029692473,-0.007093042,-0.032554906,0.032481655,0.1297643,-0.0036714321,0.026152354,0.045802552,0.05147431,0.063398786,-0.03635541,0.010109145,-0.0148872305,0.054826044,-0.011579102,-0.033135425,0.028156165,0.028111352,-0.0018280281,0.06579396,-0.014344803,0.06588178,-0.055460114,0.0088603925,0.02957242,0.031055437,-0.06179775,-0.0010941286,0.014119158,-0.033538803,-0.019889595,-0.04463707,-0.15392914,0.061586197,-0.062424455,-0.03588054,0.027136633,-0.0511157,-0.026502183,0.024269579,0.045727603,-0.025395872,-0.06545441,-0.03285715,0.07666864,-0.005168619,-0.0365881,-0.052807283,0.07968195,0.0012260937,-0.0050226618,-0.046051145,-0.033296067,-0.08103902,0.007415987,0.049824253,0.011128393,-0.03147364,0.132621,0.12636419,-0.00085626193,-0.016434642,0.027174352,-0.012630279,-0.021957329,0.006668255,0.06644955,-0.0059371726,0.07647238,-0.022515602,0.19698498,0.059461854,-0.007369867,0.030230124,-0.010278526,-0.053374,0.05990282,-0.0926445,-0.026725313,0.006952087,0.011421356,-0.036934786,-0.101768,-0.02762553,0.038828578,0.028797671,0.04465894,0.027589573,0.11063442,0.01308709,0.07169628,-0.023261387,0.08543416,-0.06372142,-0.11266358,0.03906172,-0.024158208,0.020113118,0.004849093,-0.000263321,-0.011400017,-0.0027429422,0.03509736,0.036365513,-0.06403154,0.07208816,-0.049366605,-0.0705009,-0.037541497,-0.012202938,-0.0042078667,-0.03569209,-0.010513523,-0.0043077515,-0.08013329,-0.06585689,0.033383463,0.031324685,-0.022452718,-0.030943925,0.06982692,0.08525056,-0.03739145,0.010718092
dr5pwv,0.17271192,-0.008953959,0.04549142,-0.03132096,0.024468692,0.051640388,-0.08943804,0.073209696,0.026694842,-0.009772504,0.0079900455,0.040491078,0.005535444,-0.0035559514,-0.052405074,-0.050459415,-0.021294624,-0.17008321,0.027031275,-0.068778254,0.08088068,0.02001477,-0.033181876,0.1030529,0.078753814,0.022249902,0.11078424,0.06606395,-0.010951297,-0.04772862,0.0026992164,0.07052273,-0.15063435,0.056680784,0.022732956,0.0036413313,-0.06628546,0.10917641,0.0016122356,0.12994619,-0.049653187,-0.018125165,-0.1292884,-0.0080199195,-0.049972683,0.06854676,-0.02295441,0.07516521,0.011330295,0.08182507,-0.056807164,-0.012296935,-0.09278593,0.038687635,-0.07815027,0.038125318,0.04929172,-0.02422946,0.006780997,-0.041899282,-0.09008678,-0.12459891,-0.07482899,-0.031778067,-0.010945847,-0.013956247,-0.043415204,0.0034792982,0.022342991,0.06317678,0.032993373,0.027405286,-0.033677198,-0.007349304,-0.008869372,-0.08699947,-0.065417096,0.05697286,-0.05013612,-0.08025851,-0.00655577,0.05780936,0.15478277,-0.035962574,-0.143932,0.08052363,0.06104905,-0.048146978,-0.024178213,-0.017564181,0.060757596,-0.11323646,-0.07247056,-0.024090355,0.015161636,-0.14618303,0.03843688,0.06131763,-0.0028711779,0.13872819,0.062249765,-0.045602202,0.078447975,0.008624527,-0.057901908,-0.020008313,0.053444784,-0.039498225,-0.07344167,-0.045719896,-0.03277942,0.029538093,0.008007042,-0.015606754,-0.1272713,-0.104221836,-0.06982929,0.019648768,0.017632183,0.111134514,-0.020913584,-0.14486434,0.16779122,0.0392292,0.115159534,0.026381748,0.029705556,-0.1067647,0.0610087,-0.06404405,0.027749805,-0.005798911,-0.03047519,-0.017708683,-0.039727792,0.015087943,0.1290223,0.013159266,0.004886338,0.04889121,0.05514115,0.07305366,-0.034218192,0.010424523,-0.003749921,0.038734425,-0.002638375,-0.025951728,0.017091535,0.03771425,-0.004090394,0.06777782,-0.027074793,0.071280465,-0.06415655,0.02218637,0.031803045,0.038660157,-0.044320144,-0.00026500988,0.007912116,-0.04263038,-0.032614473,-0.057695,-0.15901044,0.054047115,-0.07360969,-0.05289298,0.037673716,-0.0779229,-0.033761412,0.022244504,0.057576165,-0.015725419,-0.07757848,-0.039890055,0.065087385,-0.0074285828,-0.046594962,-0.04346231,0.07206447,0.009242477,0.0036706445,-0.04275472,-0.04060778,-0.09430706,-0.004072048,0.04157845,0.008617849,-0.046213724,0.09744296,0.12171009,-0.00660407,-0.024054218,0.038453694,0.0046665003,0.0019140415,0.003823449,0.07774062,-0.0032051124,0.066695705,-0.018906323,0.1911758,0.045304827,-0.024431115,0.02340071,0.026877526,-0.07245119,0.049806334,-0.1219765,-0.028907243,0.019794064,0.023499068,-0.03677849,-0.1083668,-0.0072590816,0.064413264,0.051308844,0.062499486,0.028729865,0.10606568,0.012029101,0.067906335,-0.04215642,0.09503139,-0.059339356,-0.077476114,0.034949396,-0.01920406,0.021268923,0.012833631,-0.007871038,-0.019776503,-0.005163421,0.050124336,0.043232046,-0.08937934,0.079875916,-0.05827484,-0.062909946,-0.010053912,-0.022012636,-0.014403994,-0.05370529,-0.011128185,0.015591819,-0.06819982,-0.06699938,0.03027382,0.04065952,-0.040346984,-0.024532106,0.061356317,0.115009695,-0.037013013,0.009457003
dr5pww,0.13084379,-0.023292882,0.030566085,-0.081114724,0.05712853,0.031995356,-0.07686877,0.14810789,0.02971381,-0.056328487,-0.009603437,0.07049034,-0.011454357,-0.009718098,0.021561878,-0.0034411503,0.004094816,-0.13676749,0.0048579285,-0.05680755,0.02707256,-0.0059064105,-0.0105412835,0.06730623,0.024118908,-0.023044635,0.12295638,0.04073963,0.0052566743,-0.033158857,-0.029535983,0.07644602,-0.13181514,0.07584095,-0.04077398,-0.07178738,-0.03729018,0.069935046,0.0009191514,0.07991784,-0.010715896,-0.0022688345,-0.12465476,0.013943391,-0.040855538,0.05067152,-0.032227285,0.10012172,0.014714805,0.049927153,-0.01659096,0.045272674,-0.13920654,0.010952022,-0.070842244,0.04828235,0.017289467,-0.040119823,0.0002273152,-0.08719447,-0.055853013,-0.054231375,-0.038462102,-0.011184344,-0.022098174,-0.049348034,-0.021193493,0.034619972,0.042827558,-0.02505381,0.0801565,-0.036378697,-0.0782569,-0.030689476,0.042406544,-0.09007264,-0.0741664,0.011517597,-0.045773152,-0.05043276,-0.04686394,0.04236759,0.15641794,-0.08112661,-0.10869817,0.08230048,0.07805174,-0.08011422,-0.00950618,-0.0132040195,0.11447297,-0.1293412,-0.040454756,0.0049981223,0.0050404165,-0.17516446,0.029213699,0.034839693,0.079853445,0.078076035,0.058903087,-0.038567122,0.03645215,-0.024375604,-0.031534087,-0.004919859,0.019923475,-0.053175297,-0.06130457,-0.07618776,0.0015755388,0.032864824,0.021855928,-0.014022162,-0.08164831,-0.05528979,-0.08551431,-0.042903356,0.029592568,0.090528615,0.059226263,-0.12290197,0.21173944,0.05091411,0.17174363,0.022318305,-0.0029066182,-0.102091655,0.036958065,-0.057254605,0.017461924,0.0054059867,-0.03915379,-0.0021049774,-0.0042780256,0.039980087,0.083809435,0.04327036,0.01186473,0.067223944,0.079633944,0.038414788,-0.026578972,0.05579453,0.054709937,0.027333926,0.007829882,-0.0030846326,-0.00025989342,0.030554604,0.018747827,0.015708312,0.012916668,0.09070631,-0.048225533,0.0028587847,0.024946997,0.04751089,0.006256566,0.016794011,0.030945128,0.05142203,-0.0648875,-0.04322404,-0.15880989,0.06568547,-0.03820113,-0.06784146,0.07722881,-0.05328994,-0.053633206,0.024290387,0.082349025,-0.05695886,-0.07368508,-0.050223265,0.05453734,-0.03927769,-0.03097971,-0.0344472,0.08673391,0.0008158034,-0.0024082146,-0.00021029983,-0.047900118,-0.046513505,-0.083412826,0.019897552,0.0053665224,-0.05232105,0.05453067,0.04861566,-0.013119382,-0.035524704,0.0814137,0.027849492,0.025439294,-0.0023224922,0.10696934,-0.004527271,0.05780559,0.0028709075,0.16613777,0.031793468,-0.06338637,-0.006465283,0.12660228,-0.113069974,0.025870621,-0.19400094,-0.013787943,-0.026233632,0.019590335,-0.030275138,-0.099021204,0.00029435253,0.05522223,0.09519932,0.056208547,0.036574773,0.037788186,0.0030141105,0.0818779,-0.07515084,0.05623796,-0.082022734,0.0027981333,0.050633866,0.00034885266,0.0046105105,0.0224702,0.013999559,-0.025282286,-0.020218823,0.043537464,-0.0029177014,-0.13311103,0.06853408,-0.061413094,-0.05861773,-0.0109802615,-0.04205007,-0.015699808,-0.065355234,-0.009303124,0.025540559,-0.09036233,-0.028702218,0.017174067,0.011287362,-0.015295813,-0.032074604,0.042895727,0.11502352,-0.03642566,0.07885353
dr5pwx,0.12814184,-0.018956311,0.0301924,-0.080094956,0.063967384,0.02822643,-0.08024355,0.15245828,0.028645935,-0.055450935,-0.0051787556,0.06106663,-0.011158008,-0.0054060672,0.02454478,0.021781098,0.010965911,-0.13216671,-0.0014552112,-0.04991185,0.020444423,0.00035980094,-0.019960325,0.06882525,0.028770398,-0.027765868,0.13449751,0.035278656,0.013683417,-0.03556072,-0.03439776,0.071123004,-0.14211103,0.06670811,-0.045992415,-0.08072485,-0.03420827,0.069618456,-0.0028719995,0.08290139,-0.0032328141,-0.007212079,-0.13074382,0.005257183,-0.040124934,0.05094775,-0.030157205,0.08732434,0.013056594,0.042632964,-0.0058244825,0.038225494,-0.14636427,0.0022282607,-0.076905735,0.04203616,0.016026167,-0.029518545,-0.0043908763,-0.08760018,-0.051140424,-0.043535728,-0.049550187,-0.012095306,-0.0246016,-0.045803495,-0.02105892,0.037680034,0.042234596,-0.026290767,0.07525964,-0.04210527,-0.07427749,-0.037267894,0.058905523,-0.08406724,-0.07259052,0.013609357,-0.044352684,-0.042849638,-0.047458664,0.032580778,0.16576236,-0.079308845,-0.113875836,0.07840804,0.08723832,-0.0796062,-0.014893877,-0.010664316,0.11204637,-0.13979186,-0.037022296,0.009461021,-0.00016925539,-0.16603948,0.027499156,0.042742673,0.08450798,0.082661346,0.061200913,-0.03608902,0.027859204,-0.027582975,-0.027353643,0.002927382,0.0116904965,-0.056458496,-0.0683621,-0.08274038,-0.0042232536,0.026649272,0.011798165,-0.0022541035,-0.07964338,-0.060583867,-0.08491827,-0.058868278,0.018937288,0.088214345,0.061520766,-0.122028805,0.2092604,0.049834445,0.16340037,0.019600406,0.006407644,-0.08842996,0.040709395,-0.05511414,0.0033989074,0.017946135,-0.04346371,-0.0014291869,0.0010178852,0.0465937,0.080511525,0.04647213,0.013248175,0.07403739,0.08428414,0.031249586,-0.030575335,0.068898,0.06568389,0.0136487195,0.0018562642,-0.0051223347,-0.001273322,0.018653769,0.024294803,0.019456599,0.014832076,0.09745809,-0.049312074,0.0013913875,0.020442363,0.056204546,0.008152065,0.015539057,0.040375277,0.060109988,-0.07637414,-0.038904965,-0.15373491,0.065487176,-0.029787928,-0.06619635,0.08036379,-0.040265564,-0.05232431,0.023619898,0.08196335,-0.06387734,-0.07550006,-0.045652676,0.061117757,-0.038453847,-0.019548144,-0.04182991,0.08241215,0.0009158647,-0.018211382,0.011372955,-0.040433764,-0.04770517,-0.080259874,0.0029974626,0.015424694,-0.047178503,0.053732004,0.041443184,-0.012956156,-0.036637317,0.09083686,0.030168746,0.027816799,-0.0052174316,0.103723146,-0.004188553,0.058867406,0.0021523554,0.15967673,0.034049027,-0.06167964,-0.016750636,0.13159733,-0.11544902,0.021973193,-0.17864905,-0.01908511,-0.03529183,0.008031221,-0.022726785,-0.09597663,-0.013137844,0.05187118,0.08802478,0.053159587,0.03324527,0.027130697,0.008638023,0.08142672,-0.072687946,0.06664321,-0.08216275,0.00025130133,0.051634733,-0.008335179,0.0051912204,0.020844016,0.017661916,-0.029769117,-0.028557118,0.047659095,-0.009137349,-0.13076508,0.065413974,-0.06525316,-0.04746893,-0.014335874,-0.04444481,-0.013071513,-0.06967592,-0.00184515,0.025133092,-0.09611991,-0.014362586,0.0177694,0.008003955,0.00088795595,-0.027959798,0.044692714,0.11215764,-0.03057818,0.08270369
dr5pwy,0.14202769,-0.016457526,0.030844003,-0.077030435,0.041403525,0.04061086,-0.06949913,0.13795131,0.03516019,-0.05169205,-0.009582002,0.05932886,-0.011871836,-0.010148132,0.008826853,-0.032025173,-0.007699113,-0.13050415,0.016805353,-0.057436172,0.04045232,-0.0056005334,-0.015641702,0.07053556,0.031209508,-0.017139593,0.12366698,0.028078284,-0.00086980604,-0.026016325,-0.02370099,0.089436494,-0.14701712,0.083648585,-0.028168013,-0.054007664,-0.044583302,0.08388138,0.0104119275,0.10387291,-0.03139698,-0.008019795,-0.12896118,0.011190789,-0.037505604,0.056112405,-0.028236065,0.07793127,0.015335394,0.057303116,-0.03486515,0.02787252,-0.12980165,0.020672405,-0.07126212,0.053169098,0.028011966,-0.039348792,0.0031508983,-0.0775622,-0.0705749,-0.07705964,-0.052386098,-0.015262187,-0.009231963,-0.030244542,-0.025505729,0.013103009,0.04633222,-0.00024753745,0.057300676,-0.027332032,-0.061354183,-0.021806827,0.025036765,-0.08342498,-0.082671426,0.021442633,-0.044738784,-0.060770106,-0.03273582,0.044670925,0.1639952,-0.06988286,-0.11254091,0.06965559,0.0757893,-0.06709376,-0.015432694,-0.014076128,0.092675164,-0.11968052,-0.050439604,-0.005812636,0.025051452,-0.15812443,0.037662655,0.0389699,0.06377921,0.08790199,0.05832281,-0.03198869,0.054169483,-0.013844655,-0.037360977,0.0011175916,0.019931423,-0.05006782,-0.051305294,-0.07495976,0.004409268,0.031104518,0.034054495,-0.01044427,-0.10192105,-0.070081525,-0.07795261,-0.034471314,0.021638248,0.09511304,0.046653062,-0.13033183,0.21731533,0.051806256,0.15439932,0.024702841,0.0049623516,-0.109547615,0.044055987,-0.055269558,0.022817235,0.012307956,-0.038837187,-0.024537597,-0.020560058,0.027455248,0.096679494,0.046914306,0.009406844,0.057164393,0.068900086,0.06303589,-0.023761332,0.03780986,0.04041544,0.020218108,0.010495274,-0.00107577,-0.0076575964,0.039121132,0.017779516,0.031016657,-0.0064663,0.09562864,-0.05244041,0.0053857183,0.029749712,0.057756618,-0.008304314,0.0127110835,0.009793991,0.011439401,-0.05573663,-0.059927043,-0.1640606,0.058752567,-0.055641133,-0.07528514,0.06267326,-0.08390226,-0.056089893,0.025799513,0.0810321,-0.042869963,-0.07830491,-0.05098268,0.051218595,-0.033373106,-0.043379344,-0.037330277,0.07653484,-2.4200997e-05,0.011248165,-0.01527304,-0.04949358,-0.063520566,-0.06828588,0.02751531,0.011906254,-0.06662724,0.046610173,0.069920175,-0.013687207,-0.035794534,0.07371274,0.018796299,0.03535523,-0.0049902364,0.1101899,-0.004735678,0.052836914,-0.0035653869,0.17272778,0.034711666,-0.05496834,-0.0018071493,0.11280254,-0.10387833,0.033264432,-0.18371594,-0.022367427,-0.011543504,0.022004945,-0.028089019,-0.108120285,0.01820863,0.06828845,0.09631719,0.07084718,0.030552616,0.059230782,0.002274315,0.073424034,-0.06909715,0.07103433,-0.068442546,-0.004042375,0.04896927,-0.0042105205,0.0065859356,0.028330559,-0.00042879584,-0.02648135,-0.013086566,0.060752347,0.00991789,-0.12971556,0.071995854,-0.06636256,-0.054643705,0.008301326,-0.039055437,-0.023237072,-0.07102773,-0.011735313,0.038434792,-0.08153826,-0.047490433,0.021614095,0.025381137,-0.033944577,-0.027261505,0.04530631,0.13270238,-0.039561693,0.055817865
dr5pwz,0.10755185,-0.058973987,0.014903174,-0.0889686,0.04850762,0.02230823,-0.03923231,0.12240424,0.026912643,-0.06784143,-0.015811998,0.018864917,-0.036722124,0.015695047,0.018817697,0.020929456,0.036697347,-0.10655932,0.025093101,-0.035383746,-0.017603837,-0.02044743,-0.038220044,0.079981074,-0.0038173033,-0.09723131,0.15929738,-0.009013025,0.019013423,-0.02024824,0.007124617,0.08672592,-0.12766507,0.049695425,-0.04462958,-0.096346065,-0.034115378,0.071598455,-0.00023453821,0.09689433,-0.011256231,-0.025952162,-0.10525688,-0.026104178,-0.018508222,0.080477156,-0.017847747,0.083566815,0.00019828412,0.0057887905,-0.019532546,0.02836299,-0.10730401,0.014795711,-0.06447521,0.058355942,-0.0054454016,-0.027549403,0.013694131,-0.07120118,-0.06316501,-0.04477788,-0.044957202,0.009383532,-0.039184205,-0.048417557,-0.0402535,0.042257003,0.0778365,-0.0108272005,0.05724994,-0.03354497,-0.09883396,-0.052354727,0.016286625,-0.041554555,-0.061724994,0.024454495,-0.030155592,-0.04419611,-0.042219896,0.018767294,0.14681022,-0.0671971,-0.10943049,0.11421439,0.09789078,-0.049526475,-0.031611633,-0.0035576504,0.12360371,-0.16010496,-0.0004587359,0.014554746,0.031102035,-0.12766112,0.032427274,0.03552974,0.055040434,0.040808108,0.09383651,-0.012471704,0.05242094,-0.011611007,-0.03629587,0.016304484,-0.0022539885,-0.07263665,-0.026691971,-0.09163611,0.02520145,0.020153334,0.03192303,0.01925737,-0.07190259,-0.07937866,-0.05703495,-0.082647905,-0.042948715,0.052266736,0.118976675,-0.0976901,0.17820594,0.044761635,0.17982882,-0.01332329,-0.013258014,-0.087205164,0.035087448,-0.054390747,0.0002652297,0.01454518,-0.06502058,-0.033496864,-0.012654975,0.048017833,0.10042042,0.08312662,0.043874517,0.04071157,0.07499524,0.060443312,0.009319948,0.050970588,0.043096274,0.028478615,-0.0097251255,0.02019648,-0.027288077,0.001031577,0.044782043,0.009049907,0.01867605,0.0977318,-0.003952167,-0.019472774,0.06441068,0.084144235,-0.044868026,0.012355624,-0.016238173,0.04333137,-0.07390076,-0.052165102,-0.14149266,0.076115824,-0.04237729,-0.09812384,0.05515599,-0.054580647,-0.047736604,0.033517506,0.086866684,-0.06608067,-0.072938964,-0.02156989,0.08655265,-0.056258954,-0.013730838,-0.06747477,0.10824851,-0.026805071,0.028598052,0.035125975,-0.045861486,-0.036473874,-0.068500176,0.012285459,0.013089127,-0.077817224,0.018809155,0.042993154,-0.0028102628,-0.020383071,0.08027708,0.0014133668,0.026411867,0.0034606317,0.14494082,-0.023652151,0.034573004,0.007834898,0.12366027,0.052555557,-0.0343566,-0.021172095,0.09767836,-0.051046573,0.0057433792,-0.11420571,-0.0035953298,-0.06601046,-0.006361517,-0.007897924,-0.09301727,-0.0032677148,0.013515223,0.121482894,0.028117416,0.030103315,0.04957951,0.009589538,0.0798752,-0.08771397,0.08514428,-0.07814594,0.0049151527,0.062097717,-0.03107543,-0.019966375,0.028965332,-0.02259012,-0.020380735,-0.00783481,0.116537765,-0.07768778,-0.13298634,0.025632082,-0.045107234,-0.030290017,0.01524808,-0.027155861,-0.0385505,-0.10703164,-0.0038123475,0.062571116,-0.1239735,-0.03805606,0.044483323,-0.00029309688,-0.047222905,-0.029767808,0.07129635,0.116164245,-0.04959804,0.10305066
dr5pxc,0.0073960107,-0.026487743,-0.020347811,-0.041867483,0.0812718,-0.018397065,-0.15596725,0.07854175,-0.028625173,-0.037300657,0.013851965,-0.023623241,0.22681229,-0.03554231,-0.017327284,0.070035756,0.06868914,-0.13169032,0.027244333,-0.0529007,-0.017060451,0.064513944,0.0361368,0.02593603,0.027429854,0.033605766,0.04980213,0.0648981,0.06823431,0.014147739,-0.069676094,0.03860523,0.04178865,0.0011936583,0.020152342,0.054348283,-0.023698656,0.079747446,-0.08783187,0.061941907,0.0072953193,0.04299814,-0.030142251,0.024955453,-0.005571655,0.009129893,0.03900495,0.12937087,-0.09361263,0.016564028,-0.013740202,0.008317861,-0.05665885,0.035285886,-0.017055206,-0.012778945,0.011931332,0.09737139,-0.019419024,-0.04587241,0.052336443,0.018355157,0.083788835,-0.06585599,0.0020275633,-0.002831172,-0.04692052,-0.024089029,-0.07423149,-0.0066673197,0.07623271,-0.18645096,0.09972425,-0.05431799,0.042770125,-0.023931079,0.020349773,0.061916493,-0.035549983,-0.04376418,0.021528032,0.0031325277,-0.0037252665,0.07409478,-0.15705718,0.02083445,0.07591533,-0.03576379,-0.051228415,0.029700996,-0.024224287,-0.12449888,0.07339823,-0.052222144,-0.00024716818,-0.0522382,-0.023387855,-0.016792854,0.07520316,0.1754202,-0.0060339454,-0.028818147,-0.033143904,-0.028717434,0.049069785,0.073686615,0.063848585,-0.07156068,-0.06915571,0.060336795,-0.011509912,0.013921889,-0.014991925,-0.039758433,-0.19745056,-0.0061074006,-0.010997351,0.06552604,0.040813364,0.099669844,-0.100056015,0.021055387,-0.030776432,-0.03133701,-0.06178176,-0.026649076,0.074542336,0.056386903,0.06721563,0.015884152,-0.027943112,0.013666487,-0.033525825,-0.04841383,-0.09131606,-0.0042353948,-0.092706986,-0.04182425,0.021348828,-0.04436299,-0.016516436,0.011814956,0.05757059,0.051911265,0.089611374,-0.08049702,-0.01719511,-0.06744421,0.037159286,-0.040538732,-0.045813058,0.0075833513,0.050234236,0.01784914,-0.02539755,-0.0787349,0.0138334455,0.100552574,0.003556817,0.068067916,0.011377138,-0.09882926,-0.111569665,-0.032247774,-0.12185107,0.07367983,0.10270554,0.06703892,0.054685116,0.02757831,-0.062100258,-0.08255033,-0.03451344,-0.06987501,-0.090642475,-0.0748081,0.052356318,-0.036601502,-0.05079118,-0.075227946,-0.108321935,0.0057689603,-0.07642728,-0.0045037763,0.010625722,0.03496336,-0.09187348,0.03689631,0.020702397,-0.07062817,0.110309154,0.08116082,-0.0632531,0.076213576,0.036688875,-0.00216262,0.013628223,0.045765456,0.056748055,-0.07263627,0.022198647,-0.02607902,0.13110752,-0.0005436389,-0.019016279,0.054396123,0.025811864,-0.028953355,0.0069400095,-0.067202725,-0.013239504,0.10633504,-0.04013677,-0.037362117,0.05156942,0.0448185,-0.016684381,-0.07382634,0.07267385,0.06801049,-0.04987577,0.057596013,0.019536829,-0.023306428,0.041212853,0.033633396,-0.054670915,0.09423355,-0.13601927,-0.026286028,-0.028751822,0.16322258,-0.035671256,0.01028058,-0.123323545,0.07071931,0.018351587,-0.0033891047,-0.039168578,-0.026036851,-0.059517022,-0.015071078,0.04027469,-0.05281866,0.085407905,0.011865798,0.029063188,0.050597887,0.015846059,0.0016530319,0.068508744,-0.07522828,-0.11242357,-0.020782443,0.060096845,0.07128202
dr5pxd,0.0140932575,-0.01851191,-0.038720757,-0.05137512,0.08381231,0.010205954,-0.09928316,0.029331341,-0.053374078,-0.0023011635,0.009019907,-0.04346107,0.22270569,-0.023924712,-0.0045810714,0.023950888,0.043931235,-0.13425766,0.0360827,-0.04902281,0.0039372845,0.055230428,0.013263673,0.010789592,0.025320757,0.05208239,-0.04325254,0.042142723,0.05702945,0.021032924,-0.05762764,-0.0023448346,0.063945286,-0.009948569,0.07505575,0.13107567,-0.019300928,0.06555825,-0.028594159,0.13427009,-0.03215524,0.08316481,-0.040736515,0.034820214,-0.025876418,0.046436384,0.059769224,0.091746725,-0.06696822,0.043834098,0.0068993303,-0.036065955,-0.024968717,0.034133706,-0.01458993,-0.00927421,0.014499517,0.07715982,-0.007807996,-0.02430158,0.013265243,-0.034297872,0.11138421,-0.030266799,-0.014709524,-0.025362425,-0.049319573,-0.012839184,-0.058438547,-0.012548288,0.0431281,-0.2024337,0.11108969,-0.019983863,0.02305415,-0.03803877,-0.00021694551,0.065640055,-0.03525325,-0.025855668,0.021163758,0.013186608,-0.048350904,0.09272183,-0.14866833,0.026455842,0.029081026,0.018601462,-0.057142507,0.015148823,-0.06666348,-0.06836455,0.027843775,-0.029304096,0.014719358,-0.014602924,0.037089653,-0.029414523,0.006682953,0.17085478,0.01792754,-0.024737338,-0.017895086,-0.00036310533,0.058193047,0.06551153,0.057451017,-0.06048371,-0.06402431,0.07978416,-0.02834274,0.022580154,-0.0053518564,-0.08423002,-0.24344203,-0.031052686,0.003564327,0.08430413,0.07886789,0.07264038,-0.12629078,0.028149107,-0.060525402,-0.023315048,-0.07656093,-0.041391816,0.06954062,0.1002914,0.02114791,0.011626442,-0.03647679,0.0080065895,-0.06443313,-0.06693372,-0.10247927,-0.013221531,-0.084201954,-0.048472915,0.002031477,-0.047819883,-0.013520548,0.018087216,0.0661372,0.032704856,0.063072994,-0.0535267,0.04582709,-0.020924695,0.005923749,-0.010001666,0.0047742105,0.021582326,0.020392602,0.0360422,-0.026020495,-0.05452744,0.026633922,0.110479385,-0.06122582,0.052385174,-0.039030608,-0.13714814,-0.1492126,-0.053299114,-0.08736236,0.079414055,0.040983215,0.09433221,0.037469033,0.032419913,-0.03999647,-0.074861676,-0.063938476,-0.07200178,-0.04434998,-0.056018148,0.04080964,-0.00569672,-0.06364579,-0.057952926,-0.07737295,-0.02517258,-0.06746689,-0.01998595,0.041164916,0.027520074,-0.050869655,0.044955224,0.02304949,-0.10650273,0.11889707,0.10979529,-0.06615073,0.112162486,0.056640595,-0.0084274085,-0.0011861646,0.03525755,0.022471482,-0.07762246,0.059884354,-0.03870156,0.11776462,0.009483391,0.014608492,0.07160806,-0.031323545,0.0039431206,0.018385656,-0.0067243814,-0.028116962,0.11263179,-0.032734845,-0.021135343,0.05493716,0.02908562,-0.019239036,-0.063479364,0.06159921,0.040731017,-0.033241455,0.0728667,-0.003216405,-0.016731283,0.034390345,0.04951361,-0.05619264,0.08204628,-0.09939353,-0.030170029,-0.04187028,0.09638416,-0.054645523,-0.0023359638,-0.10886603,0.0645148,0.048984095,0.0069177165,-0.045025956,-0.012492899,-0.077131316,-0.064148314,-0.025581472,-0.053230293,0.13395402,0.031762917,0.05276342,0.037997145,0.014610451,-0.019791443,0.05905299,-0.0810469,-0.15342677,-0.03563553,0.0698989,0.07052352
dr5pxf,0.014414762,-0.022276035,-0.036611874,-0.050351653,0.08404289,-1.2682323e-05,-0.12481771,0.047550876,-0.044826705,-0.020789899,0.01460308,-0.037464526,0.22796482,-0.028314264,-0.007756458,0.04420978,0.057643715,-0.13640769,0.03303455,-0.048860114,-0.0068877116,0.06273852,0.027282253,0.018424831,0.021635672,0.049844682,-0.002097195,0.053039532,0.06507887,0.020453213,-0.060029298,0.015638437,0.06402971,-0.0035962404,0.05350696,0.10117774,-0.021944955,0.073147155,-0.054469008,0.10314821,-0.01469472,0.06764862,-0.028405562,0.03428207,-0.017838733,0.02763229,0.051011823,0.114537135,-0.078967914,0.03178857,-0.0034266082,-0.013888698,-0.036097035,0.034620192,-0.014119987,-0.011489367,0.011601452,0.08503814,-0.010566208,-0.033472277,0.032294717,-0.015813634,0.10281082,-0.043894872,-0.010732838,-0.0206532,-0.048588607,-0.014684563,-0.06441035,-0.01584732,0.056621533,-0.20096946,0.11079525,-0.034252703,0.026994638,-0.035507943,0.008355176,0.06410867,-0.037565056,-0.03419255,0.020452261,0.010608091,-0.033567116,0.08704009,-0.15531425,0.03138739,0.046868805,-0.0060914396,-0.054946046,0.024320953,-0.04712299,-0.09173478,0.045215227,-0.037391007,0.0104728835,-0.030604916,0.012595077,-0.024456482,0.03946528,0.17447072,0.01026948,-0.029346254,-0.028501114,-0.015306366,0.054557443,0.06875999,0.06317077,-0.065288864,-0.06782245,0.07520443,-0.022983337,0.022196801,-0.010812334,-0.06932169,-0.22777098,-0.01584864,-0.003110068,0.081502795,0.06087536,0.08541968,-0.11863709,0.028312532,-0.054455664,-0.028908148,-0.069412515,-0.040305886,0.06833763,0.07862958,0.04257086,0.010977007,-0.034197077,0.010305779,-0.050081473,-0.059795987,-0.09781081,-0.00985028,-0.08815693,-0.044362504,0.013746684,-0.05161375,-0.01744299,0.017428137,0.062387154,0.04317063,0.07589307,-0.06724399,0.016245404,-0.041998565,0.020127915,-0.023819532,-0.016649716,0.014436184,0.035015814,0.027218293,-0.021804769,-0.0654255,0.026287204,0.108894475,-0.035307083,0.06170701,-0.020070111,-0.12644672,-0.13953598,-0.04552912,-0.10678875,0.07971172,0.07031523,0.08297707,0.04894694,0.032854866,-0.0479049,-0.0813318,-0.052170016,-0.070681125,-0.06080432,-0.064206675,0.042739898,-0.020988682,-0.060209006,-0.06604669,-0.092015855,-0.015055101,-0.07028736,-0.012512798,0.025994565,0.034671444,-0.070497364,0.04687677,0.017802874,-0.0973806,0.11654192,0.1019871,-0.06792995,0.100529104,0.046637382,-0.00567747,0.004901865,0.04226959,0.040144842,-0.07621785,0.044675417,-0.029233316,0.12890898,0.0029498676,-0.00052754517,0.06658283,-0.0033885795,-0.008427279,0.011315891,-0.034718778,-0.020116214,0.113618255,-0.034824595,-0.026828544,0.054880183,0.033937715,-0.02101144,-0.0709962,0.066665515,0.05324541,-0.04181078,0.0666816,0.009412802,-0.026745565,0.03529058,0.039639402,-0.057021834,0.09087878,-0.122097395,-0.031042332,-0.039094783,0.13248219,-0.047106538,0.0044628414,-0.117308624,0.06591306,0.034209065,0.0011782832,-0.04730828,-0.019184278,-0.07070004,-0.04453463,0.002296482,-0.058463804,0.119354084,0.024394188,0.04312092,0.04718863,0.016425097,-0.012078848,0.060065392,-0.083217345,-0.13964447,-0.029531648,0.06269606,0.07588032
dr5pxm,0.060461998,0.017127817,0.08993884,0.05524312,0.018142,0.040350966,-0.18815018,0.06637951,0.052575648,0.012353607,-0.029486462,0.009048245,0.060258683,-0.00037634876,0.023797614,0.15662771,0.0036661322,-0.10382898,-0.016653487,-0.042581607,0.041455023,0.10623207,0.018300012,0.0926569,0.12149236,-0.00236105,0.21817899,0.07584763,0.005772668,-0.012365187,-0.022526879,0.009009027,-0.12129956,-0.0125314435,-0.08789221,-0.09915698,-0.039966047,0.03283403,-0.0674486,-0.03749431,0.06984053,-0.03521783,-0.096846476,-0.042028967,-0.03778927,-0.06580852,-0.05272894,0.03190119,-0.028518254,0.021641973,0.0071698413,0.03129627,-0.11711913,-0.026647085,-0.06176819,-0.0478125,0.012852213,0.056728512,0.028586078,-0.0036435262,0.08623442,0.06939034,-0.10314423,-0.055873692,-0.017524708,0.039806433,-0.046933807,-0.005022008,-0.038257137,0.05468971,0.026167361,0.093182825,0.038986567,-0.028169883,0.13483141,-0.060606014,-0.046736587,0.015882732,-0.014094775,-0.029856298,-0.011955588,0.026476137,0.10161836,0.0086283665,-0.08020548,-0.0068742,0.087913916,-0.07332158,-0.0020902683,0.0064165248,0.07925463,-0.13069755,0.055265673,-0.089220986,-0.08057868,-0.11275817,-0.105897576,0.082734436,0.10161971,0.035138246,-0.017255792,-0.056532457,-0.04044355,-0.038596496,-0.06984051,-0.008405954,0.020196678,-0.0053867064,-0.09743477,-0.037285272,-0.045099545,-0.053316046,-0.050530132,0.045907672,0.03273348,0.026576014,-0.059028566,-0.056331433,-0.02816186,0.074347824,-0.052292947,-0.11893432,0.064247854,0.040588357,-0.057623267,0.07747649,0.07270367,-0.01909733,0.048917297,-0.0031954998,0.004276088,0.023915743,0.06406392,0.03879453,0.014968298,0.030197019,0.064931795,-0.04433134,0.0011814473,0.02796219,0.057421453,-0.02893535,-0.12106755,0.08324796,0.04971482,-0.016569575,-0.07289258,-0.11629478,0.069940515,-0.05670911,-0.1105661,0.03937524,0.063612364,0.024275491,-0.10402874,0.019455785,-0.04921058,0.014796459,0.11764426,-0.023722786,0.15998872,0.070192024,0.030094331,0.05430616,-0.1091788,-0.024793154,0.018217921,-0.04135861,0.019779373,0.08762882,0.013059949,0.009359433,0.06184548,-0.008127584,-0.081499994,-0.07165413,0.062309816,0.0031249134,0.040299937,-0.06464402,-0.09783293,0.099281855,-0.13394676,0.032302395,-0.02961574,-0.029850243,0.019628713,-0.07036452,0.04472925,0.046088193,0.08111718,0.028013699,0.03839369,-0.02768486,0.022073202,-0.02230823,0.04155262,-0.007357558,-0.032897025,0.026960805,-0.032078035,-0.036153056,0.10039716,0.0069540106,-0.07497453,0.013666837,0.058437005,-0.08921828,0.014462679,-0.07728386,-0.047689714,-0.0020864329,0.018657254,0.008191818,-0.039608944,-0.070182,0.0114153195,-0.017693672,0.04142505,0.016265236,-0.016526379,-0.0246879,0.0470257,-0.01927728,0.073468596,-0.06165077,-0.093976006,-0.01308471,-0.11146943,0.02461356,-0.0024362497,0.10905532,-0.019165127,0.018231438,-0.032261983,0.07576179,0.0035409469,0.076768756,0.016156957,-0.0128298765,-0.08443805,0.018942716,0.113529585,0.025258143,-0.049482483,-0.098329164,-0.06568577,0.063835844,-0.018007945,0.02288374,0.03792064,0.051412173,0.14021836,-0.019835332,0.002171844,-0.04208518
dr5pxn,0.15986961,0.0015009899,0.03942569,-0.055204585,0.01164079,0.054494593,-0.06772897,0.091751404,0.035358146,-0.030138746,-0.0031717988,0.048812907,-0.0061454303,-0.013149765,-0.022149142,-0.08266905,-0.03252627,-0.13681224,0.038298972,-0.0648464,0.0738328,0.0038663207,-0.021149661,0.07928777,0.046722766,0.017184705,0.106204875,0.04168583,-0.015656995,-0.037099402,-0.00996976,0.08265219,-0.15837955,0.08440669,0.008891018,-0.013841487,-0.05604507,0.10736088,0.020705054,0.12309062,-0.06077155,-0.009187869,-0.12163873,0.0148154525,-0.04602197,0.062265035,-0.025114432,0.050621357,0.017915333,0.07641364,-0.06036893,0.0012301248,-0.103911534,0.037425507,-0.07023626,0.048280023,0.04647595,-0.0424555,0.0011121647,-0.05343936,-0.0860218,-0.11196584,-0.061939042,-0.022413347,0.00829342,-9.998475e-06,-0.035657868,-0.010189856,0.034041166,0.03962213,0.029666986,-0.0025791957,-0.031934537,0.0030208442,-0.00097632105,-0.08081312,-0.07903896,0.03789961,-0.04878244,-0.07606845,-0.013037321,0.056222986,0.16079618,-0.04812489,-0.11861807,0.057817254,0.054031156,-0.05918736,-0.018784713,-0.023940003,0.055662215,-0.09075396,-0.07299965,-0.019155717,0.039870515,-0.1357729,0.04126075,0.042335026,0.023134936,0.11786305,0.049816925,-0.040777836,0.07375049,-0.0007308795,-0.04578362,-0.009786188,0.033251997,-0.04047594,-0.06037081,-0.056688108,-0.01617881,0.025347244,0.03486737,-0.01993503,-0.12528332,-0.078444175,-0.07403224,0.009238888,0.028071342,0.11252691,-0.0007098044,-0.14410248,0.20012218,0.048548765,0.124767125,0.034641244,0.020889193,-0.11510223,0.056347806,-0.051679466,0.041002177,0.0066189067,-0.026590267,-0.029333102,-0.04222469,9.640808e-05,0.11609848,0.031132622,-0.010363206,0.04650148,0.055434246,0.08437727,-0.025753647,0.005265919,0.008289854,0.026538542,0.010402569,-0.014767689,0.0032106864,0.05644679,-0.004880325,0.06564408,-0.039603595,0.074650116,-0.06933796,0.024335437,0.033724785,0.040663738,-0.022143055,0.009411968,-0.0051821657,-0.04613988,-0.0416774,-0.0715529,-0.16466808,0.047411937,-0.07990403,-0.06425676,0.043113794,-0.11058426,-0.042195532,0.019616041,0.06583779,-0.015302781,-0.07934821,-0.054608587,0.045536097,-0.014142045,-0.062454145,-0.024241142,0.0587928,0.0072323424,0.0218687,-0.046542183,-0.050192975,-0.092914626,-0.030424831,0.042297896,0.011511782,-0.061099466,0.054755952,0.106275745,-0.014807665,-0.0295889,0.045145523,0.027164565,0.027653575,-0.00185052,0.09400456,0.0010431715,0.053613123,-0.011065224,0.18028791,0.031620923,-0.039171856,0.017628508,0.06727163,-0.091764726,0.044750385,-0.15939981,-0.026581122,0.028554942,0.03695258,-0.038304776,-0.11577196,0.024555147,0.07974935,0.081809126,0.08009054,0.03206693,0.097527795,0.005557803,0.059158843,-0.05417279,0.08450413,-0.051284462,-0.031142551,0.03325705,6.689483e-05,0.024145495,0.025940364,-0.013200375,-0.023647599,0.00041223643,0.060528405,0.04454972,-0.11245112,0.08619088,-0.06259787,-0.057558175,0.019343687,-0.03261586,-0.02834617,-0.06607332,-0.019770868,0.03876342,-0.054062895,-0.071231924,0.021190604,0.05274468,-0.05554131,-0.020088462,0.047271002,0.15108429,-0.040481042,0.008162429
dr5pxs,0.08296728,0.03364431,0.01325545,-0.057290133,0.04301554,-0.004362409,0.006780291,-0.025404379,-0.13865937,-0.020841887,-0.031977028,-0.008255181,-0.00033071366,-0.01142642,-0.009938493,-0.13831754,-0.09757571,0.11922119,-0.0078540435,-0.026894443,0.0060950397,0.034049746,0.035730727,-0.019099569,-0.08001703,0.06451002,-0.023328722,0.014682231,-0.015085858,0.037203442,-0.008752296,0.045767024,0.20476593,-0.0064558135,-0.0641425,0.04412809,-0.019638814,-0.021677146,0.03156803,-0.07207422,-0.023628056,0.021322945,0.055096008,-0.022206368,-0.054215476,0.0073252083,0.009778296,-0.011616304,-0.02424997,-0.04278156,0.059625495,0.060178284,0.13298681,-0.040705346,-0.048537206,-0.040599704,0.098165646,-0.03208731,-0.005266488,-0.02748931,0.01167769,-0.03896412,0.01592409,0.018702913,-0.060073588,0.08261952,0.064272314,-0.028370574,0.01262959,-0.1405481,0.11173504,0.007046338,-0.120593555,-0.04742764,-0.1508343,-0.024254967,-0.040566403,-0.1450433,-0.022218907,-0.03427485,0.011926035,0.10060216,0.03441892,-0.015222257,0.027441114,0.15611221,0.0144686885,-0.02860088,0.102083094,-0.013618371,0.03301688,0.023967257,-0.14460197,0.006024707,0.05889197,-0.03542194,0.07405561,-0.036464144,-0.039211754,-0.057983376,0.052570283,0.004798983,-0.038311325,-0.018032322,0.017497202,-0.061097164,0.054926496,0.05475521,-0.092577934,0.031320203,0.08392522,0.1469239,-0.013005428,0.03251489,-0.11839606,0.0035331529,0.065021165,0.099418424,0.029981546,-0.06955811,0.01955836,0.050635014,0.032039944,-0.12197347,-0.012151301,-0.09786555,-0.09460694,-0.0922386,-0.041648954,-0.12475258,-0.030664831,0.051368088,0.0639655,0.019812796,0.042235162,0.06283799,-0.12401938,-0.012684267,-0.017911077,0.10742224,-0.07622054,-0.08086456,-0.049030714,0.011349518,-0.064154945,0.17912604,0.03246709,-0.01864846,-0.10611065,0.05739094,-0.058624968,-0.043969236,-0.008865963,0.003951893,-0.10195233,-0.005527056,0.057763938,0.01634157,0.021971408,0.060434856,-0.10434395,0.0032458135,0.004523209,0.01052103,-0.08604647,0.040967267,-0.0048227943,-0.111688,-0.010646049,0.017466925,0.04614535,0.03327557,0.12584624,0.035648756,0.07983976,0.077151805,0.0016617911,0.012852909,0.0045248717,0.079701185,-0.08993925,-0.0022547205,0.103702635,-0.10527012,-0.033735693,0.054099854,-0.05678492,0.11527049,0.0157579,-0.029324679,-0.011349741,-0.00092025776,-0.0092853885,-0.017884433,-0.10370026,0.0054050563,0.04729502,0.022654263,-0.055245165,-0.027120523,-0.036787447,0.048298415,0.02481914,0.077788085,0.053093538,0.0014607742,-0.049272936,-0.031368963,0.027392494,-0.08045329,-0.04526355,0.039578617,-0.015320489,-0.004783675,-0.07135339,0.007542992,-0.01702997,-0.051902417,0.022801757,0.08748007,0.06559114,0.010539439,0.050802816,-0.10279808,0.039273996,0.012430158,0.10123485,-0.020973423,0.13772649,0.012594145,-0.055371705,-0.010025763,0.050695892,0.03271803,0.03516626,0.03320252,0.019607972,-0.031485908,0.041094426,0.022703482,0.08033474,0.061241858,0.082179524,0.026808053,0.016051421,-0.020991413,0.012446495,-0.032212786,-0.018925218,-0.09504698,0.12031628,-0.037942253,-0.05211707,-0.10213365,-0.0588977,0.044753134
dr5pxw,0.04575298,0.039585143,0.012473831,0.03680066,0.010339942,0.062080894,0.048206527,-0.071580105,-0.078047484,-0.10145001,-0.024512758,0.011162215,-2.9550765e-06,0.020442052,0.018290801,-0.008861332,-0.10030925,0.027572893,0.05905337,0.015722835,0.00948739,-0.014362515,0.035903007,0.0044277133,-0.116896614,0.010496258,-0.00080227485,0.023666251,-0.075087175,-0.0500754,0.024973094,-0.0076692128,0.055786062,-0.05418526,-0.015146057,-0.06919549,-0.021628438,-0.04771133,0.045303296,-0.11059716,-0.026210668,-0.040641483,0.112366326,0.0024444489,-0.042154443,0.00710497,-0.013948279,0.020178685,0.08827361,-0.011262397,-0.0696609,0.13025585,0.011839755,-0.0013472546,0.02920626,0.021655826,0.02931261,-0.12627138,-0.002568756,-0.043088492,0.03734674,-0.049508624,-0.036500935,-0.018860484,-0.07129043,0.0075065466,0.07975383,-0.025080638,0.010557928,-0.120140135,0.09494132,0.026469886,-0.10276341,-0.00801014,-0.06359946,-0.024255706,0.080021665,-0.0835363,0.003926098,0.021627555,0.012780111,0.076914676,0.02874618,-0.013695553,0.008627274,0.07814517,-0.00954488,-0.12941197,0.10845746,0.016595136,0.038403273,-0.01210661,-0.13841191,0.07218123,0.03205499,-0.075751,0.06980379,0.020471504,-0.023052681,-0.0517101,0.05795833,-0.066237524,-0.036987837,-0.009026531,-0.027503783,-0.096161075,0.05042595,-0.049329884,-0.0075876303,-0.034970008,0.03846038,0.089723796,0.0013160384,-0.052883793,0.019551547,0.059253305,-0.06748448,0.16506517,0.05388015,-0.0013028148,-0.033195816,-0.009272508,0.044972986,-0.08743493,0.1531339,-0.09293392,-0.04556164,-0.16413374,-0.04340684,-0.022425482,-0.013721643,0.088864796,0.095503576,0.101864986,0.07626198,0.0502117,-0.061799634,0.0008659118,-0.012122107,0.073798336,0.012099058,0.07809183,-0.017894784,-0.1120017,-0.043135878,0.18892717,-0.1361654,-0.11356751,0.02856405,0.10635031,-0.0693057,0.05436958,-0.05362447,-0.016158707,-0.084649034,-0.006145242,0.09337797,-0.055409253,0.016853929,0.10290562,-0.032844536,0.051382445,-0.034113735,0.005706761,-0.13838062,0.004256145,0.030804392,-0.0066957357,-0.0074036946,-0.011994792,0.022443388,0.06543358,0.069236055,-0.0050225183,0.10571997,-0.028930346,-0.022015572,-0.030448588,-0.019600458,0.11703781,-0.028755385,-0.011202072,0.095355384,-0.09922536,-0.15086386,0.045538135,-0.102967866,0.06987943,0.0007808351,0.030748572,-0.07386432,0.088615194,-0.024720991,0.0026998396,-0.068105385,0.11967726,-0.016771838,0.022429997,-0.006750426,0.0049372367,0.030208284,0.0017710619,0.05782668,-0.004365824,0.013280045,0.030510895,-0.0008201699,-0.024788225,-0.004112442,-0.11687066,0.06709733,0.058822315,0.021052964,0.016355287,-0.04376474,-0.042626496,-0.027233113,0.010314656,0.043898553,0.056671783,0.07685516,-0.05629596,0.054742426,-0.13073838,-0.08429105,-0.10856575,0.020780945,-0.041536752,0.054984976,0.068307534,-0.071962126,-0.0043111118,0.06213421,0.027525818,0.028487066,-0.0400439,-0.04184396,0.03912719,0.05032922,-0.05227938,0.04928144,0.10957876,0.09644167,0.05412292,-0.052258406,-0.0072650816,0.010421188,0.0040908805,-0.025084388,0.07243467,0.018480413,-0.08044713,0.0007804028,0.11563149,-0.08872366,-0.041835345
dr5pxx,0.011785745,0.011908216,-0.013428039,0.03885874,-0.012854769,0.059330665,0.060586322,-0.086515106,-0.06211924,-0.09611889,-0.02344149,0.02516185,-0.009268975,0.00019807655,0.017601557,0.020603135,-0.07223684,0.004039405,0.10115485,0.023390384,0.011875725,-0.045964632,0.05899614,0.024832172,-0.1238794,0.018259762,0.027218506,0.023308849,-0.1004989,-0.06365092,0.05134636,-0.0019996185,0.020620974,-0.021282524,0.015072469,-0.08689265,-0.02432098,-0.03903788,0.04840152,-0.106662676,-0.04728635,-0.01839984,0.11283545,0.028478853,-0.029562393,0.057643168,-0.010277161,-0.0154946465,0.13042288,-0.025653286,-0.052533202,0.11750077,-0.0135533605,-0.014974542,0.07970843,0.043771416,0.013732021,-0.163828,-0.010358145,-0.04625001,0.014618715,-0.045578115,-0.035046417,-0.011680597,-0.069447756,0.0152178,0.09383641,-0.024026489,0.0016231152,-0.081428744,0.07688263,0.009628516,-0.11131111,-0.014863708,-0.045579366,-0.007944622,0.10045433,-0.1102323,0.0049376558,0.01963701,-0.017697098,0.09148927,0.034354053,-0.016422505,-0.007829612,0.016932076,-0.015464269,-0.14243165,0.087289065,0.015861757,0.004769926,0.0059732394,-0.12278024,0.05058406,0.048806764,-0.07433084,0.07449739,0.022695662,-0.023186287,-0.009870981,0.059475362,-0.035802066,-0.047638442,-0.04155788,-0.00847763,-0.08801492,0.0371564,-0.042610183,-0.0023540242,-0.024530727,0.063383095,0.06755188,0.012002685,-0.055725653,0.0046160994,0.08981448,-0.029515915,0.1522083,0.06572395,0.00021760695,-0.025925502,-0.028132783,0.052660603,-0.044396397,0.09488477,-0.10005501,-0.0344394,-0.17149587,-0.046572007,0.008399495,0.008809837,0.058305398,0.077558346,0.12647365,0.066547625,0.01902039,-0.037966214,0.02447291,-0.02459851,0.048572723,0.018871358,0.07649801,-0.03561948,-0.13218266,-0.037935916,0.14933856,-0.10805005,-0.09873287,0.06288867,0.07420188,-0.054496635,0.07439863,-0.09519034,0.0005238999,-0.09167246,-0.020456811,0.084138095,-0.063177586,0.02338155,0.117503576,0.0022113468,0.017560985,-0.051311895,-0.011065102,-0.12800713,0.035537735,0.049427588,0.004602735,-0.020080663,-0.030006165,0.048126303,0.069530606,0.022086438,-0.014098914,0.09871976,-0.047753476,-0.01965668,-0.035944816,-0.034639303,0.10330566,-0.029218175,-0.02351216,0.069586754,-0.10298143,-0.13951659,0.016109454,-0.10097993,0.09086818,0.006163125,0.04832357,-0.096014544,0.080097586,-0.0037597758,0.001529713,-0.05637929,0.15432091,-0.007052535,0.022143919,0.010049201,0.024888085,0.0065158475,0.0034633346,0.08338053,0.033253342,0.002632417,0.039226037,0.008756135,-0.02728847,-0.014804356,-0.07738966,0.08422605,0.021446051,0.014202088,-0.0022702438,-0.04814092,-0.045973253,-0.0045522917,0.0018069181,0.06346611,0.07154287,0.068661295,-0.05772955,0.0652037,-0.14104359,-0.08834315,-0.09634777,0.004384232,0.0033445552,0.047733784,0.04575894,-0.07272623,-0.0021098237,0.03838088,0.02371842,0.022174094,-0.056200344,-0.046083655,0.07356499,0.029839111,-0.06776252,0.0758551,0.10188371,0.04041748,0.037719104,-0.07071145,0.033229236,0.0037508353,0.004280669,-0.0323819,0.12997259,-0.018487653,-0.08427438,-0.007317764,0.13778977,-0.08189442,-0.102366835
